digraph Tree {
node [shape=box, style="filled, rounded", color="black", fontname="helvetica"] ;
edge [fontname="helvetica"] ;
0 [label="150Nd_pRB <= 1.95\ngini = 0.83\nsamples = 17772\nvalue = [4648, 4803, 4647, 4740, 4654, 4672]\nclass = G0", fillcolor="#fffffe"] ;
1 [label="150Nd_pRB <= 0.01\ngini = 0.5\nsamples = 5972\nvalue = [4648, 4803, 0, 0, 0, 0]\nclass = G0", fillcolor="#fcfef9"] ;
0 -> 1 [labeldistance=2.5, labelangle=45, headlabel="True"] ;
2 [label="142Nd_cCaspase_3 <= 3.67\ngini = 0.45\nsamples = 2153\nvalue = [1149, 2283, 0, 0, 0, 0]\nclass = G0", fillcolor="#cef29d"] ;
1 -> 2 ;
3 [label="gini = 0.0\nsamples = 1408\nvalue = [0, 2283, 0, 0, 0, 0]\nclass = G0", fillcolor="#9de539"] ;
2 -> 3 ;
4 [label="gini = 0.0\nsamples = 745\nvalue = [1149, 0, 0, 0, 0, 0]\nclass = apoptosis", fillcolor="#e58139"] ;
2 -> 4 ;
5 [label="176Yb_Cyclin_B1 <= 2.03\ngini = 0.49\nsamples = 3819\nvalue = [3499, 2520, 0, 0, 0, 0]\nclass = apoptosis", fillcolor="#f8dcc8"] ;
1 -> 5 ;
6 [label="89Y_pHH3 <= 0.0\ngini = 0.49\nsamples = 872\nvalue = [624, 772, 0, 0, 0, 0]\nclass = G0", fillcolor="#ecfad9"] ;
5 -> 6 ;
7 [label="142Nd_cCaspase_3 <= 3.67\ngini = 0.49\nsamples = 630\nvalue = [431, 593, 0, 0, 0, 0]\nclass = G0", fillcolor="#e4f8c9"] ;
6 -> 7 ;
8 [label="gini = 0.0\nsamples = 367\nvalue = [0, 593, 0, 0, 0, 0]\nclass = G0", fillcolor="#9de539"] ;
7 -> 8 ;
9 [label="gini = 0.0\nsamples = 263\nvalue = [431, 0, 0, 0, 0, 0]\nclass = apoptosis", fillcolor="#e58139"] ;
7 -> 9 ;
10 [label="150Nd_pRB <= 0.25\ngini = 0.5\nsamples = 242\nvalue = [193, 179, 0, 0, 0, 0]\nclass = apoptosis", fillcolor="#fdf6f1"] ;
6 -> 10 ;
11 [label="142Nd_cCaspase_3 <= 3.61\ngini = 0.45\nsamples = 61\nvalue = [39, 73, 0, 0, 0, 0]\nclass = G0", fillcolor="#d1f3a3"] ;
10 -> 11 ;
12 [label="gini = 0.0\nsamples = 35\nvalue = [0, 73, 0, 0, 0, 0]\nclass = G0", fillcolor="#9de539"] ;
11 -> 12 ;
13 [label="gini = 0.0\nsamples = 26\nvalue = [39, 0, 0, 0, 0, 0]\nclass = apoptosis", fillcolor="#e58139"] ;
11 -> 13 ;
14 [label="142Nd_cCaspase_3 <= 3.63\ngini = 0.48\nsamples = 181\nvalue = [154, 106, 0, 0, 0, 0]\nclass = apoptosis", fillcolor="#f7d8c1"] ;
10 -> 14 ;
15 [label="gini = 0.0\nsamples = 79\nvalue = [0, 106, 0, 0, 0, 0]\nclass = G0", fillcolor="#9de539"] ;
14 -> 15 ;
16 [label="gini = 0.0\nsamples = 102\nvalue = [154, 0, 0, 0, 0, 0]\nclass = apoptosis", fillcolor="#e58139"] ;
14 -> 16 ;
17 [label="142Nd_cCaspase_3 <= 3.67\ngini = 0.47\nsamples = 2947\nvalue = [2875, 1748, 0, 0, 0, 0]\nclass = apoptosis", fillcolor="#f5ceb1"] ;
5 -> 17 ;
18 [label="gini = 0.0\nsamples = 1113\nvalue = [0, 1748, 0, 0, 0, 0]\nclass = G0", fillcolor="#9de539"] ;
17 -> 18 ;
19 [label="gini = 0.0\nsamples = 1834\nvalue = [2875, 0, 0, 0, 0, 0]\nclass = apoptosis", fillcolor="#e58139"] ;
17 -> 19 ;
20 [label="127I_IdU <= 4.03\ngini = 0.75\nsamples = 11800\nvalue = [0, 0, 4647, 4740, 4654, 4672]\nclass = S", fillcolor="#feffff"] ;
0 -> 20 [labeldistance=2.5, labelangle=-45, headlabel="False"] ;
21 [label="176Yb_Cyclin_B1 <= 4.77\ngini = 0.67\nsamples = 8835\nvalue = [0, 0, 4647, 0, 4654, 4672]\nclass = M", fillcolor="#ffffff"] ;
20 -> 21 ;
22 [label="176Yb_Cyclin_B1 <= 2.66\ngini = 0.5\nsamples = 5745\nvalue = [0, 0, 4647, 0, 0, 4454]\nclass = G1", fillcolor="#f7fefa"] ;
21 -> 22 ;
23 [label="89Y_pHH3 <= 2.51\ngini = 0.45\nsamples = 1618\nvalue = [0, 0, 1680, 0, 0, 866]\nclass = G1", fillcolor="#9ff2c2"] ;
22 -> 23 ;
24 [label="gini = 0.0\nsamples = 1066\nvalue = [0, 0, 1680, 0, 0, 0]\nclass = G1", fillcolor="#39e581"] ;
23 -> 24 ;
25 [label="gini = 0.0\nsamples = 552\nvalue = [0, 0, 0, 0, 0, 866]\nclass = M", fillcolor="#e5399d"] ;
23 -> 25 ;
26 [label="89Y_pHH3 <= 3.01\ngini = 0.5\nsamples = 4127\nvalue = [0, 0, 2967, 0, 0, 3588]\nclass = M", fillcolor="#faddee"] ;
22 -> 26 ;
27 [label="gini = 0.0\nsamples = 1876\nvalue = [0, 0, 2967, 0, 0, 0]\nclass = G1", fillcolor="#39e581"] ;
26 -> 27 ;
28 [label="gini = 0.0\nsamples = 2251\nvalue = [0, 0, 0, 0, 0, 3588]\nclass = M", fillcolor="#e5399d"] ;
26 -> 28 ;
29 [label="142Nd_cCaspase_3 <= 1.69\ngini = 0.09\nsamples = 3090\nvalue = [0, 0, 0, 0, 4654, 218]\nclass = G2", fillcolor="#8742e6"] ;
21 -> 29 ;
30 [label="142Nd_cCaspase_3 <= 1.67\ngini = 0.17\nsamples = 466\nvalue = [0, 0, 0, 0, 689, 72]\nclass = G2", fillcolor="#8e4ee8"] ;
29 -> 30 ;
31 [label="127I_IdU <= 0.88\ngini = 0.15\nsamples = 441\nvalue = [0, 0, 0, 0, 658, 59]\nclass = G2", fillcolor="#8c4be7"] ;
30 -> 31 ;
32 [label="176Yb_Cyclin_B1 <= 4.85\ngini = 0.13\nsamples = 375\nvalue = [0, 0, 0, 0, 571, 41]\nclass = G2", fillcolor="#8a47e7"] ;
31 -> 32 ;
33 [label="89Y_pHH3 <= 2.53\ngini = 0.29\nsamples = 55\nvalue = [0, 0, 0, 0, 71, 15]\nclass = G2", fillcolor="#9c63ea"] ;
32 -> 33 ;
34 [label="gini = 0.0\nsamples = 43\nvalue = [0, 0, 0, 0, 71, 0]\nclass = G2", fillcolor="#8139e5"] ;
33 -> 34 ;
35 [label="gini = 0.0\nsamples = 12\nvalue = [0, 0, 0, 0, 0, 15]\nclass = M", fillcolor="#e5399d"] ;
33 -> 35 ;
36 [label="176Yb_Cyclin_B1 <= 6.05\ngini = 0.09\nsamples = 320\nvalue = [0, 0, 0, 0, 500, 26]\nclass = G2", fillcolor="#8843e6"] ;
32 -> 36 ;
37 [label="89Y_pHH3 <= 2.65\ngini = 0.06\nsamples = 261\nvalue = [0, 0, 0, 0, 411, 14]\nclass = G2", fillcolor="#8540e6"] ;
36 -> 37 ;
38 [label="gini = 0.0\nsamples = 249\nvalue = [0, 0, 0, 0, 411, 0]\nclass = G2", fillcolor="#8139e5"] ;
37 -> 38 ;
39 [label="gini = 0.0\nsamples = 12\nvalue = [0, 0, 0, 0, 0, 14]\nclass = M", fillcolor="#e5399d"] ;
37 -> 39 ;
40 [label="142Nd_cCaspase_3 <= 0.06\ngini = 0.21\nsamples = 59\nvalue = [0, 0, 0, 0, 89, 12]\nclass = G2", fillcolor="#9254e9"] ;
36 -> 40 ;
41 [label="176Yb_Cyclin_B1 <= 7.02\ngini = 0.48\nsamples = 2\nvalue = [0, 0, 0, 0, 2, 3]\nclass = M", fillcolor="#f6bdde"] ;
40 -> 41 ;
42 [label="gini = 0.0\nsamples = 1\nvalue = [0, 0, 0, 0, 0, 3]\nclass = M", fillcolor="#e5399d"] ;
41 -> 42 ;
43 [label="gini = 0.0\nsamples = 1\nvalue = [0, 0, 0, 0, 2, 0]\nclass = G2", fillcolor="#8139e5"] ;
41 -> 43 ;
44 [label="89Y_pHH3 <= 3.14\ngini = 0.17\nsamples = 57\nvalue = [0, 0, 0, 0, 87, 9]\nclass = G2", fillcolor="#8e4de8"] ;
40 -> 44 ;
45 [label="gini = 0.0\nsamples = 52\nvalue = [0, 0, 0, 0, 87, 0]\nclass = G2", fillcolor="#8139e5"] ;
44 -> 45 ;
46 [label="gini = 0.0\nsamples = 5\nvalue = [0, 0, 0, 0, 0, 9]\nclass = M", fillcolor="#e5399d"] ;
44 -> 46 ;
47 [label="127I_IdU <= 1.01\ngini = 0.28\nsamples = 66\nvalue = [0, 0, 0, 0, 87, 18]\nclass = G2", fillcolor="#9b62ea"] ;
31 -> 47 ;
48 [label="89Y_pHH3 <= 2.85\ngini = 0.49\nsamples = 14\nvalue = [0, 0, 0, 0, 14, 10]\nclass = G2", fillcolor="#dbc6f8"] ;
47 -> 48 ;
49 [label="gini = 0.0\nsamples = 8\nvalue = [0, 0, 0, 0, 14, 0]\nclass = G2", fillcolor="#8139e5"] ;
48 -> 49 ;
50 [label="gini = 0.0\nsamples = 6\nvalue = [0, 0, 0, 0, 0, 10]\nclass = M", fillcolor="#e5399d"] ;
48 -> 50 ;
51 [label="150Nd_pRB <= 4.72\ngini = 0.18\nsamples = 52\nvalue = [0, 0, 0, 0, 73, 8]\nclass = G2", fillcolor="#8f4fe8"] ;
47 -> 51 ;
52 [label="89Y_pHH3 <= 2.67\ngini = 0.12\nsamples = 50\nvalue = [0, 0, 0, 0, 73, 5]\nclass = G2", fillcolor="#8a47e7"] ;
51 -> 52 ;
53 [label="gini = 0.0\nsamples = 46\nvalue = [0, 0, 0, 0, 73, 0]\nclass = G2", fillcolor="#8139e5"] ;
52 -> 53 ;
54 [label="gini = 0.0\nsamples = 4\nvalue = [0, 0, 0, 0, 0, 5]\nclass = M", fillcolor="#e5399d"] ;
52 -> 54 ;
55 [label="gini = 0.0\nsamples = 2\nvalue = [0, 0, 0, 0, 0, 3]\nclass = M", fillcolor="#e5399d"] ;
51 -> 55 ;
56 [label="150Nd_pRB <= 4.12\ngini = 0.42\nsamples = 25\nvalue = [0, 0, 0, 0, 31, 13]\nclass = G2", fillcolor="#b68cf0"] ;
30 -> 56 ;
57 [label="89Y_pHH3 <= 2.85\ngini = 0.11\nsamples = 20\nvalue = [0, 0, 0, 0, 31, 2]\nclass = G2", fillcolor="#8946e7"] ;
56 -> 57 ;
58 [label="gini = 0.0\nsamples = 18\nvalue = [0, 0, 0, 0, 31, 0]\nclass = G2", fillcolor="#8139e5"] ;
57 -> 58 ;
59 [label="gini = 0.0\nsamples = 2\nvalue = [0, 0, 0, 0, 0, 2]\nclass = M", fillcolor="#e5399d"] ;
57 -> 59 ;
60 [label="gini = 0.0\nsamples = 5\nvalue = [0, 0, 0, 0, 0, 11]\nclass = M", fillcolor="#e5399d"] ;
56 -> 60 ;
61 [label="127I_IdU <= 0.45\ngini = 0.07\nsamples = 2624\nvalue = [0, 0, 0, 0, 3965, 146]\nclass = G2", fillcolor="#8640e6"] ;
29 -> 61 ;
62 [label="150Nd_pRB <= 4.88\ngini = 0.05\nsamples = 1861\nvalue = [0, 0, 0, 0, 2847, 75]\nclass = G2", fillcolor="#843ee6"] ;
61 -> 62 ;
63 [label="89Y_pHH3 <= 2.76\ngini = 0.04\nsamples = 1844\nvalue = [0, 0, 0, 0, 2836, 61]\nclass = G2", fillcolor="#843de6"] ;
62 -> 63 ;
64 [label="gini = 0.0\nsamples = 1800\nvalue = [0, 0, 0, 0, 2836, 0]\nclass = G2", fillcolor="#8139e5"] ;
63 -> 64 ;
65 [label="gini = 0.0\nsamples = 44\nvalue = [0, 0, 0, 0, 0, 61]\nclass = M", fillcolor="#e5399d"] ;
63 -> 65 ;
66 [label="176Yb_Cyclin_B1 <= 5.03\ngini = 0.49\nsamples = 17\nvalue = [0, 0, 0, 0, 11, 14]\nclass = M", fillcolor="#f9d5ea"] ;
62 -> 66 ;
67 [label="142Nd_cCaspase_3 <= 2.56\ngini = 0.28\nsamples = 5\nvalue = [0, 0, 0, 0, 5, 1]\nclass = G2", fillcolor="#9a61ea"] ;
66 -> 67 ;
68 [label="gini = 0.0\nsamples = 1\nvalue = [0, 0, 0, 0, 0, 1]\nclass = M", fillcolor="#e5399d"] ;
67 -> 68 ;
69 [label="gini = 0.0\nsamples = 4\nvalue = [0, 0, 0, 0, 5, 0]\nclass = G2", fillcolor="#8139e5"] ;
67 -> 69 ;
70 [label="142Nd_cCaspase_3 <= 3.72\ngini = 0.43\nsamples = 12\nvalue = [0, 0, 0, 0, 6, 13]\nclass = M", fillcolor="#f194ca"] ;
66 -> 70 ;
71 [label="89Y_pHH3 <= 2.78\ngini = 0.36\nsamples = 11\nvalue = [0, 0, 0, 0, 4, 13]\nclass = M", fillcolor="#ed76bb"] ;
70 -> 71 ;
72 [label="gini = 0.0\nsamples = 3\nvalue = [0, 0, 0, 0, 4, 0]\nclass = G2", fillcolor="#8139e5"] ;
71 -> 72 ;
73 [label="gini = 0.0\nsamples = 8\nvalue = [0, 0, 0, 0, 0, 13]\nclass = M", fillcolor="#e5399d"] ;
71 -> 73 ;
74 [label="gini = 0.0\nsamples = 1\nvalue = [0, 0, 0, 0, 2, 0]\nclass = G2", fillcolor="#8139e5"] ;
70 -> 74 ;
75 [label="89Y_pHH3 <= 3.23\ngini = 0.11\nsamples = 763\nvalue = [0, 0, 0, 0, 1118, 71]\nclass = G2", fillcolor="#8946e7"] ;
61 -> 75 ;
76 [label="gini = 0.0\nsamples = 718\nvalue = [0, 0, 0, 0, 1118, 0]\nclass = G2", fillcolor="#8139e5"] ;
75 -> 76 ;
77 [label="gini = 0.0\nsamples = 45\nvalue = [0, 0, 0, 0, 0, 71]\nclass = M", fillcolor="#e5399d"] ;
75 -> 77 ;
78 [label="gini = 0.0\nsamples = 2965\nvalue = [0, 0, 0, 4740, 0, 0]\nclass = S", fillcolor="#399de5"] ;
20 -> 78 ;
}