digraph Tree {
node [shape=box, style="filled, rounded", color="black", fontname=helvetica] ;
edge [fontname=helvetica] ;
0 [label="127I_IdU <= 3.86\ngini = 0.83\nsamples = 1056\nvalue = [289, 255, 271, 271, 285, 299]\nclass = M", fillcolor="#fffefe"] ;
1 [label="150Nd_pRB_S807_S811_v2 <= 1.42\ngini = 0.8\nsamples = 868\nvalue = [289, 242, 271, 0, 285, 299]\nclass = M", fillcolor="#fffdfe"] ;
0 -> 1 [labeldistance=2.5, labelangle=45, headlabel="True"] ;
2 [label="142Nd_cCaspase_3_D175_v3 <= 1.45\ngini = 0.5\nsamples = 336\nvalue = [289, 242, 0, 0, 0, 0]\nclass = apoptosis", fillcolor="#fbebdf"] ;
1 -> 2 ;
3 [label="163Dy_cPARP_D214_2 <= 1.6\ngini = 0.26\nsamples = 180\nvalue = [43, 240, 0, 0, 0, 0]\nclass = G0", fillcolor="#afea5c"] ;
2 -> 3 ;
4 [label="gini = 0.0\nsamples = 154\nvalue = [0, 240, 0, 0, 0, 0]\nclass = G0", fillcolor="#9de539"] ;
3 -> 4 ;
5 [label="gini = 0.0\nsamples = 26\nvalue = [43, 0, 0, 0, 0, 0]\nclass = apoptosis", fillcolor="#e58139"] ;
3 -> 5 ;
6 [label="163Dy_cPARP_D214_2 <= 0.73\ngini = 0.02\nsamples = 156\nvalue = [246, 2, 0, 0, 0, 0]\nclass = apoptosis", fillcolor="#e5823b"] ;
2 -> 6 ;
7 [label="gini = 0.0\nsamples = 2\nvalue = [0, 2, 0, 0, 0, 0]\nclass = G0", fillcolor="#9de539"] ;
6 -> 7 ;
8 [label="gini = 0.0\nsamples = 154\nvalue = [246, 0, 0, 0, 0, 0]\nclass = apoptosis", fillcolor="#e58139"] ;
6 -> 8 ;
9 [label="152Sm_pAKT_T308_v6 <= 2.35\ngini = 0.67\nsamples = 532\nvalue = [0, 0, 271, 0, 285, 299]\nclass = M", fillcolor="#fefafd"] ;
1 -> 9 ;
10 [label="176Yb_Cyclin_B1_2_v2 <= 1.57\ngini = 0.57\nsamples = 374\nvalue = [0, 0, 271, 0, 279, 48]\nclass = G2", fillcolor="#fcfafe"] ;
9 -> 10 ;
11 [label="163Dy_cPARP_D214_2 <= 0.63\ngini = 0.13\nsamples = 187\nvalue = [0, 0, 271, 0, 0, 20]\nclass = G1", fillcolor="#48e78a"] ;
10 -> 11 ;
12 [label="152Sm_pAKT_T308_v6 <= 1.79\ngini = 0.18\nsamples = 116\nvalue = [0, 0, 166, 0, 0, 18]\nclass = G1", fillcolor="#4ee88f"] ;
11 -> 12 ;
13 [label="89Y_pHH3_S28 <= 1.78\ngini = 0.04\nsamples = 105\nvalue = [0, 0, 162, 0, 0, 3]\nclass = G1", fillcolor="#3de583"] ;
12 -> 13 ;
14 [label="gini = 0.0\nsamples = 103\nvalue = [0, 0, 162, 0, 0, 0]\nclass = G1", fillcolor="#39e581"] ;
13 -> 14 ;
15 [label="gini = 0.0\nsamples = 2\nvalue = [0, 0, 0, 0, 0, 3]\nclass = M", fillcolor="#e5399d"] ;
13 -> 15 ;
16 [label="89Y_pHH3_S28 <= 1.42\ngini = 0.33\nsamples = 11\nvalue = [0, 0, 4, 0, 0, 15]\nclass = M", fillcolor="#ec6eb7"] ;
12 -> 16 ;
17 [label="gini = 0.0\nsamples = 3\nvalue = [0, 0, 4, 0, 0, 0]\nclass = G1", fillcolor="#39e581"] ;
16 -> 17 ;
18 [label="gini = 0.0\nsamples = 8\nvalue = [0, 0, 0, 0, 0, 15]\nclass = M", fillcolor="#e5399d"] ;
16 -> 18 ;
19 [label="143Nd_Geminin <= 1.33\ngini = 0.04\nsamples = 71\nvalue = [0, 0, 105, 0, 0, 2]\nclass = G1", fillcolor="#3de583"] ;
11 -> 19 ;
20 [label="gini = 0.0\nsamples = 64\nvalue = [0, 0, 97, 0, 0, 0]\nclass = G1", fillcolor="#39e581"] ;
19 -> 20 ;
21 [label="143Nd_Geminin <= 1.35\ngini = 0.32\nsamples = 7\nvalue = [0, 0, 8, 0, 0, 2]\nclass = G1", fillcolor="#6aeca0"] ;
19 -> 21 ;
22 [label="gini = 0.0\nsamples = 1\nvalue = [0, 0, 0, 0, 0, 2]\nclass = M", fillcolor="#e5399d"] ;
21 -> 22 ;
23 [label="gini = 0.0\nsamples = 6\nvalue = [0, 0, 8, 0, 0, 0]\nclass = G1", fillcolor="#39e581"] ;
21 -> 23 ;
24 [label="152Sm_pAKT_T308_v6 <= 1.44\ngini = 0.17\nsamples = 187\nvalue = [0, 0, 0, 0, 279, 28]\nclass = G2", fillcolor="#8e4de8"] ;
10 -> 24 ;
25 [label="158Gd_pP38_T180_Y182 <= 1.59\ngini = 0.04\nsamples = 129\nvalue = [0, 0, 0, 0, 202, 4]\nclass = G2", fillcolor="#833de6"] ;
24 -> 25 ;
26 [label="150Nd_pRB_S807_S811_v2 <= 1.7\ngini = 0.44\nsamples = 2\nvalue = [0, 0, 0, 0, 1, 2]\nclass = M", fillcolor="#f29cce"] ;
25 -> 26 ;
27 [label="gini = 0.0\nsamples = 1\nvalue = [0, 0, 0, 0, 0, 2]\nclass = M", fillcolor="#e5399d"] ;
26 -> 27 ;
28 [label="gini = 0.0\nsamples = 1\nvalue = [0, 0, 0, 0, 1, 0]\nclass = G2", fillcolor="#8139e5"] ;
26 -> 28 ;
29 [label="163Dy_cPARP_D214_2 <= 1.68\ngini = 0.02\nsamples = 127\nvalue = [0, 0, 0, 0, 201, 2]\nclass = G2", fillcolor="#823be5"] ;
25 -> 29 ;
30 [label="gini = 0.0\nsamples = 119\nvalue = [0, 0, 0, 0, 190, 0]\nclass = G2", fillcolor="#8139e5"] ;
29 -> 30 ;
31 [label="163Dy_cPARP_D214_2 <= 1.7\ngini = 0.26\nsamples = 8\nvalue = [0, 0, 0, 0, 11, 2]\nclass = G2", fillcolor="#985dea"] ;
29 -> 31 ;
32 [label="gini = 0.0\nsamples = 1\nvalue = [0, 0, 0, 0, 0, 2]\nclass = M", fillcolor="#e5399d"] ;
31 -> 32 ;
33 [label="gini = 0.0\nsamples = 7\nvalue = [0, 0, 0, 0, 11, 0]\nclass = G2", fillcolor="#8139e5"] ;
31 -> 33 ;
34 [label="142Nd_cCaspase_3_D175_v3 <= 0.91\ngini = 0.36\nsamples = 58\nvalue = [0, 0, 0, 0, 77, 24]\nclass = G2", fillcolor="#a877ed"] ;
24 -> 34 ;
35 [label="158Gd_pP38_T180_Y182 <= 4.04\ngini = 0.48\nsamples = 28\nvalue = [0, 0, 0, 0, 30, 20]\nclass = G2", fillcolor="#d5bdf6"] ;
34 -> 35 ;
36 [label="gini = 0.0\nsamples = 6\nvalue = [0, 0, 0, 0, 0, 12]\nclass = M", fillcolor="#e5399d"] ;
35 -> 36 ;
37 [label="150Nd_pRB_S807_S811_v2 <= 2.14\ngini = 0.33\nsamples = 22\nvalue = [0, 0, 0, 0, 30, 8]\nclass = G2", fillcolor="#a36eec"] ;
35 -> 37 ;
38 [label="176Yb_Cyclin_B1_2_v2 <= 2.78\ngini = 0.41\nsamples = 4\nvalue = [0, 0, 0, 0, 2, 5]\nclass = M", fillcolor="#ef88c4"] ;
37 -> 38 ;
39 [label="gini = 0.0\nsamples = 2\nvalue = [0, 0, 0, 0, 2, 0]\nclass = G2", fillcolor="#8139e5"] ;
38 -> 39 ;
40 [label="gini = 0.0\nsamples = 2\nvalue = [0, 0, 0, 0, 0, 5]\nclass = M", fillcolor="#e5399d"] ;
38 -> 40 ;
41 [label="169Tm_PLK1 <= 3.13\ngini = 0.17\nsamples = 18\nvalue = [0, 0, 0, 0, 28, 3]\nclass = G2", fillcolor="#8e4ee8"] ;
37 -> 41 ;
42 [label="89Y_pHH3_S28 <= 1.87\ngini = 0.07\nsamples = 15\nvalue = [0, 0, 0, 0, 25, 1]\nclass = G2", fillcolor="#8641e6"] ;
41 -> 42 ;
43 [label="gini = 0.0\nsamples = 14\nvalue = [0, 0, 0, 0, 25, 0]\nclass = G2", fillcolor="#8139e5"] ;
42 -> 43 ;
44 [label="gini = 0.0\nsamples = 1\nvalue = [0, 0, 0, 0, 0, 1]\nclass = M", fillcolor="#e5399d"] ;
42 -> 44 ;
45 [label="89Y_pHH3_S28 <= 1.69\ngini = 0.48\nsamples = 3\nvalue = [0, 0, 0, 0, 3, 2]\nclass = G2", fillcolor="#d5bdf6"] ;
41 -> 45 ;
46 [label="gini = 0.0\nsamples = 2\nvalue = [0, 0, 0, 0, 3, 0]\nclass = G2", fillcolor="#8139e5"] ;
45 -> 46 ;
47 [label="gini = 0.0\nsamples = 1\nvalue = [0, 0, 0, 0, 0, 2]\nclass = M", fillcolor="#e5399d"] ;
45 -> 47 ;
48 [label="152Sm_pAKT_T308_v6 <= 1.96\ngini = 0.14\nsamples = 30\nvalue = [0, 0, 0, 0, 47, 4]\nclass = G2", fillcolor="#8c4ae7"] ;
34 -> 48 ;
49 [label="gini = 0.0\nsamples = 16\nvalue = [0, 0, 0, 0, 28, 0]\nclass = G2", fillcolor="#8139e5"] ;
48 -> 49 ;
50 [label="89Y_pHH3_S28 <= 1.75\ngini = 0.29\nsamples = 14\nvalue = [0, 0, 0, 0, 19, 4]\nclass = G2", fillcolor="#9c63ea"] ;
48 -> 50 ;
51 [label="gini = 0.0\nsamples = 11\nvalue = [0, 0, 0, 0, 19, 0]\nclass = G2", fillcolor="#8139e5"] ;
50 -> 51 ;
52 [label="gini = 0.0\nsamples = 3\nvalue = [0, 0, 0, 0, 0, 4]\nclass = M", fillcolor="#e5399d"] ;
50 -> 52 ;
53 [label="89Y_pHH3_S28 <= 2.39\ngini = 0.05\nsamples = 158\nvalue = [0, 0, 0, 0, 6, 251]\nclass = M", fillcolor="#e63e9f"] ;
9 -> 53 ;
54 [label="gini = 0.0\nsamples = 4\nvalue = [0, 0, 0, 0, 6, 0]\nclass = G2", fillcolor="#8139e5"] ;
53 -> 54 ;
55 [label="gini = 0.0\nsamples = 154\nvalue = [0, 0, 0, 0, 0, 251]\nclass = M", fillcolor="#e5399d"] ;
53 -> 55 ;
56 [label="158Gd_pP38_T180_Y182 <= 3.81\ngini = 0.09\nsamples = 188\nvalue = [0, 13, 0, 271, 0, 0]\nclass = S", fillcolor="#42a2e6"] ;
0 -> 56 [labeldistance=2.5, labelangle=-45, headlabel="False"] ;
57 [label="152Sm_pAKT_T308_v6 <= 0.39\ngini = 0.4\nsamples = 13\nvalue = [0, 13, 0, 5, 0, 0]\nclass = G0", fillcolor="#c3ef85"] ;
56 -> 57 ;
58 [label="gini = 0.0\nsamples = 11\nvalue = [0, 13, 0, 0, 0, 0]\nclass = G0", fillcolor="#9de539"] ;
57 -> 58 ;
59 [label="gini = 0.0\nsamples = 2\nvalue = [0, 0, 0, 5, 0, 0]\nclass = S", fillcolor="#399de5"] ;
57 -> 59 ;
60 [label="gini = 0.0\nsamples = 175\nvalue = [0, 0, 0, 266, 0, 0]\nclass = S", fillcolor="#399de5"] ;
56 -> 60 ;
}