digraph Tree {
node [shape=box, style="filled, rounded", color="black", fontname=helvetica] ;
edge [fontname=helvetica] ;
0 [label="127I_IdU <= 3.93\ngini = 0.83\nsamples = 1056\nvalue = [253, 279, 285, 294, 266, 293]\nclass = S", fillcolor="#ffffff"] ;
1 [label="150Nd_pRB_S807_S811_v2 <= 1.42\ngini = 0.8\nsamples = 871\nvalue = [250, 271, 285, 0, 266, 293]\nclass = M", fillcolor="#fffefe"] ;
0 -> 1 [labeldistance=2.5, labelangle=45, headlabel="True"] ;
2 [label="142Nd_cCaspase_3_D175_v3 <= 1.43\ngini = 0.5\nsamples = 348\nvalue = [250, 271, 0, 0, 0, 0]\nclass = G0", fillcolor="#f7fdf0"] ;
1 -> 2 ;
3 [label="163Dy_cPARP_D214_2 <= 1.59\ngini = 0.15\nsamples = 187\nvalue = [24, 267, 0, 0, 0, 0]\nclass = G0", fillcolor="#a6e74b"] ;
2 -> 3 ;
4 [label="gini = 0.0\nsamples = 170\nvalue = [0, 267, 0, 0, 0, 0]\nclass = G0", fillcolor="#9de539"] ;
3 -> 4 ;
5 [label="gini = 0.0\nsamples = 17\nvalue = [24, 0, 0, 0, 0, 0]\nclass = apoptosis", fillcolor="#e58139"] ;
3 -> 5 ;
6 [label="163Dy_cPARP_D214_2 <= 0.89\ngini = 0.03\nsamples = 161\nvalue = [226, 4, 0, 0, 0, 0]\nclass = apoptosis", fillcolor="#e5833d"] ;
2 -> 6 ;
7 [label="gini = 0.0\nsamples = 3\nvalue = [0, 4, 0, 0, 0, 0]\nclass = G0", fillcolor="#9de539"] ;
6 -> 7 ;
8 [label="gini = 0.0\nsamples = 158\nvalue = [226, 0, 0, 0, 0, 0]\nclass = apoptosis", fillcolor="#e58139"] ;
6 -> 8 ;
9 [label="152Sm_pAKT_T308_v6 <= 2.37\ngini = 0.67\nsamples = 523\nvalue = [0, 0, 285, 0, 266, 293]\nclass = M", fillcolor="#fffcfe"] ;
1 -> 9 ;
10 [label="176Yb_Cyclin_B1_2_v2 <= 1.55\ngini = 0.57\nsamples = 366\nvalue = [0, 0, 283, 0, 258, 46]\nclass = G1", fillcolor="#f0fdf5"] ;
9 -> 10 ;
11 [label="143Nd_Geminin <= 0.42\ngini = 0.17\nsamples = 196\nvalue = [0, 0, 283, 0, 0, 29]\nclass = G1", fillcolor="#4de88e"] ;
10 -> 11 ;
12 [label="152Sm_pAKT_T308_v6 <= 1.77\ngini = 0.07\nsamples = 104\nvalue = [0, 0, 161, 0, 0, 6]\nclass = G1", fillcolor="#40e686"] ;
11 -> 12 ;
13 [label="gini = 0.0\nsamples = 96\nvalue = [0, 0, 155, 0, 0, 0]\nclass = G1", fillcolor="#39e581"] ;
12 -> 13 ;
14 [label="89Y_pHH3_S28 <= 1.76\ngini = 0.5\nsamples = 8\nvalue = [0, 0, 6, 0, 0, 6]\nclass = G1", fillcolor="#ffffff"] ;
12 -> 14 ;
15 [label="gini = 0.0\nsamples = 4\nvalue = [0, 0, 6, 0, 0, 0]\nclass = G1", fillcolor="#39e581"] ;
14 -> 15 ;
16 [label="gini = 0.0\nsamples = 4\nvalue = [0, 0, 0, 0, 0, 6]\nclass = M", fillcolor="#e5399d"] ;
14 -> 16 ;
17 [label="89Y_pHH3_S28 <= 1.88\ngini = 0.27\nsamples = 92\nvalue = [0, 0, 122, 0, 0, 23]\nclass = G1", fillcolor="#5eea99"] ;
11 -> 17 ;
18 [label="gini = 0.0\nsamples = 78\nvalue = [0, 0, 122, 0, 0, 0]\nclass = G1", fillcolor="#39e581"] ;
17 -> 18 ;
19 [label="gini = 0.0\nsamples = 14\nvalue = [0, 0, 0, 0, 0, 23]\nclass = M", fillcolor="#e5399d"] ;
17 -> 19 ;
20 [label="176Yb_Cyclin_B1_2_v2 <= 1.76\ngini = 0.12\nsamples = 170\nvalue = [0, 0, 0, 0, 258, 17]\nclass = G2", fillcolor="#8946e7"] ;
10 -> 20 ;
21 [label="152Sm_pAKT_T308_v6 <= 0.76\ngini = 0.38\nsamples = 3\nvalue = [0, 0, 0, 0, 3, 1]\nclass = G2", fillcolor="#ab7bee"] ;
20 -> 21 ;
22 [label="gini = 0.0\nsamples = 1\nvalue = [0, 0, 0, 0, 0, 1]\nclass = M", fillcolor="#e5399d"] ;
21 -> 22 ;
23 [label="gini = 0.0\nsamples = 2\nvalue = [0, 0, 0, 0, 3, 0]\nclass = G2", fillcolor="#8139e5"] ;
21 -> 23 ;
24 [label="152Sm_pAKT_T308_v6 <= 2.24\ngini = 0.11\nsamples = 167\nvalue = [0, 0, 0, 0, 255, 16]\nclass = G2", fillcolor="#8945e7"] ;
20 -> 24 ;
25 [label="158Gd_pP38_T180_Y182 <= 3.81\ngini = 0.06\nsamples = 157\nvalue = [0, 0, 0, 0, 248, 8]\nclass = G2", fillcolor="#853fe6"] ;
24 -> 25 ;
26 [label="127I_IdU <= 0.43\ngini = 0.32\nsamples = 21\nvalue = [0, 0, 0, 0, 24, 6]\nclass = G2", fillcolor="#a06aec"] ;
25 -> 26 ;
27 [label="152Sm_pAKT_T308_v6 <= 1.32\ngini = 0.48\nsamples = 11\nvalue = [0, 0, 0, 0, 9, 6]\nclass = G2", fillcolor="#d5bdf6"] ;
26 -> 27 ;
28 [label="gini = 0.0\nsamples = 6\nvalue = [0, 0, 0, 0, 9, 0]\nclass = G2", fillcolor="#8139e5"] ;
27 -> 28 ;
29 [label="gini = 0.0\nsamples = 5\nvalue = [0, 0, 0, 0, 0, 6]\nclass = M", fillcolor="#e5399d"] ;
27 -> 29 ;
30 [label="gini = 0.0\nsamples = 10\nvalue = [0, 0, 0, 0, 15, 0]\nclass = G2", fillcolor="#8139e5"] ;
26 -> 30 ;
31 [label="176Yb_Cyclin_B1_2_v2 <= 2.28\ngini = 0.02\nsamples = 136\nvalue = [0, 0, 0, 0, 224, 2]\nclass = G2", fillcolor="#823be5"] ;
25 -> 31 ;
32 [label="176Yb_Cyclin_B1_2_v2 <= 2.26\ngini = 0.07\nsamples = 34\nvalue = [0, 0, 0, 0, 51, 2]\nclass = G2", fillcolor="#8641e6"] ;
31 -> 32 ;
33 [label="169Tm_PLK1 <= 3.97\ngini = 0.04\nsamples = 33\nvalue = [0, 0, 0, 0, 51, 1]\nclass = G2", fillcolor="#833de6"] ;
32 -> 33 ;
34 [label="gini = 0.0\nsamples = 32\nvalue = [0, 0, 0, 0, 51, 0]\nclass = G2", fillcolor="#8139e5"] ;
33 -> 34 ;
35 [label="gini = 0.0\nsamples = 1\nvalue = [0, 0, 0, 0, 0, 1]\nclass = M", fillcolor="#e5399d"] ;
33 -> 35 ;
36 [label="gini = 0.0\nsamples = 1\nvalue = [0, 0, 0, 0, 0, 1]\nclass = M", fillcolor="#e5399d"] ;
32 -> 36 ;
37 [label="gini = 0.0\nsamples = 102\nvalue = [0, 0, 0, 0, 173, 0]\nclass = G2", fillcolor="#8139e5"] ;
31 -> 37 ;
38 [label="158Gd_pP38_T180_Y182 <= 4.4\ngini = 0.5\nsamples = 10\nvalue = [0, 0, 0, 0, 7, 8]\nclass = M", fillcolor="#fce6f3"] ;
24 -> 38 ;
39 [label="gini = 0.0\nsamples = 4\nvalue = [0, 0, 0, 0, 0, 7]\nclass = M", fillcolor="#e5399d"] ;
38 -> 39 ;
40 [label="158Gd_pP38_T180_Y182 <= 4.98\ngini = 0.22\nsamples = 6\nvalue = [0, 0, 0, 0, 7, 1]\nclass = G2", fillcolor="#9355e9"] ;
38 -> 40 ;
41 [label="152Sm_pAKT_T308_v6 <= 2.33\ngini = 0.5\nsamples = 2\nvalue = [0, 0, 0, 0, 1, 1]\nclass = G2", fillcolor="#ffffff"] ;
40 -> 41 ;
42 [label="gini = 0.0\nsamples = 1\nvalue = [0, 0, 0, 0, 1, 0]\nclass = G2", fillcolor="#8139e5"] ;
41 -> 42 ;
43 [label="gini = 0.0\nsamples = 1\nvalue = [0, 0, 0, 0, 0, 1]\nclass = M", fillcolor="#e5399d"] ;
41 -> 43 ;
44 [label="gini = 0.0\nsamples = 4\nvalue = [0, 0, 0, 0, 6, 0]\nclass = G2", fillcolor="#8139e5"] ;
40 -> 44 ;
45 [label="89Y_pHH3_S28 <= 1.53\ngini = 0.08\nsamples = 157\nvalue = [0, 0, 2, 0, 8, 247]\nclass = M", fillcolor="#e641a1"] ;
9 -> 45 ;
46 [label="158Gd_pP38_T180_Y182 <= 6.06\ngini = 0.32\nsamples = 7\nvalue = [0, 0, 2, 0, 8, 0]\nclass = G2", fillcolor="#a06aec"] ;
45 -> 46 ;
47 [label="gini = 0.0\nsamples = 5\nvalue = [0, 0, 0, 0, 7, 0]\nclass = G2", fillcolor="#8139e5"] ;
46 -> 47 ;
48 [label="150Nd_pRB_S807_S811_v2 <= 3.58\ngini = 0.44\nsamples = 2\nvalue = [0, 0, 2, 0, 1, 0]\nclass = G1", fillcolor="#9cf2c0"] ;
46 -> 48 ;
49 [label="gini = 0.0\nsamples = 1\nvalue = [0, 0, 2, 0, 0, 0]\nclass = G1", fillcolor="#39e581"] ;
48 -> 49 ;
50 [label="gini = 0.0\nsamples = 1\nvalue = [0, 0, 0, 0, 1, 0]\nclass = G2", fillcolor="#8139e5"] ;
48 -> 50 ;
51 [label="gini = 0.0\nsamples = 150\nvalue = [0, 0, 0, 0, 0, 247]\nclass = M", fillcolor="#e5399d"] ;
45 -> 51 ;
52 [label="163Dy_cPARP_D214_2 <= 1.7\ngini = 0.07\nsamples = 185\nvalue = [3, 8, 0, 294, 0, 0]\nclass = S", fillcolor="#40a1e6"] ;
0 -> 52 [labeldistance=2.5, labelangle=-45, headlabel="False"] ;
53 [label="127I_IdU <= 4.56\ngini = 0.05\nsamples = 179\nvalue = [0, 8, 0, 286, 0, 0]\nclass = S", fillcolor="#3fa0e6"] ;
52 -> 53 ;
54 [label="127I_IdU <= 4.55\ngini = 0.32\nsamples = 11\nvalue = [0, 4, 0, 16, 0, 0]\nclass = S", fillcolor="#6ab6ec"] ;
53 -> 54 ;
55 [label="158Gd_pP38_T180_Y182 <= 3.36\ngini = 0.2\nsamples = 10\nvalue = [0, 2, 0, 16, 0, 0]\nclass = S", fillcolor="#52a9e8"] ;
54 -> 55 ;
56 [label="gini = 0.0\nsamples = 2\nvalue = [0, 2, 0, 0, 0, 0]\nclass = G0", fillcolor="#9de539"] ;
55 -> 56 ;
57 [label="gini = 0.0\nsamples = 8\nvalue = [0, 0, 0, 16, 0, 0]\nclass = S", fillcolor="#399de5"] ;
55 -> 57 ;
58 [label="gini = 0.0\nsamples = 1\nvalue = [0, 2, 0, 0, 0, 0]\nclass = G0", fillcolor="#9de539"] ;
54 -> 58 ;
59 [label="150Nd_pRB_S807_S811_v2 <= 1.48\ngini = 0.03\nsamples = 168\nvalue = [0, 4, 0, 270, 0, 0]\nclass = S", fillcolor="#3c9ee5"] ;
53 -> 59 ;
60 [label="gini = 0.0\nsamples = 4\nvalue = [0, 4, 0, 0, 0, 0]\nclass = G0", fillcolor="#9de539"] ;
59 -> 60 ;
61 [label="gini = 0.0\nsamples = 164\nvalue = [0, 0, 0, 270, 0, 0]\nclass = S", fillcolor="#399de5"] ;
59 -> 61 ;
62 [label="152Sm_pAKT_T308_v6 <= 0.6\ngini = 0.4\nsamples = 6\nvalue = [3, 0, 0, 8, 0, 0]\nclass = S", fillcolor="#83c2ef"] ;
52 -> 62 ;
63 [label="gini = 0.0\nsamples = 1\nvalue = [3, 0, 0, 0, 0, 0]\nclass = apoptosis", fillcolor="#e58139"] ;
62 -> 63 ;
64 [label="gini = 0.0\nsamples = 5\nvalue = [0, 0, 0, 8, 0, 0]\nclass = S", fillcolor="#399de5"] ;
62 -> 64 ;
}