digraph Tree {
node [shape=box, style="filled, rounded", color="black", fontname=helvetica] ;
edge [fontname=helvetica] ;
0 [label="127I_IdU <= 4.02\ngini = 0.83\nsamples = 19187\nvalue = [5140, 5014, 5041, 4996, 4974, 5079]\nclass = apoptosis", fillcolor="#ffffff"] ;
1 [label="142Nd_cCaspase 3 <= 3.92\ngini = 0.8\nsamples = 16024\nvalue = [5140, 5014, 5041, 0, 4974, 5079]\nclass = apoptosis", fillcolor="#fffffe"] ;
0 -> 1 [labeldistance=2.5, labelangle=45, headlabel="True"] ;
2 [label="89Y_pHH3 <= 3.05\ngini = 0.75\nsamples = 12766\nvalue = [0, 5014, 5015, 0, 4967, 5079]\nclass = M", fillcolor="#fffeff"] ;
1 -> 2 ;
3 [label="176Yb_Cyclin B1 <= 4.76\ngini = 0.67\nsamples = 9522\nvalue = [0, 5014, 5015, 0, 4967, 0]\nclass = G1", fillcolor="#ffffff"] ;
2 -> 3 ;
4 [label="150Nd_pRB <= 1.08\ngini = 0.5\nsamples = 6358\nvalue = [0, 4984, 5015, 0, 0, 0]\nclass = G1", fillcolor="#fefffe"] ;
3 -> 4 ;
5 [label="gini = 0.0\nsamples = 3156\nvalue = [0, 4984, 0, 0, 0, 0]\nclass = G0", fillcolor="#9de539"] ;
4 -> 5 ;
6 [label="gini = 0.0\nsamples = 3202\nvalue = [0, 0, 5015, 0, 0, 0]\nclass = G1", fillcolor="#39e581"] ;
4 -> 6 ;
7 [label="142Nd_cCaspase 3 <= 3.53\ngini = 0.01\nsamples = 3164\nvalue = [0, 30, 0, 0, 4967, 0]\nclass = G2", fillcolor="#823ae5"] ;
3 -> 7 ;
8 [label="150Nd_pRB <= 0.98\ngini = 0.01\nsamples = 3154\nvalue = [0, 18, 0, 0, 4962, 0]\nclass = G2", fillcolor="#813ae5"] ;
7 -> 8 ;
9 [label="gini = 0.0\nsamples = 12\nvalue = [0, 18, 0, 0, 0, 0]\nclass = G0", fillcolor="#9de539"] ;
8 -> 9 ;
10 [label="gini = 0.0\nsamples = 3142\nvalue = [0, 0, 0, 0, 4962, 0]\nclass = G2", fillcolor="#8139e5"] ;
8 -> 10 ;
11 [label="89Y_pHH3 <= 0.49\ngini = 0.42\nsamples = 10\nvalue = [0, 12, 0, 0, 5, 0]\nclass = G0", fillcolor="#c6f08b"] ;
7 -> 11 ;
12 [label="142Nd_cCaspase 3 <= 3.92\ngini = 0.32\nsamples = 9\nvalue = [0, 12, 0, 0, 3, 0]\nclass = G0", fillcolor="#b6ec6a"] ;
11 -> 12 ;
13 [label="127I_IdU <= 0.08\ngini = 0.24\nsamples = 8\nvalue = [0, 12, 0, 0, 2, 0]\nclass = G0", fillcolor="#ade95a"] ;
12 -> 13 ;
14 [label="gini = 0.0\nsamples = 4\nvalue = [0, 7, 0, 0, 0, 0]\nclass = G0", fillcolor="#9de539"] ;
13 -> 14 ;
15 [label="89Y_pHH3 <= 0.0\ngini = 0.41\nsamples = 4\nvalue = [0, 5, 0, 0, 2, 0]\nclass = G0", fillcolor="#c4ef88"] ;
13 -> 15 ;
16 [label="gini = 0.0\nsamples = 2\nvalue = [0, 0, 0, 0, 2, 0]\nclass = G2", fillcolor="#8139e5"] ;
15 -> 16 ;
17 [label="gini = 0.0\nsamples = 2\nvalue = [0, 5, 0, 0, 0, 0]\nclass = G0", fillcolor="#9de539"] ;
15 -> 17 ;
18 [label="gini = 0.0\nsamples = 1\nvalue = [0, 0, 0, 0, 1, 0]\nclass = G2", fillcolor="#8139e5"] ;
12 -> 18 ;
19 [label="gini = 0.0\nsamples = 1\nvalue = [0, 0, 0, 0, 2, 0]\nclass = G2", fillcolor="#8139e5"] ;
11 -> 19 ;
20 [label="gini = 0.0\nsamples = 3244\nvalue = [0, 0, 0, 0, 0, 5079]\nclass = M", fillcolor="#e5399d"] ;
2 -> 20 ;
21 [label="150Nd_pRB <= 1.08\ngini = 0.01\nsamples = 3258\nvalue = [5140, 0, 26, 0, 7, 0]\nclass = apoptosis", fillcolor="#e5823a"] ;
1 -> 21 ;
22 [label="gini = 0.0\nsamples = 3237\nvalue = [5140, 0, 0, 0, 0, 0]\nclass = apoptosis", fillcolor="#e58139"] ;
21 -> 22 ;
23 [label="150Nd_pRB <= 1.16\ngini = 0.33\nsamples = 21\nvalue = [0, 0, 26, 0, 7, 0]\nclass = G1", fillcolor="#6eeca3"] ;
21 -> 23 ;
24 [label="150Nd_pRB <= 1.13\ngini = 0.27\nsamples = 20\nvalue = [0, 0, 26, 0, 5, 0]\nclass = G1", fillcolor="#5fea99"] ;
23 -> 24 ;
25 [label="127I_IdU <= 0.76\ngini = 0.36\nsamples = 13\nvalue = [0, 0, 16, 0, 5, 0]\nclass = G1", fillcolor="#77eda8"] ;
24 -> 25 ;
26 [label="176Yb_Cyclin B1 <= 4.67\ngini = 0.2\nsamples = 11\nvalue = [0, 0, 16, 0, 2, 0]\nclass = G1", fillcolor="#52e891"] ;
25 -> 26 ;
27 [label="gini = 0.0\nsamples = 10\nvalue = [0, 0, 16, 0, 0, 0]\nclass = G1", fillcolor="#39e581"] ;
26 -> 27 ;
28 [label="gini = 0.0\nsamples = 1\nvalue = [0, 0, 0, 0, 2, 0]\nclass = G2", fillcolor="#8139e5"] ;
26 -> 28 ;
29 [label="gini = 0.0\nsamples = 2\nvalue = [0, 0, 0, 0, 3, 0]\nclass = G2", fillcolor="#8139e5"] ;
25 -> 29 ;
30 [label="gini = 0.0\nsamples = 7\nvalue = [0, 0, 10, 0, 0, 0]\nclass = G1", fillcolor="#39e581"] ;
24 -> 30 ;
31 [label="gini = 0.0\nsamples = 1\nvalue = [0, 0, 0, 0, 2, 0]\nclass = G2", fillcolor="#8139e5"] ;
23 -> 31 ;
32 [label="gini = 0.0\nsamples = 3163\nvalue = [0, 0, 0, 4996, 0, 0]\nclass = S", fillcolor="#399de5"] ;
0 -> 32 [labeldistance=2.5, labelangle=-45, headlabel="False"] ;
}