digraph Tree {
node [shape=box, style="filled, rounded", color="black", fontname=helvetica] ;
edge [fontname=helvetica] ;
0 [label="127I_IdU <= 4.0\ngini = 0.83\nsamples = 19187\nvalue = [5011, 5084, 5120, 5058, 5059, 4912]\nclass = G1", fillcolor="#ffffff"] ;
1 [label="150Nd_pRB <= 1.08\ngini = 0.8\nsamples = 15983\nvalue = [5011, 5084, 5120, 0, 5059, 4912]\nclass = G1", fillcolor="#ffffff"] ;
0 -> 1 [labeldistance=2.5, labelangle=45, headlabel="True"] ;
2 [label="89Y_pHH3 <= 0.02\ngini = 0.5\nsamples = 6400\nvalue = [5011, 5084, 0, 0, 0, 0]\nclass = G0", fillcolor="#fefffc"] ;
1 -> 2 ;
3 [label="176Yb_Cyclin B1 <= 3.49\ngini = 0.5\nsamples = 4908\nvalue = [3679, 4063, 0, 0, 0, 0]\nclass = G0", fillcolor="#f6fdec"] ;
2 -> 3 ;
4 [label="150Nd_pRB <= 0.19\ngini = 0.5\nsamples = 3777\nvalue = [2759, 3211, 0, 0, 0, 0]\nclass = G0", fillcolor="#f1fbe3"] ;
3 -> 4 ;
5 [label="142Nd_cCaspase 3 <= 3.92\ngini = 0.49\nsamples = 2220\nvalue = [1516, 2009, 0, 0, 0, 0]\nclass = G0", fillcolor="#e7f9ce"] ;
4 -> 5 ;
6 [label="gini = 0.0\nsamples = 1263\nvalue = [0, 2009, 0, 0, 0, 0]\nclass = G0", fillcolor="#9de539"] ;
5 -> 6 ;
7 [label="gini = 0.0\nsamples = 957\nvalue = [1516, 0, 0, 0, 0, 0]\nclass = apoptosis", fillcolor="#e58139"] ;
5 -> 7 ;
8 [label="150Nd_pRB <= 0.86\ngini = 0.5\nsamples = 1557\nvalue = [1243, 1202, 0, 0, 0, 0]\nclass = apoptosis", fillcolor="#fefbf8"] ;
4 -> 8 ;
9 [label="127I_IdU <= 0.8\ngini = 0.5\nsamples = 1371\nvalue = [1050, 1082, 0, 0, 0, 0]\nclass = G0", fillcolor="#fcfef9"] ;
8 -> 9 ;
10 [label="142Nd_cCaspase 3 <= 3.92\ngini = 0.5\nsamples = 1252\nvalue = [935, 1007, 0, 0, 0, 0]\nclass = G0", fillcolor="#f8fdf1"] ;
9 -> 10 ;
11 [label="gini = 0.0\nsamples = 644\nvalue = [0, 1007, 0, 0, 0, 0]\nclass = G0", fillcolor="#9de539"] ;
10 -> 11 ;
12 [label="gini = 0.0\nsamples = 608\nvalue = [935, 0, 0, 0, 0, 0]\nclass = apoptosis", fillcolor="#e58139"] ;
10 -> 12 ;
13 [label="127I_IdU <= 1.44\ngini = 0.48\nsamples = 119\nvalue = [115, 75, 0, 0, 0, 0]\nclass = apoptosis", fillcolor="#f6d3ba"] ;
9 -> 13 ;
14 [label="176Yb_Cyclin B1 <= 3.39\ngini = 0.45\nsamples = 102\nvalue = [105, 54, 0, 0, 0, 0]\nclass = apoptosis", fillcolor="#f2c29f"] ;
13 -> 14 ;
15 [label="142Nd_cCaspase 3 <= 3.92\ngini = 0.43\nsamples = 93\nvalue = [100, 45, 0, 0, 0, 0]\nclass = apoptosis", fillcolor="#f1ba92"] ;
14 -> 15 ;
16 [label="gini = 0.0\nsamples = 34\nvalue = [0, 45, 0, 0, 0, 0]\nclass = G0", fillcolor="#9de539"] ;
15 -> 16 ;
17 [label="gini = 0.0\nsamples = 59\nvalue = [100, 0, 0, 0, 0, 0]\nclass = apoptosis", fillcolor="#e58139"] ;
15 -> 17 ;
18 [label="142Nd_cCaspase 3 <= 3.98\ngini = 0.46\nsamples = 9\nvalue = [5, 9, 0, 0, 0, 0]\nclass = G0", fillcolor="#d3f3a7"] ;
14 -> 18 ;
19 [label="gini = 0.0\nsamples = 6\nvalue = [0, 9, 0, 0, 0, 0]\nclass = G0", fillcolor="#9de539"] ;
18 -> 19 ;
20 [label="gini = 0.0\nsamples = 3\nvalue = [5, 0, 0, 0, 0, 0]\nclass = apoptosis", fillcolor="#e58139"] ;
18 -> 20 ;
21 [label="142Nd_cCaspase 3 <= 3.91\ngini = 0.44\nsamples = 17\nvalue = [10, 21, 0, 0, 0, 0]\nclass = G0", fillcolor="#ccf197"] ;
13 -> 21 ;
22 [label="gini = 0.0\nsamples = 10\nvalue = [0, 21, 0, 0, 0, 0]\nclass = G0", fillcolor="#9de539"] ;
21 -> 22 ;
23 [label="gini = 0.0\nsamples = 7\nvalue = [10, 0, 0, 0, 0, 0]\nclass = apoptosis", fillcolor="#e58139"] ;
21 -> 23 ;
24 [label="150Nd_pRB <= 0.89\ngini = 0.47\nsamples = 186\nvalue = [193, 120, 0, 0, 0, 0]\nclass = apoptosis", fillcolor="#f5cfb4"] ;
8 -> 24 ;
25 [label="127I_IdU <= 0.59\ngini = 0.26\nsamples = 30\nvalue = [49, 9, 0, 0, 0, 0]\nclass = apoptosis", fillcolor="#ea985d"] ;
24 -> 25 ;
26 [label="142Nd_cCaspase 3 <= 3.86\ngini = 0.31\nsamples = 25\nvalue = [38, 9, 0, 0, 0, 0]\nclass = apoptosis", fillcolor="#eb9f68"] ;
25 -> 26 ;
27 [label="gini = 0.0\nsamples = 7\nvalue = [0, 9, 0, 0, 0, 0]\nclass = G0", fillcolor="#9de539"] ;
26 -> 27 ;
28 [label="gini = 0.0\nsamples = 18\nvalue = [38, 0, 0, 0, 0, 0]\nclass = apoptosis", fillcolor="#e58139"] ;
26 -> 28 ;
29 [label="gini = 0.0\nsamples = 5\nvalue = [11, 0, 0, 0, 0, 0]\nclass = apoptosis", fillcolor="#e58139"] ;
25 -> 29 ;
30 [label="150Nd_pRB <= 0.89\ngini = 0.49\nsamples = 156\nvalue = [144, 111, 0, 0, 0, 0]\nclass = apoptosis", fillcolor="#f9e2d2"] ;
24 -> 30 ;
31 [label="176Yb_Cyclin B1 <= 3.16\ngini = 0.2\nsamples = 7\nvalue = [1, 8, 0, 0, 0, 0]\nclass = G0", fillcolor="#a9e852"] ;
30 -> 31 ;
32 [label="gini = 0.0\nsamples = 6\nvalue = [0, 8, 0, 0, 0, 0]\nclass = G0", fillcolor="#9de539"] ;
31 -> 32 ;
33 [label="gini = 0.0\nsamples = 1\nvalue = [1, 0, 0, 0, 0, 0]\nclass = apoptosis", fillcolor="#e58139"] ;
31 -> 33 ;
34 [label="150Nd_pRB <= 1.07\ngini = 0.49\nsamples = 149\nvalue = [143, 103, 0, 0, 0, 0]\nclass = apoptosis", fillcolor="#f8dcc8"] ;
30 -> 34 ;
35 [label="150Nd_pRB <= 1.06\ngini = 0.48\nsamples = 139\nvalue = [135, 89, 0, 0, 0, 0]\nclass = apoptosis", fillcolor="#f6d4bc"] ;
34 -> 35 ;
36 [label="142Nd_cCaspase 3 <= 3.91\ngini = 0.49\nsamples = 128\nvalue = [118, 87, 0, 0, 0, 0]\nclass = apoptosis", fillcolor="#f8decb"] ;
35 -> 36 ;
37 [label="gini = 0.0\nsamples = 54\nvalue = [0, 87, 0, 0, 0, 0]\nclass = G0", fillcolor="#9de539"] ;
36 -> 37 ;
38 [label="gini = 0.0\nsamples = 74\nvalue = [118, 0, 0, 0, 0, 0]\nclass = apoptosis", fillcolor="#e58139"] ;
36 -> 38 ;
39 [label="142Nd_cCaspase 3 <= 3.91\ngini = 0.19\nsamples = 11\nvalue = [17, 2, 0, 0, 0, 0]\nclass = apoptosis", fillcolor="#e89050"] ;
35 -> 39 ;
40 [label="gini = 0.0\nsamples = 1\nvalue = [0, 2, 0, 0, 0, 0]\nclass = G0", fillcolor="#9de539"] ;
39 -> 40 ;
41 [label="gini = 0.0\nsamples = 10\nvalue = [17, 0, 0, 0, 0, 0]\nclass = apoptosis", fillcolor="#e58139"] ;
39 -> 41 ;
42 [label="142Nd_cCaspase 3 <= 3.96\ngini = 0.46\nsamples = 10\nvalue = [8, 14, 0, 0, 0, 0]\nclass = G0", fillcolor="#d5f4aa"] ;
34 -> 42 ;
43 [label="gini = 0.0\nsamples = 7\nvalue = [0, 14, 0, 0, 0, 0]\nclass = G0", fillcolor="#9de539"] ;
42 -> 43 ;
44 [label="gini = 0.0\nsamples = 3\nvalue = [8, 0, 0, 0, 0, 0]\nclass = apoptosis", fillcolor="#e58139"] ;
42 -> 44 ;
45 [label="142Nd_cCaspase 3 <= 3.92\ngini = 0.5\nsamples = 1131\nvalue = [920, 852, 0, 0, 0, 0]\nclass = apoptosis", fillcolor="#fdf6f0"] ;
3 -> 45 ;
46 [label="gini = 0.0\nsamples = 542\nvalue = [0, 852, 0, 0, 0, 0]\nclass = G0", fillcolor="#9de539"] ;
45 -> 46 ;
47 [label="gini = 0.0\nsamples = 589\nvalue = [920, 0, 0, 0, 0, 0]\nclass = apoptosis", fillcolor="#e58139"] ;
45 -> 47 ;
48 [label="142Nd_cCaspase 3 <= 3.92\ngini = 0.49\nsamples = 1492\nvalue = [1332, 1021, 0, 0, 0, 0]\nclass = apoptosis", fillcolor="#f9e2d1"] ;
2 -> 48 ;
49 [label="gini = 0.0\nsamples = 656\nvalue = [0, 1021, 0, 0, 0, 0]\nclass = G0", fillcolor="#9de539"] ;
48 -> 49 ;
50 [label="gini = 0.0\nsamples = 836\nvalue = [1332, 0, 0, 0, 0, 0]\nclass = apoptosis", fillcolor="#e58139"] ;
48 -> 50 ;
51 [label="176Yb_Cyclin B1 <= 4.77\ngini = 0.67\nsamples = 9583\nvalue = [0, 0, 5120, 0, 5059, 4912]\nclass = G1", fillcolor="#fefffe"] ;
1 -> 51 ;
52 [label="150Nd_pRB <= 3.63\ngini = 0.5\nsamples = 6238\nvalue = [0, 0, 5120, 0, 0, 4704]\nclass = G1", fillcolor="#effdf5"] ;
51 -> 52 ;
53 [label="142Nd_cCaspase 3 <= 1.86\ngini = 0.25\nsamples = 3424\nvalue = [0, 0, 4610, 0, 0, 813]\nclass = G1", fillcolor="#5cea97"] ;
52 -> 53 ;
54 [label="176Yb_Cyclin B1 <= 3.44\ngini = 0.39\nsamples = 1439\nvalue = [0, 0, 1638, 0, 0, 593]\nclass = G1", fillcolor="#81eeaf"] ;
53 -> 54 ;
55 [label="150Nd_pRB <= 3.05\ngini = 0.32\nsamples = 1135\nvalue = [0, 0, 1411, 0, 0, 356]\nclass = G1", fillcolor="#6beca1"] ;
54 -> 55 ;
56 [label="89Y_pHH3 <= 2.22\ngini = 0.15\nsamples = 686\nvalue = [0, 0, 972, 0, 0, 87]\nclass = G1", fillcolor="#4be78c"] ;
55 -> 56 ;
57 [label="gini = 0.0\nsamples = 626\nvalue = [0, 0, 972, 0, 0, 0]\nclass = G1", fillcolor="#39e581"] ;
56 -> 57 ;
58 [label="gini = 0.0\nsamples = 60\nvalue = [0, 0, 0, 0, 0, 87]\nclass = M", fillcolor="#e5399d"] ;
56 -> 58 ;
59 [label="89Y_pHH3 <= 2.21\ngini = 0.47\nsamples = 449\nvalue = [0, 0, 439, 0, 0, 269]\nclass = G1", fillcolor="#b2f5ce"] ;
55 -> 59 ;
60 [label="gini = 0.0\nsamples = 275\nvalue = [0, 0, 439, 0, 0, 0]\nclass = G1", fillcolor="#39e581"] ;
59 -> 60 ;
61 [label="gini = 0.0\nsamples = 174\nvalue = [0, 0, 0, 0, 0, 269]\nclass = M", fillcolor="#e5399d"] ;
59 -> 61 ;
62 [label="150Nd_pRB <= 3.12\ngini = 0.5\nsamples = 304\nvalue = [0, 0, 227, 0, 0, 237]\nclass = M", fillcolor="#fef7fb"] ;
54 -> 62 ;
63 [label="89Y_pHH3 <= 2.46\ngini = 0.33\nsamples = 126\nvalue = [0, 0, 148, 0, 0, 39]\nclass = G1", fillcolor="#6deca2"] ;
62 -> 63 ;
64 [label="gini = 0.0\nsamples = 100\nvalue = [0, 0, 148, 0, 0, 0]\nclass = G1", fillcolor="#39e581"] ;
63 -> 64 ;
65 [label="gini = 0.0\nsamples = 26\nvalue = [0, 0, 0, 0, 0, 39]\nclass = M", fillcolor="#e5399d"] ;
63 -> 65 ;
66 [label="150Nd_pRB <= 3.48\ngini = 0.41\nsamples = 178\nvalue = [0, 0, 79, 0, 0, 198]\nclass = M", fillcolor="#ef88c4"] ;
62 -> 66 ;
67 [label="127I_IdU <= 0.93\ngini = 0.47\nsamples = 116\nvalue = [0, 0, 67, 0, 0, 111]\nclass = M", fillcolor="#f5b1d8"] ;
66 -> 67 ;
68 [label="150Nd_pRB <= 3.37\ngini = 0.48\nsamples = 99\nvalue = [0, 0, 63, 0, 0, 91]\nclass = M", fillcolor="#f7c2e1"] ;
67 -> 68 ;
69 [label="89Y_pHH3 <= 2.0\ngini = 0.5\nsamples = 63\nvalue = [0, 0, 48, 0, 0, 56]\nclass = M", fillcolor="#fbe3f1"] ;
68 -> 69 ;
70 [label="gini = 0.0\nsamples = 31\nvalue = [0, 0, 48, 0, 0, 0]\nclass = G1", fillcolor="#39e581"] ;
69 -> 70 ;
71 [label="gini = 0.0\nsamples = 32\nvalue = [0, 0, 0, 0, 0, 56]\nclass = M", fillcolor="#e5399d"] ;
69 -> 71 ;
72 [label="127I_IdU <= 0.82\ngini = 0.42\nsamples = 36\nvalue = [0, 0, 15, 0, 0, 35]\nclass = M", fillcolor="#f08ec7"] ;
68 -> 72 ;
73 [label="89Y_pHH3 <= 2.37\ngini = 0.39\nsamples = 34\nvalue = [0, 0, 13, 0, 0, 35]\nclass = M", fillcolor="#ef83c1"] ;
72 -> 73 ;
74 [label="gini = 0.0\nsamples = 9\nvalue = [0, 0, 13, 0, 0, 0]\nclass = G1", fillcolor="#39e581"] ;
73 -> 74 ;
75 [label="gini = 0.0\nsamples = 25\nvalue = [0, 0, 0, 0, 0, 35]\nclass = M", fillcolor="#e5399d"] ;
73 -> 75 ;
76 [label="gini = 0.0\nsamples = 2\nvalue = [0, 0, 2, 0, 0, 0]\nclass = G1", fillcolor="#39e581"] ;
72 -> 76 ;
77 [label="127I_IdU <= 1.92\ngini = 0.28\nsamples = 17\nvalue = [0, 0, 4, 0, 0, 20]\nclass = M", fillcolor="#ea61b1"] ;
67 -> 77 ;
78 [label="89Y_pHH3 <= 1.61\ngini = 0.17\nsamples = 15\nvalue = [0, 0, 2, 0, 0, 20]\nclass = M", fillcolor="#e84da7"] ;
77 -> 78 ;
79 [label="gini = 0.0\nsamples = 2\nvalue = [0, 0, 2, 0, 0, 0]\nclass = G1", fillcolor="#39e581"] ;
78 -> 79 ;
80 [label="gini = 0.0\nsamples = 13\nvalue = [0, 0, 0, 0, 0, 20]\nclass = M", fillcolor="#e5399d"] ;
78 -> 80 ;
81 [label="gini = 0.0\nsamples = 2\nvalue = [0, 0, 2, 0, 0, 0]\nclass = G1", fillcolor="#39e581"] ;
77 -> 81 ;
82 [label="89Y_pHH3 <= 1.66\ngini = 0.21\nsamples = 62\nvalue = [0, 0, 12, 0, 0, 87]\nclass = M", fillcolor="#e954ab"] ;
66 -> 82 ;
83 [label="gini = 0.0\nsamples = 9\nvalue = [0, 0, 12, 0, 0, 0]\nclass = G1", fillcolor="#39e581"] ;
82 -> 83 ;
84 [label="gini = 0.0\nsamples = 53\nvalue = [0, 0, 0, 0, 0, 87]\nclass = M", fillcolor="#e5399d"] ;
82 -> 84 ;
85 [label="89Y_pHH3 <= 2.52\ngini = 0.13\nsamples = 1985\nvalue = [0, 0, 2972, 0, 0, 220]\nclass = G1", fillcolor="#48e78a"] ;
53 -> 85 ;
86 [label="gini = 0.0\nsamples = 1847\nvalue = [0, 0, 2972, 0, 0, 0]\nclass = G1", fillcolor="#39e581"] ;
85 -> 86 ;
87 [label="gini = 0.0\nsamples = 138\nvalue = [0, 0, 0, 0, 0, 220]\nclass = M", fillcolor="#e5399d"] ;
85 -> 87 ;
88 [label="142Nd_cCaspase 3 <= 2.73\ngini = 0.2\nsamples = 2814\nvalue = [0, 0, 510, 0, 0, 3891]\nclass = M", fillcolor="#e853aa"] ;
52 -> 88 ;
89 [label="142Nd_cCaspase 3 <= 2.3\ngini = 0.15\nsamples = 2527\nvalue = [0, 0, 319, 0, 0, 3630]\nclass = M", fillcolor="#e74aa6"] ;
88 -> 89 ;
90 [label="89Y_pHH3 <= 2.96\ngini = 0.11\nsamples = 1899\nvalue = [0, 0, 165, 0, 0, 2790]\nclass = M", fillcolor="#e745a3"] ;
89 -> 90 ;
91 [label="gini = 0.0\nsamples = 100\nvalue = [0, 0, 165, 0, 0, 0]\nclass = G1", fillcolor="#39e581"] ;
90 -> 91 ;
92 [label="gini = 0.0\nsamples = 1799\nvalue = [0, 0, 0, 0, 0, 2790]\nclass = M", fillcolor="#e5399d"] ;
90 -> 92 ;
93 [label="89Y_pHH3 <= 2.89\ngini = 0.26\nsamples = 628\nvalue = [0, 0, 154, 0, 0, 840]\nclass = M", fillcolor="#ea5daf"] ;
89 -> 93 ;
94 [label="gini = 0.0\nsamples = 101\nvalue = [0, 0, 154, 0, 0, 0]\nclass = G1", fillcolor="#39e581"] ;
93 -> 94 ;
95 [label="gini = 0.0\nsamples = 527\nvalue = [0, 0, 0, 0, 0, 840]\nclass = M", fillcolor="#e5399d"] ;
93 -> 95 ;
96 [label="89Y_pHH3 <= 2.31\ngini = 0.49\nsamples = 287\nvalue = [0, 0, 191, 0, 0, 261]\nclass = M", fillcolor="#f8cae5"] ;
88 -> 96 ;
97 [label="gini = 0.0\nsamples = 122\nvalue = [0, 0, 191, 0, 0, 0]\nclass = G1", fillcolor="#39e581"] ;
96 -> 97 ;
98 [label="gini = 0.0\nsamples = 165\nvalue = [0, 0, 0, 0, 0, 261]\nclass = M", fillcolor="#e5399d"] ;
96 -> 98 ;
99 [label="89Y_pHH3 <= 3.01\ngini = 0.08\nsamples = 3345\nvalue = [0, 0, 0, 0, 5059, 208]\nclass = G2", fillcolor="#8641e6"] ;
51 -> 99 ;
100 [label="gini = 0.0\nsamples = 3204\nvalue = [0, 0, 0, 0, 5059, 0]\nclass = G2", fillcolor="#8139e5"] ;
99 -> 100 ;
101 [label="gini = 0.0\nsamples = 141\nvalue = [0, 0, 0, 0, 0, 208]\nclass = M", fillcolor="#e5399d"] ;
99 -> 101 ;
102 [label="gini = 0.0\nsamples = 3204\nvalue = [0, 0, 0, 5058, 0, 0]\nclass = S", fillcolor="#399de5"] ;
0 -> 102 [labeldistance=2.5, labelangle=-45, headlabel="False"] ;
}