digraph Tree {
node [shape=box, style="filled, rounded", color="black", fontname=helvetica] ;
edge [fontname=helvetica] ;
0 [label="164Dy_p120_Catenin_T310 <= 2.03\ngini = 0.83\nsamples = 1056\nvalue = [266, 285, 270, 293, 289, 267]\nclass = S", fillcolor="#feffff"] ;
1 [label="169Tm_PLK1 <= 3.35\ngini = 0.63\nsamples = 334\nvalue = [263, 165, 15, 3, 21, 55]\nclass = apoptosis", fillcolor="#f8dcc9"] ;
0 -> 1 [labeldistance=2.5, labelangle=45, headlabel="True"] ;
2 [label="142Nd_cCaspase_3_D175_v3 <= 1.19\ngini = 0.58\nsamples = 296\nvalue = [250, 157, 14, 3, 17, 18]\nclass = apoptosis", fillcolor="#f7d8c2"] ;
1 -> 2 ;
3 [label="198Pt_Cisplatin <= 2.73\ngini = 0.38\nsamples = 119\nvalue = [9, 142, 7, 3, 4, 18]\nclass = G0", fillcolor="#b5eb6a"] ;
2 -> 3 ;
4 [label="152Sm_pAKT_T308_v6 <= 1.51\ngini = 0.6\nsamples = 45\nvalue = [5, 40, 5, 0, 4, 15]\nclass = G0", fillcolor="#d2f3a3"] ;
3 -> 4 ;
5 [label="164Dy_p120_Catenin_T310 <= 1.77\ngini = 0.44\nsamples = 34\nvalue = [5, 39, 5, 0, 4, 0]\nclass = G0", fillcolor="#baed73"] ;
4 -> 5 ;
6 [label="156Gd_pNF-kB_p65_S529_v3 <= 0.98\ngini = 0.37\nsamples = 32\nvalue = [5, 39, 2, 0, 4, 0]\nclass = G0", fillcolor="#b5eb69"] ;
5 -> 6 ;
7 [label="166Er_pGSK3b_S9_v2 <= 0.82\ngini = 0.14\nsamples = 27\nvalue = [2, 38, 1, 0, 0, 0]\nclass = G0", fillcolor="#a5e748"] ;
6 -> 7 ;
8 [label="163Dy_cPARP_D214_2 <= 1.77\ngini = 0.1\nsamples = 24\nvalue = [2, 34, 0, 0, 0, 0]\nclass = G0", fillcolor="#a3e745"] ;
7 -> 8 ;
9 [label="gini = 0.0\nsamples = 23\nvalue = [0, 34, 0, 0, 0, 0]\nclass = G0", fillcolor="#9de539"] ;
8 -> 9 ;
10 [label="gini = 0.0\nsamples = 1\nvalue = [2, 0, 0, 0, 0, 0]\nclass = apoptosis", fillcolor="#e58139"] ;
8 -> 10 ;
11 [label="191Ir_DNA_1 <= 8.61\ngini = 0.32\nsamples = 3\nvalue = [0, 4, 1, 0, 0, 0]\nclass = G0", fillcolor="#b6ec6a"] ;
7 -> 11 ;
12 [label="gini = 0.0\nsamples = 2\nvalue = [0, 4, 0, 0, 0, 0]\nclass = G0", fillcolor="#9de539"] ;
11 -> 12 ;
13 [label="gini = 0.0\nsamples = 1\nvalue = [0, 0, 1, 0, 0, 0]\nclass = G1", fillcolor="#39e581"] ;
11 -> 13 ;
14 [label="193Ir_DNA_2 <= 8.89\ngini = 0.67\nsamples = 5\nvalue = [3, 1, 1, 0, 4, 0]\nclass = G2", fillcolor="#eadefb"] ;
6 -> 14 ;
15 [label="150Nd_pRB_S807_S811_v2 <= 1.67\ngini = 0.5\nsamples = 4\nvalue = [0, 1, 1, 0, 4, 0]\nclass = G2", fillcolor="#b388ef"] ;
14 -> 15 ;
16 [label="163Dy_cPARP_D214_2 <= 0.39\ngini = 0.5\nsamples = 2\nvalue = [0, 1, 1, 0, 0, 0]\nclass = G0", fillcolor="#ffffff"] ;
15 -> 16 ;
17 [label="gini = 0.0\nsamples = 1\nvalue = [0, 1, 0, 0, 0, 0]\nclass = G0", fillcolor="#9de539"] ;
16 -> 17 ;
18 [label="gini = 0.0\nsamples = 1\nvalue = [0, 0, 1, 0, 0, 0]\nclass = G1", fillcolor="#39e581"] ;
16 -> 18 ;
19 [label="gini = 0.0\nsamples = 2\nvalue = [0, 0, 0, 0, 4, 0]\nclass = G2", fillcolor="#8139e5"] ;
15 -> 19 ;
20 [label="gini = 0.0\nsamples = 1\nvalue = [3, 0, 0, 0, 0, 0]\nclass = apoptosis", fillcolor="#e58139"] ;
14 -> 20 ;
21 [label="gini = 0.0\nsamples = 2\nvalue = [0, 0, 3, 0, 0, 0]\nclass = G1", fillcolor="#39e581"] ;
5 -> 21 ;
22 [label="150Nd_pRB_S807_S811_v2 <= 1.5\ngini = 0.12\nsamples = 11\nvalue = [0, 1, 0, 0, 0, 15]\nclass = M", fillcolor="#e746a4"] ;
4 -> 22 ;
23 [label="gini = 0.0\nsamples = 1\nvalue = [0, 1, 0, 0, 0, 0]\nclass = G0", fillcolor="#9de539"] ;
22 -> 23 ;
24 [label="gini = 0.0\nsamples = 10\nvalue = [0, 0, 0, 0, 0, 15]\nclass = M", fillcolor="#e5399d"] ;
22 -> 24 ;
25 [label="142Nd_cCaspase_3_D175_v3 <= 0.95\ngini = 0.2\nsamples = 74\nvalue = [4, 102, 2, 3, 0, 3]\nclass = G0", fillcolor="#a8e84f"] ;
3 -> 25 ;
26 [label="151Eu_pPKCalpha_T497_v3 <= 1.41\ngini = 0.13\nsamples = 64\nvalue = [0, 93, 2, 3, 0, 2]\nclass = G0", fillcolor="#a4e747"] ;
25 -> 26 ;
27 [label="89Y_pHH3_S28 <= 2.38\ngini = 0.1\nsamples = 62\nvalue = [0, 93, 1, 2, 0, 2]\nclass = G0", fillcolor="#a2e643"] ;
26 -> 27 ;
28 [label="193Ir_DNA_2 <= 9.93\ngini = 0.06\nsamples = 60\nvalue = [0, 93, 1, 2, 0, 0]\nclass = G0", fillcolor="#a0e63f"] ;
27 -> 28 ;
29 [label="164Dy_p120_Catenin_T310 <= 1.98\ngini = 0.04\nsamples = 59\nvalue = [0, 93, 1, 1, 0, 0]\nclass = G0", fillcolor="#9fe63d"] ;
28 -> 29 ;
30 [label="158Gd_pP38_T180_Y182 <= 4.35\ngini = 0.02\nsamples = 57\nvalue = [0, 91, 0, 1, 0, 0]\nclass = G0", fillcolor="#9ee53b"] ;
29 -> 30 ;
31 [label="gini = 0.0\nsamples = 56\nvalue = [0, 91, 0, 0, 0, 0]\nclass = G0", fillcolor="#9de539"] ;
30 -> 31 ;
32 [label="gini = 0.0\nsamples = 1\nvalue = [0, 0, 0, 1, 0, 0]\nclass = S", fillcolor="#399de5"] ;
30 -> 32 ;
33 [label="160Gd_pAMPKa_T172_v3 <= 0.84\ngini = 0.44\nsamples = 2\nvalue = [0, 2, 1, 0, 0, 0]\nclass = G0", fillcolor="#cef29c"] ;
29 -> 33 ;
34 [label="gini = 0.0\nsamples = 1\nvalue = [0, 0, 1, 0, 0, 0]\nclass = G1", fillcolor="#39e581"] ;
33 -> 34 ;
35 [label="gini = 0.0\nsamples = 1\nvalue = [0, 2, 0, 0, 0, 0]\nclass = G0", fillcolor="#9de539"] ;
33 -> 35 ;
36 [label="gini = 0.0\nsamples = 1\nvalue = [0, 0, 0, 1, 0, 0]\nclass = S", fillcolor="#399de5"] ;
28 -> 36 ;
37 [label="gini = 0.0\nsamples = 2\nvalue = [0, 0, 0, 0, 0, 2]\nclass = M", fillcolor="#e5399d"] ;
27 -> 37 ;
38 [label="127I_IdU <= 2.8\ngini = 0.5\nsamples = 2\nvalue = [0, 0, 1, 1, 0, 0]\nclass = G1", fillcolor="#ffffff"] ;
26 -> 38 ;
39 [label="gini = 0.0\nsamples = 1\nvalue = [0, 0, 1, 0, 0, 0]\nclass = G1", fillcolor="#39e581"] ;
38 -> 39 ;
40 [label="gini = 0.0\nsamples = 1\nvalue = [0, 0, 0, 1, 0, 0]\nclass = S", fillcolor="#399de5"] ;
38 -> 40 ;
41 [label="148Nd_pSRC_Y418_v4 <= 0.07\ngini = 0.5\nsamples = 10\nvalue = [4, 9, 0, 0, 0, 1]\nclass = G0", fillcolor="#cef29c"] ;
25 -> 41 ;
42 [label="gini = 0.0\nsamples = 4\nvalue = [0, 6, 0, 0, 0, 0]\nclass = G0", fillcolor="#9de539"] ;
41 -> 42 ;
43 [label="193Ir_DNA_2 <= 9.23\ngini = 0.59\nsamples = 6\nvalue = [4, 3, 0, 0, 0, 1]\nclass = apoptosis", fillcolor="#fae6d7"] ;
41 -> 43 ;
44 [label="143Nd_Geminin <= 0.45\ngini = 0.56\nsamples = 5\nvalue = [1, 3, 0, 0, 0, 1]\nclass = G0", fillcolor="#cef29c"] ;
43 -> 44 ;
45 [label="gini = 0.0\nsamples = 3\nvalue = [0, 3, 0, 0, 0, 0]\nclass = G0", fillcolor="#9de539"] ;
44 -> 45 ;
46 [label="154Sm_pSMAD1_5_9_v4 <= 0.09\ngini = 0.5\nsamples = 2\nvalue = [1, 0, 0, 0, 0, 1]\nclass = apoptosis", fillcolor="#ffffff"] ;
44 -> 46 ;
47 [label="gini = 0.0\nsamples = 1\nvalue = [0, 0, 0, 0, 0, 1]\nclass = M", fillcolor="#e5399d"] ;
46 -> 47 ;
48 [label="gini = 0.0\nsamples = 1\nvalue = [1, 0, 0, 0, 0, 0]\nclass = apoptosis", fillcolor="#e58139"] ;
46 -> 48 ;
49 [label="gini = 0.0\nsamples = 1\nvalue = [3, 0, 0, 0, 0, 0]\nclass = apoptosis", fillcolor="#e58139"] ;
43 -> 49 ;
50 [label="155Gd_pAKT_S473_3_v3 <= 1.16\ngini = 0.23\nsamples = 177\nvalue = [241, 15, 7, 0, 13, 0]\nclass = apoptosis", fillcolor="#e89254"] ;
2 -> 50 ;
51 [label="163Dy_cPARP_D214_2 <= 1.2\ngini = 0.22\nsamples = 173\nvalue = [239, 15, 7, 0, 10, 0]\nclass = apoptosis", fillcolor="#e89152"] ;
50 -> 51 ;
52 [label="142Nd_cCaspase_3_D175_v3 <= 1.57\ngini = 0.21\nsamples = 10\nvalue = [0, 15, 0, 0, 2, 0]\nclass = G0", fillcolor="#aae853"] ;
51 -> 52 ;
53 [label="gini = 0.0\nsamples = 8\nvalue = [0, 15, 0, 0, 0, 0]\nclass = G0", fillcolor="#9de539"] ;
52 -> 53 ;
54 [label="gini = 0.0\nsamples = 2\nvalue = [0, 0, 0, 0, 2, 0]\nclass = G2", fillcolor="#8139e5"] ;
52 -> 54 ;
55 [label="149Sm_p4EBP1_T37_46 <= 2.1\ngini = 0.11\nsamples = 163\nvalue = [239, 0, 7, 0, 8, 0]\nclass = apoptosis", fillcolor="#e78945"] ;
51 -> 55 ;
56 [label="150Nd_pRB_S807_S811_v2 <= 1.43\ngini = 0.11\nsamples = 162\nvalue = [239, 0, 7, 0, 7, 0]\nclass = apoptosis", fillcolor="#e68844"] ;
55 -> 56 ;
57 [label="gini = 0.0\nsamples = 153\nvalue = [239, 0, 0, 0, 0, 0]\nclass = apoptosis", fillcolor="#e58139"] ;
56 -> 57 ;
58 [label="191Ir_DNA_1 <= 8.27\ngini = 0.5\nsamples = 9\nvalue = [0, 0, 7, 0, 7, 0]\nclass = G1", fillcolor="#ffffff"] ;
56 -> 58 ;
59 [label="gini = 0.0\nsamples = 4\nvalue = [0, 0, 5, 0, 0, 0]\nclass = G1", fillcolor="#39e581"] ;
58 -> 59 ;
60 [label="150Nd_pRB_S807_S811_v2 <= 1.64\ngini = 0.35\nsamples = 5\nvalue = [0, 0, 2, 0, 7, 0]\nclass = G2", fillcolor="#a572ec"] ;
58 -> 60 ;
61 [label="gini = 0.0\nsamples = 2\nvalue = [0, 0, 2, 0, 0, 0]\nclass = G1", fillcolor="#39e581"] ;
60 -> 61 ;
62 [label="gini = 0.0\nsamples = 3\nvalue = [0, 0, 0, 0, 7, 0]\nclass = G2", fillcolor="#8139e5"] ;
60 -> 62 ;
63 [label="gini = 0.0\nsamples = 1\nvalue = [0, 0, 0, 0, 1, 0]\nclass = G2", fillcolor="#8139e5"] ;
55 -> 63 ;
64 [label="111Cd_CD44 <= 0.17\ngini = 0.48\nsamples = 4\nvalue = [2, 0, 0, 0, 3, 0]\nclass = G2", fillcolor="#d5bdf6"] ;
50 -> 64 ;
65 [label="gini = 0.0\nsamples = 2\nvalue = [0, 0, 0, 0, 3, 0]\nclass = G2", fillcolor="#8139e5"] ;
64 -> 65 ;
66 [label="gini = 0.0\nsamples = 2\nvalue = [2, 0, 0, 0, 0, 0]\nclass = apoptosis", fillcolor="#e58139"] ;
64 -> 66 ;
67 [label="147Sm_pBTK_Y511_1_v3 <= 1.84\ngini = 0.59\nsamples = 38\nvalue = [13, 8, 1, 0, 4, 37]\nclass = M", fillcolor="#f3a0d0"] ;
1 -> 67 ;
68 [label="176Yb_Cyclin_B1_2_v2 <= 1.06\ngini = 0.64\nsamples = 15\nvalue = [12, 8, 1, 0, 4, 0]\nclass = apoptosis", fillcolor="#f9e1d0"] ;
67 -> 68 ;
69 [label="158Gd_pP38_T180_Y182 <= 0.51\ngini = 0.2\nsamples = 5\nvalue = [8, 0, 1, 0, 0, 0]\nclass = apoptosis", fillcolor="#e89152"] ;
68 -> 69 ;
70 [label="gini = 0.0\nsamples = 1\nvalue = [0, 0, 1, 0, 0, 0]\nclass = G1", fillcolor="#39e581"] ;
69 -> 70 ;
71 [label="gini = 0.0\nsamples = 4\nvalue = [8, 0, 0, 0, 0, 0]\nclass = apoptosis", fillcolor="#e58139"] ;
69 -> 71 ;
72 [label="156Gd_pNF-kB_p65_S529_v3 <= 1.62\ngini = 0.62\nsamples = 10\nvalue = [4, 8, 0, 0, 4, 0]\nclass = G0", fillcolor="#def6bd"] ;
68 -> 72 ;
73 [label="198Pt_Cisplatin <= 4.32\ngini = 0.64\nsamples = 7\nvalue = [4, 2, 0, 0, 4, 0]\nclass = apoptosis", fillcolor="#ffffff"] ;
72 -> 73 ;
74 [label="191Ir_DNA_1 <= 8.78\ngini = 0.44\nsamples = 4\nvalue = [0, 2, 0, 0, 4, 0]\nclass = G2", fillcolor="#c09cf2"] ;
73 -> 74 ;
75 [label="gini = 0.0\nsamples = 2\nvalue = [0, 2, 0, 0, 0, 0]\nclass = G0", fillcolor="#9de539"] ;
74 -> 75 ;
76 [label="gini = 0.0\nsamples = 2\nvalue = [0, 0, 0, 0, 4, 0]\nclass = G2", fillcolor="#8139e5"] ;
74 -> 76 ;
77 [label="gini = 0.0\nsamples = 3\nvalue = [4, 0, 0, 0, 0, 0]\nclass = apoptosis", fillcolor="#e58139"] ;
73 -> 77 ;
78 [label="gini = 0.0\nsamples = 3\nvalue = [0, 6, 0, 0, 0, 0]\nclass = G0", fillcolor="#9de539"] ;
72 -> 78 ;
79 [label="148Nd_pSRC_Y418_v4 <= 2.46\ngini = 0.05\nsamples = 23\nvalue = [1, 0, 0, 0, 0, 37]\nclass = M", fillcolor="#e63ea0"] ;
67 -> 79 ;
80 [label="gini = 0.0\nsamples = 22\nvalue = [0, 0, 0, 0, 0, 37]\nclass = M", fillcolor="#e5399d"] ;
79 -> 80 ;
81 [label="gini = 0.0\nsamples = 1\nvalue = [1, 0, 0, 0, 0, 0]\nclass = apoptosis", fillcolor="#e58139"] ;
79 -> 81 ;
82 [label="146Nd_pMKK4_SEK1_S257_v2 <= 1.67\ngini = 0.79\nsamples = 722\nvalue = [3, 120, 255, 290, 268, 212]\nclass = S", fillcolor="#fafdfe"] ;
0 -> 82 [labeldistance=2.5, labelangle=-45, headlabel="False"] ;
83 [label="152Sm_pAKT_T308_v6 <= 2.83\ngini = 0.77\nsamples = 533\nvalue = [1, 113, 239, 228, 208, 58]\nclass = G1", fillcolor="#fbfffd"] ;
82 -> 83 ;
84 [label="127I_IdU <= 3.92\ngini = 0.75\nsamples = 511\nvalue = [1, 113, 239, 228, 208, 23]\nclass = G1", fillcolor="#fbfffd"] ;
83 -> 84 ;
85 [label="156Gd_pNF-kB_p65_S529_v3 <= 2.27\ngini = 0.67\nsamples = 359\nvalue = [1, 112, 239, 0, 208, 23]\nclass = G1", fillcolor="#effdf5"] ;
84 -> 85 ;
86 [label="152Sm_pAKT_T308_v6 <= 1.78\ngini = 0.67\nsamples = 324\nvalue = [1, 108, 229, 0, 170, 21]\nclass = G1", fillcolor="#defbea"] ;
85 -> 86 ;
87 [label="164Dy_p120_Catenin_T310 <= 2.7\ngini = 0.64\nsamples = 293\nvalue = [1, 102, 225, 0, 150, 5]\nclass = G1", fillcolor="#d2f9e3"] ;
86 -> 87 ;
88 [label="151Eu_pPKCalpha_T497_v3 <= 0.95\ngini = 0.61\nsamples = 41\nvalue = [0, 34, 21, 0, 12, 0]\nclass = G0", fillcolor="#e3f8c7"] ;
87 -> 88 ;
89 [label="155Gd_pAKT_S473_3_v3 <= 1.15\ngini = 0.43\nsamples = 23\nvalue = [0, 26, 7, 0, 3, 0]\nclass = G0", fillcolor="#bfee7d"] ;
88 -> 89 ;
90 [label="150Nd_pRB_S807_S811_v2 <= 1.57\ngini = 0.32\nsamples = 21\nvalue = [0, 26, 3, 0, 3, 0]\nclass = G0", fillcolor="#b1ea62"] ;
89 -> 90 ;
91 [label="gini = 0.0\nsamples = 15\nvalue = [0, 26, 0, 0, 0, 0]\nclass = G0", fillcolor="#9de539"] ;
90 -> 91 ;
92 [label="142Nd_cCaspase_3_D175_v3 <= 0.14\ngini = 0.5\nsamples = 6\nvalue = [0, 0, 3, 0, 3, 0]\nclass = G1", fillcolor="#ffffff"] ;
90 -> 92 ;
93 [label="gini = 0.0\nsamples = 2\nvalue = [0, 0, 2, 0, 0, 0]\nclass = G1", fillcolor="#39e581"] ;
92 -> 93 ;
94 [label="167Er_pERK1_2_T202_Y204_v2 <= 0.76\ngini = 0.38\nsamples = 4\nvalue = [0, 0, 1, 0, 3, 0]\nclass = G2", fillcolor="#ab7bee"] ;
92 -> 94 ;
95 [label="gini = 0.0\nsamples = 1\nvalue = [0, 0, 1, 0, 0, 0]\nclass = G1", fillcolor="#39e581"] ;
94 -> 95 ;
96 [label="gini = 0.0\nsamples = 3\nvalue = [0, 0, 0, 0, 3, 0]\nclass = G2", fillcolor="#8139e5"] ;
94 -> 96 ;
97 [label="gini = 0.0\nsamples = 2\nvalue = [0, 0, 4, 0, 0, 0]\nclass = G1", fillcolor="#39e581"] ;
89 -> 97 ;
98 [label="176Yb_Cyclin_B1_2_v2 <= 0.56\ngini = 0.65\nsamples = 18\nvalue = [0, 8, 14, 0, 9, 0]\nclass = G1", fillcolor="#d2f9e2"] ;
88 -> 98 ;
99 [label="168Er_pSMAD2_3_v3 <= 2.69\ngini = 0.29\nsamples = 10\nvalue = [0, 3, 14, 0, 0, 0]\nclass = G1", fillcolor="#63eb9c"] ;
98 -> 99 ;
100 [label="gini = 0.0\nsamples = 7\nvalue = [0, 0, 12, 0, 0, 0]\nclass = G1", fillcolor="#39e581"] ;
99 -> 100 ;
101 [label="150Nd_pRB_S807_S811_v2 <= 1.85\ngini = 0.48\nsamples = 3\nvalue = [0, 3, 2, 0, 0, 0]\nclass = G0", fillcolor="#def6bd"] ;
99 -> 101 ;
102 [label="gini = 0.0\nsamples = 2\nvalue = [0, 3, 0, 0, 0, 0]\nclass = G0", fillcolor="#9de539"] ;
101 -> 102 ;
103 [label="gini = 0.0\nsamples = 1\nvalue = [0, 0, 2, 0, 0, 0]\nclass = G1", fillcolor="#39e581"] ;
101 -> 103 ;
104 [label="193Ir_DNA_2 <= 9.19\ngini = 0.46\nsamples = 8\nvalue = [0, 5, 0, 0, 9, 0]\nclass = G2", fillcolor="#c7a7f3"] ;
98 -> 104 ;
105 [label="115In_Pan-CK_v4 <= 0.8\ngini = 0.28\nsamples = 4\nvalue = [0, 5, 0, 0, 1, 0]\nclass = G0", fillcolor="#b1ea61"] ;
104 -> 105 ;
106 [label="gini = 0.0\nsamples = 1\nvalue = [0, 0, 0, 0, 1, 0]\nclass = G2", fillcolor="#8139e5"] ;
105 -> 106 ;
107 [label="gini = 0.0\nsamples = 3\nvalue = [0, 5, 0, 0, 0, 0]\nclass = G0", fillcolor="#9de539"] ;
105 -> 107 ;
108 [label="gini = 0.0\nsamples = 4\nvalue = [0, 0, 0, 0, 8, 0]\nclass = G2", fillcolor="#8139e5"] ;
104 -> 108 ;
109 [label="167Er_pERK1_2_T202_Y204_v2 <= 2.19\ngini = 0.62\nsamples = 252\nvalue = [1, 68, 204, 0, 138, 5]\nclass = G1", fillcolor="#d0f9e1"] ;
87 -> 109 ;
110 [label="176Yb_Cyclin_B1_2_v2 <= 1.56\ngini = 0.6\nsamples = 168\nvalue = [0, 52, 154, 0, 68, 4]\nclass = G1", fillcolor="#aef4cb"] ;
109 -> 110 ;
111 [label="154Sm_pSMAD1_5_9_v4 <= 0.54\ngini = 0.35\nsamples = 115\nvalue = [0, 41, 154, 0, 0, 2]\nclass = G1", fillcolor="#70eca4"] ;
110 -> 111 ;
112 [label="148Nd_pSRC_Y418_v4 <= 1.58\ngini = 0.43\nsamples = 65\nvalue = [0, 34, 75, 0, 0, 0]\nclass = G1", fillcolor="#93f1ba"] ;
111 -> 112 ;
113 [label="143Nd_Geminin <= 0.48\ngini = 0.47\nsamples = 56\nvalue = [0, 34, 58, 0, 0, 0]\nclass = G1", fillcolor="#adf4cb"] ;
112 -> 113 ;
114 [label="176Yb_Cyclin_B1_2_v2 <= 0.83\ngini = 0.32\nsamples = 34\nvalue = [0, 11, 43, 0, 0, 0]\nclass = G1", fillcolor="#6ceca1"] ;
113 -> 114 ;
115 [label="147Sm_pBTK_Y511_1_v3 <= 0.48\ngini = 0.24\nsamples = 31\nvalue = [0, 7, 43, 0, 0, 0]\nclass = G1", fillcolor="#59e996"] ;
114 -> 115 ;
116 [label="gini = 0.0\nsamples = 1\nvalue = [0, 2, 0, 0, 0, 0]\nclass = G0", fillcolor="#9de539"] ;
115 -> 116 ;
117 [label="147Sm_pBTK_Y511_1_v3 <= 2.75\ngini = 0.19\nsamples = 30\nvalue = [0, 5, 43, 0, 0, 0]\nclass = G1", fillcolor="#50e890"] ;
115 -> 117 ;
118 [label="164Dy_p120_Catenin_T310 <= 4.41\ngini = 0.05\nsamples = 26\nvalue = [0, 1, 40, 0, 0, 0]\nclass = G1", fillcolor="#3ee684"] ;
117 -> 118 ;
119 [label="gini = 0.0\nsamples = 25\nvalue = [0, 0, 40, 0, 0, 0]\nclass = G1", fillcolor="#39e581"] ;
118 -> 119 ;
120 [label="gini = 0.0\nsamples = 1\nvalue = [0, 1, 0, 0, 0, 0]\nclass = G0", fillcolor="#9de539"] ;
118 -> 120 ;
121 [label="167Er_pERK1_2_T202_Y204_v2 <= 1.35\ngini = 0.49\nsamples = 4\nvalue = [0, 4, 3, 0, 0, 0]\nclass = G0", fillcolor="#e6f8ce"] ;
117 -> 121 ;
122 [label="gini = 0.0\nsamples = 2\nvalue = [0, 4, 0, 0, 0, 0]\nclass = G0", fillcolor="#9de539"] ;
121 -> 122 ;
123 [label="gini = 0.0\nsamples = 2\nvalue = [0, 0, 3, 0, 0, 0]\nclass = G1", fillcolor="#39e581"] ;
121 -> 123 ;
124 [label="gini = 0.0\nsamples = 3\nvalue = [0, 4, 0, 0, 0, 0]\nclass = G0", fillcolor="#9de539"] ;
114 -> 124 ;
125 [label="198Pt_Cisplatin <= 2.22\ngini = 0.48\nsamples = 22\nvalue = [0, 23, 15, 0, 0, 0]\nclass = G0", fillcolor="#ddf6ba"] ;
113 -> 125 ;
126 [label="gini = 0.0\nsamples = 3\nvalue = [0, 0, 4, 0, 0, 0]\nclass = G1", fillcolor="#39e581"] ;
125 -> 126 ;
127 [label="150Nd_pRB_S807_S811_v2 <= 1.47\ngini = 0.44\nsamples = 19\nvalue = [0, 23, 11, 0, 0, 0]\nclass = G0", fillcolor="#ccf198"] ;
125 -> 127 ;
128 [label="gini = 0.0\nsamples = 12\nvalue = [0, 23, 0, 0, 0, 0]\nclass = G0", fillcolor="#9de539"] ;
127 -> 128 ;
129 [label="gini = 0.0\nsamples = 7\nvalue = [0, 0, 11, 0, 0, 0]\nclass = G1", fillcolor="#39e581"] ;
127 -> 129 ;
130 [label="gini = 0.0\nsamples = 9\nvalue = [0, 0, 17, 0, 0, 0]\nclass = G1", fillcolor="#39e581"] ;
112 -> 130 ;
131 [label="147Sm_pBTK_Y511_1_v3 <= 2.65\ngini = 0.19\nsamples = 50\nvalue = [0, 7, 79, 0, 0, 2]\nclass = G1", fillcolor="#4fe88f"] ;
111 -> 131 ;
132 [label="151Eu_pPKCalpha_T497_v3 <= 2.09\ngini = 0.27\nsamples = 36\nvalue = [0, 7, 49, 0, 0, 2]\nclass = G1", fillcolor="#5cea97"] ;
131 -> 132 ;
133 [label="89Y_pHH3_S28 <= 2.25\ngini = 0.23\nsamples = 35\nvalue = [0, 5, 49, 0, 0, 2]\nclass = G1", fillcolor="#54e992"] ;
132 -> 133 ;
134 [label="147Sm_pBTK_Y511_1_v3 <= 2.6\ngini = 0.17\nsamples = 34\nvalue = [0, 5, 49, 0, 0, 0]\nclass = G1", fillcolor="#4de88e"] ;
133 -> 134 ;
135 [label="127I_IdU <= 0.85\ngini = 0.08\nsamples = 31\nvalue = [0, 2, 47, 0, 0, 0]\nclass = G1", fillcolor="#41e686"] ;
134 -> 135 ;
136 [label="gini = 0.0\nsamples = 27\nvalue = [0, 0, 44, 0, 0, 0]\nclass = G1", fillcolor="#39e581"] ;
135 -> 136 ;
137 [label="152Sm_pAKT_T308_v6 <= 0.82\ngini = 0.48\nsamples = 4\nvalue = [0, 2, 3, 0, 0, 0]\nclass = G1", fillcolor="#bdf6d5"] ;
135 -> 137 ;
138 [label="gini = 0.0\nsamples = 2\nvalue = [0, 2, 0, 0, 0, 0]\nclass = G0", fillcolor="#9de539"] ;
137 -> 138 ;
139 [label="gini = 0.0\nsamples = 2\nvalue = [0, 0, 3, 0, 0, 0]\nclass = G1", fillcolor="#39e581"] ;
137 -> 139 ;
140 [label="115In_Pan-CK_v4 <= 2.06\ngini = 0.48\nsamples = 3\nvalue = [0, 3, 2, 0, 0, 0]\nclass = G0", fillcolor="#def6bd"] ;
134 -> 140 ;
141 [label="gini = 0.0\nsamples = 2\nvalue = [0, 3, 0, 0, 0, 0]\nclass = G0", fillcolor="#9de539"] ;
140 -> 141 ;
142 [label="gini = 0.0\nsamples = 1\nvalue = [0, 0, 2, 0, 0, 0]\nclass = G1", fillcolor="#39e581"] ;
140 -> 142 ;
143 [label="gini = 0.0\nsamples = 1\nvalue = [0, 0, 0, 0, 0, 2]\nclass = M", fillcolor="#e5399d"] ;
133 -> 143 ;
144 [label="gini = 0.0\nsamples = 1\nvalue = [0, 2, 0, 0, 0, 0]\nclass = G0", fillcolor="#9de539"] ;
132 -> 144 ;
145 [label="gini = 0.0\nsamples = 14\nvalue = [0, 0, 30, 0, 0, 0]\nclass = G1", fillcolor="#39e581"] ;
131 -> 145 ;
146 [label="89Y_pHH3_S28 <= 2.04\ngini = 0.28\nsamples = 53\nvalue = [0, 11, 0, 0, 68, 2]\nclass = G2", fillcolor="#985eea"] ;
110 -> 146 ;
147 [label="150Nd_pRB_S807_S811_v2 <= 1.44\ngini = 0.24\nsamples = 52\nvalue = [0, 11, 0, 0, 68, 0]\nclass = G2", fillcolor="#9559e9"] ;
146 -> 147 ;
148 [label="gini = 0.0\nsamples = 7\nvalue = [0, 11, 0, 0, 0, 0]\nclass = G0", fillcolor="#9de539"] ;
147 -> 148 ;
149 [label="gini = 0.0\nsamples = 45\nvalue = [0, 0, 0, 0, 68, 0]\nclass = G2", fillcolor="#8139e5"] ;
147 -> 149 ;
150 [label="gini = 0.0\nsamples = 1\nvalue = [0, 0, 0, 0, 0, 2]\nclass = M", fillcolor="#e5399d"] ;
146 -> 150 ;
151 [label="146Nd_pMKK4_SEK1_S257_v2 <= 1.05\ngini = 0.6\nsamples = 84\nvalue = [1, 16, 50, 0, 70, 1]\nclass = G2", fillcolor="#e2d2f9"] ;
109 -> 151 ;
152 [label="161Dy_pBAD_S112_v4 <= 0.65\ngini = 0.62\nsamples = 67\nvalue = [1, 15, 45, 0, 47, 0]\nclass = G2", fillcolor="#fbf9fe"] ;
151 -> 152 ;
153 [label="147Sm_pBTK_Y511_1_v3 <= 3.24\ngini = 0.62\nsamples = 54\nvalue = [1, 13, 41, 0, 29, 0]\nclass = G1", fillcolor="#d4f9e4"] ;
152 -> 153 ;
154 [label="155Gd_pAKT_S473_3_v3 <= 0.25\ngini = 0.6\nsamples = 50\nvalue = [1, 13, 41, 0, 21, 0]\nclass = G1", fillcolor="#b7f6d1"] ;
153 -> 154 ;
155 [label="152Sm_pAKT_T308_v6 <= 0.48\ngini = 0.44\nsamples = 26\nvalue = [1, 0, 27, 0, 11, 0]\nclass = G1", fillcolor="#8ef0b7"] ;
154 -> 155 ;
156 [label="149Sm_p4EBP1_T37_46 <= 1.81\ngini = 0.46\nsamples = 7\nvalue = [0, 0, 4, 0, 7, 0]\nclass = G2", fillcolor="#c9aaf4"] ;
155 -> 156 ;
157 [label="113In_CD326_EpCAM_Hm <= 0.99\ngini = 0.32\nsamples = 3\nvalue = [0, 0, 4, 0, 1, 0]\nclass = G1", fillcolor="#6aeca0"] ;
156 -> 157 ;
158 [label="gini = 0.0\nsamples = 1\nvalue = [0, 0, 0, 0, 1, 0]\nclass = G2", fillcolor="#8139e5"] ;
157 -> 158 ;
159 [label="gini = 0.0\nsamples = 2\nvalue = [0, 0, 4, 0, 0, 0]\nclass = G1", fillcolor="#39e581"] ;
157 -> 159 ;
160 [label="gini = 0.0\nsamples = 4\nvalue = [0, 0, 0, 0, 6, 0]\nclass = G2", fillcolor="#8139e5"] ;
156 -> 160 ;
161 [label="167Er_pERK1_2_T202_Y204_v2 <= 2.25\ngini = 0.3\nsamples = 19\nvalue = [1, 0, 23, 0, 4, 0]\nclass = G1", fillcolor="#62ea9b"] ;
155 -> 161 ;
162 [label="gini = 0.0\nsamples = 1\nvalue = [0, 0, 0, 0, 1, 0]\nclass = G2", fillcolor="#8139e5"] ;
161 -> 162 ;
163 [label="191Ir_DNA_1 <= 8.72\ngini = 0.26\nsamples = 18\nvalue = [1, 0, 23, 0, 3, 0]\nclass = G1", fillcolor="#5ae996"] ;
161 -> 163 ;
164 [label="115In_Pan-CK_v4 <= 4.55\ngini = 0.2\nsamples = 17\nvalue = [0, 0, 23, 0, 3, 0]\nclass = G1", fillcolor="#53e891"] ;
163 -> 164 ;
165 [label="150Nd_pRB_S807_S811_v2 <= 2.94\ngini = 0.08\nsamples = 16\nvalue = [0, 0, 23, 0, 1, 0]\nclass = G1", fillcolor="#42e686"] ;
164 -> 165 ;
166 [label="gini = 0.0\nsamples = 14\nvalue = [0, 0, 22, 0, 0, 0]\nclass = G1", fillcolor="#39e581"] ;
165 -> 166 ;
167 [label="148Nd_pSRC_Y418_v4 <= 0.22\ngini = 0.5\nsamples = 2\nvalue = [0, 0, 1, 0, 1, 0]\nclass = G1", fillcolor="#ffffff"] ;
165 -> 167 ;
168 [label="gini = 0.0\nsamples = 1\nvalue = [0, 0, 0, 0, 1, 0]\nclass = G2", fillcolor="#8139e5"] ;
167 -> 168 ;
169 [label="gini = 0.0\nsamples = 1\nvalue = [0, 0, 1, 0, 0, 0]\nclass = G1", fillcolor="#39e581"] ;
167 -> 169 ;
170 [label="gini = 0.0\nsamples = 1\nvalue = [0, 0, 0, 0, 2, 0]\nclass = G2", fillcolor="#8139e5"] ;
164 -> 170 ;
171 [label="gini = 0.0\nsamples = 1\nvalue = [1, 0, 0, 0, 0, 0]\nclass = apoptosis", fillcolor="#e58139"] ;
163 -> 171 ;
172 [label="150Nd_pRB_S807_S811_v2 <= 1.58\ngini = 0.66\nsamples = 24\nvalue = [0, 13, 14, 0, 10, 0]\nclass = G1", fillcolor="#f7fefa"] ;
154 -> 172 ;
173 [label="gini = 0.0\nsamples = 8\nvalue = [0, 13, 0, 0, 0, 0]\nclass = G0", fillcolor="#9de539"] ;
172 -> 173 ;
174 [label="176Yb_Cyclin_B1_2_v2 <= 1.53\ngini = 0.49\nsamples = 16\nvalue = [0, 0, 14, 0, 10, 0]\nclass = G1", fillcolor="#c6f8db"] ;
172 -> 174 ;
175 [label="gini = 0.0\nsamples = 10\nvalue = [0, 0, 14, 0, 0, 0]\nclass = G1", fillcolor="#39e581"] ;
174 -> 175 ;
176 [label="gini = 0.0\nsamples = 6\nvalue = [0, 0, 0, 0, 10, 0]\nclass = G2", fillcolor="#8139e5"] ;
174 -> 176 ;
177 [label="gini = 0.0\nsamples = 4\nvalue = [0, 0, 0, 0, 8, 0]\nclass = G2", fillcolor="#8139e5"] ;
153 -> 177 ;
178 [label="150Nd_pRB_S807_S811_v2 <= 1.98\ngini = 0.4\nsamples = 13\nvalue = [0, 2, 4, 0, 18, 0]\nclass = G2", fillcolor="#a774ed"] ;
152 -> 178 ;
179 [label="164Dy_p120_Catenin_T310 <= 3.18\ngini = 0.44\nsamples = 3\nvalue = [0, 2, 1, 0, 0, 0]\nclass = G0", fillcolor="#cef29c"] ;
178 -> 179 ;
180 [label="gini = 0.0\nsamples = 1\nvalue = [0, 0, 1, 0, 0, 0]\nclass = G1", fillcolor="#39e581"] ;
179 -> 180 ;
181 [label="gini = 0.0\nsamples = 2\nvalue = [0, 2, 0, 0, 0, 0]\nclass = G0", fillcolor="#9de539"] ;
179 -> 181 ;
182 [label="167Er_pERK1_2_T202_Y204_v2 <= 3.73\ngini = 0.24\nsamples = 10\nvalue = [0, 0, 3, 0, 18, 0]\nclass = G2", fillcolor="#965ae9"] ;
178 -> 182 ;
183 [label="gini = 0.0\nsamples = 8\nvalue = [0, 0, 0, 0, 18, 0]\nclass = G2", fillcolor="#8139e5"] ;
182 -> 183 ;
184 [label="gini = 0.0\nsamples = 2\nvalue = [0, 0, 3, 0, 0, 0]\nclass = G1", fillcolor="#39e581"] ;
182 -> 184 ;
185 [label="161Dy_pBAD_S112_v4 <= 0.18\ngini = 0.38\nsamples = 17\nvalue = [0, 1, 5, 0, 23, 1]\nclass = G2", fillcolor="#a470ec"] ;
151 -> 185 ;
186 [label="gini = 0.0\nsamples = 7\nvalue = [0, 0, 0, 0, 16, 0]\nclass = G2", fillcolor="#8139e5"] ;
185 -> 186 ;
187 [label="115In_Pan-CK_v4 <= 4.24\ngini = 0.61\nsamples = 10\nvalue = [0, 1, 5, 0, 7, 1]\nclass = G2", fillcolor="#e3d3f9"] ;
185 -> 187 ;
188 [label="159Tb_pMAPKAPK2_T334_v2 <= 0.77\ngini = 0.62\nsamples = 7\nvalue = [0, 1, 5, 0, 2, 1]\nclass = G1", fillcolor="#aaf4c9"] ;
187 -> 188 ;
189 [label="154Sm_pSMAD1_5_9_v4 <= 0.73\ngini = 0.62\nsamples = 3\nvalue = [0, 1, 0, 0, 2, 1]\nclass = G2", fillcolor="#d5bdf6"] ;
188 -> 189 ;
190 [label="gini = 0.0\nsamples = 1\nvalue = [0, 0, 0, 0, 2, 0]\nclass = G2", fillcolor="#8139e5"] ;
189 -> 190 ;
191 [label="89Y_pHH3_S28 <= 1.69\ngini = 0.5\nsamples = 2\nvalue = [0, 1, 0, 0, 0, 1]\nclass = G0", fillcolor="#ffffff"] ;
189 -> 191 ;
192 [label="gini = 0.0\nsamples = 1\nvalue = [0, 1, 0, 0, 0, 0]\nclass = G0", fillcolor="#9de539"] ;
191 -> 192 ;
193 [label="gini = 0.0\nsamples = 1\nvalue = [0, 0, 0, 0, 0, 1]\nclass = M", fillcolor="#e5399d"] ;
191 -> 193 ;
194 [label="gini = 0.0\nsamples = 4\nvalue = [0, 0, 5, 0, 0, 0]\nclass = G1", fillcolor="#39e581"] ;
188 -> 194 ;
195 [label="gini = 0.0\nsamples = 3\nvalue = [0, 0, 0, 0, 5, 0]\nclass = G2", fillcolor="#8139e5"] ;
187 -> 195 ;
196 [label="209Bi_pHistone_H2A.X_S139_2 <= 1.33\ngini = 0.67\nsamples = 31\nvalue = [0, 6, 4, 0, 20, 16]\nclass = G2", fillcolor="#eee5fc"] ;
86 -> 196 ;
197 [label="89Y_pHH3_S28 <= 2.08\ngini = 0.63\nsamples = 24\nvalue = [0, 5, 4, 0, 20, 8]\nclass = G2", fillcolor="#cbadf4"] ;
196 -> 197 ;
198 [label="176Yb_Cyclin_B1_2_v2 <= 1.06\ngini = 0.45\nsamples = 17\nvalue = [0, 4, 4, 0, 20, 0]\nclass = G2", fillcolor="#ab7bee"] ;
197 -> 198 ;
199 [label="144Nd_pMEK1_2_S221 <= 0.16\ngini = 0.5\nsamples = 6\nvalue = [0, 4, 4, 0, 0, 0]\nclass = G0", fillcolor="#ffffff"] ;
198 -> 199 ;
200 [label="198Pt_Cisplatin <= 3.57\ngini = 0.32\nsamples = 4\nvalue = [0, 4, 1, 0, 0, 0]\nclass = G0", fillcolor="#b6ec6a"] ;
199 -> 200 ;
201 [label="gini = 0.0\nsamples = 3\nvalue = [0, 4, 0, 0, 0, 0]\nclass = G0", fillcolor="#9de539"] ;
200 -> 201 ;
202 [label="gini = 0.0\nsamples = 1\nvalue = [0, 0, 1, 0, 0, 0]\nclass = G1", fillcolor="#39e581"] ;
200 -> 202 ;
203 [label="gini = 0.0\nsamples = 2\nvalue = [0, 0, 3, 0, 0, 0]\nclass = G1", fillcolor="#39e581"] ;
199 -> 203 ;
204 [label="gini = 0.0\nsamples = 11\nvalue = [0, 0, 0, 0, 20, 0]\nclass = G2", fillcolor="#8139e5"] ;
198 -> 204 ;
205 [label="114Cd_CK18 <= 0.34\ngini = 0.2\nsamples = 7\nvalue = [0, 1, 0, 0, 0, 8]\nclass = M", fillcolor="#e852a9"] ;
197 -> 205 ;
206 [label="gini = 0.0\nsamples = 1\nvalue = [0, 1, 0, 0, 0, 0]\nclass = G0", fillcolor="#9de539"] ;
205 -> 206 ;
207 [label="gini = 0.0\nsamples = 6\nvalue = [0, 0, 0, 0, 0, 8]\nclass = M", fillcolor="#e5399d"] ;
205 -> 207 ;
208 [label="163Dy_cPARP_D214_2 <= 0.81\ngini = 0.2\nsamples = 7\nvalue = [0, 1, 0, 0, 0, 8]\nclass = M", fillcolor="#e852a9"] ;
196 -> 208 ;
209 [label="gini = 0.0\nsamples = 6\nvalue = [0, 0, 0, 0, 0, 8]\nclass = M", fillcolor="#e5399d"] ;
208 -> 209 ;
210 [label="gini = 0.0\nsamples = 1\nvalue = [0, 1, 0, 0, 0, 0]\nclass = G0", fillcolor="#9de539"] ;
208 -> 210 ;
211 [label="113In_CD326_EpCAM_Hm <= 1.88\ngini = 0.46\nsamples = 35\nvalue = [0, 4, 10, 0, 38, 2]\nclass = G2", fillcolor="#af81ee"] ;
85 -> 211 ;
212 [label="150Nd_pRB_S807_S811_v2 <= 2.71\ngini = 0.55\nsamples = 12\nvalue = [0, 1, 9, 0, 8, 0]\nclass = G1", fillcolor="#ebfcf2"] ;
211 -> 212 ;
213 [label="115In_Pan-CK_v4 <= 3.64\ngini = 0.52\nsamples = 9\nvalue = [0, 1, 4, 0, 8, 0]\nclass = G2", fillcolor="#c7a7f3"] ;
212 -> 213 ;
214 [label="gini = 0.0\nsamples = 5\nvalue = [0, 0, 0, 0, 7, 0]\nclass = G2", fillcolor="#8139e5"] ;
213 -> 214 ;
215 [label="149Sm_p4EBP1_T37_46 <= 2.25\ngini = 0.5\nsamples = 4\nvalue = [0, 1, 4, 0, 1, 0]\nclass = G1", fillcolor="#88efb3"] ;
213 -> 215 ;
216 [label="127I_IdU <= 0.0\ngini = 0.32\nsamples = 3\nvalue = [0, 1, 4, 0, 0, 0]\nclass = G1", fillcolor="#6aeca0"] ;
215 -> 216 ;
217 [label="gini = 0.0\nsamples = 1\nvalue = [0, 1, 0, 0, 0, 0]\nclass = G0", fillcolor="#9de539"] ;
216 -> 217 ;
218 [label="gini = 0.0\nsamples = 2\nvalue = [0, 0, 4, 0, 0, 0]\nclass = G1", fillcolor="#39e581"] ;
216 -> 218 ;
219 [label="gini = 0.0\nsamples = 1\nvalue = [0, 0, 0, 0, 1, 0]\nclass = G2", fillcolor="#8139e5"] ;
215 -> 219 ;
220 [label="gini = 0.0\nsamples = 3\nvalue = [0, 0, 5, 0, 0, 0]\nclass = G1", fillcolor="#39e581"] ;
212 -> 220 ;
221 [label="147Sm_pBTK_Y511_1_v3 <= 2.09\ngini = 0.29\nsamples = 23\nvalue = [0, 3, 1, 0, 30, 2]\nclass = G2", fillcolor="#985dea"] ;
211 -> 221 ;
222 [label="gini = 0.0\nsamples = 1\nvalue = [0, 0, 0, 0, 0, 2]\nclass = M", fillcolor="#e5399d"] ;
221 -> 222 ;
223 [label="160Gd_pAMPKa_T172_v3 <= 3.21\ngini = 0.21\nsamples = 22\nvalue = [0, 3, 1, 0, 30, 0]\nclass = G2", fillcolor="#9153e8"] ;
221 -> 223 ;
224 [label="152Sm_pAKT_T308_v6 <= 1.52\ngini = 0.17\nsamples = 21\nvalue = [0, 2, 1, 0, 30, 0]\nclass = G2", fillcolor="#8d4ce8"] ;
223 -> 224 ;
225 [label="169Tm_PLK1 <= 2.58\ngini = 0.46\nsamples = 8\nvalue = [0, 2, 1, 0, 7, 0]\nclass = G2", fillcolor="#b083ef"] ;
224 -> 225 ;
226 [label="144Nd_pMEK1_2_S221 <= 0.4\ngini = 0.22\nsamples = 6\nvalue = [0, 0, 1, 0, 7, 0]\nclass = G2", fillcolor="#9355e9"] ;
225 -> 226 ;
227 [label="gini = 0.0\nsamples = 5\nvalue = [0, 0, 0, 0, 7, 0]\nclass = G2", fillcolor="#8139e5"] ;
226 -> 227 ;
228 [label="gini = 0.0\nsamples = 1\nvalue = [0, 0, 1, 0, 0, 0]\nclass = G1", fillcolor="#39e581"] ;
226 -> 228 ;
229 [label="gini = 0.0\nsamples = 2\nvalue = [0, 2, 0, 0, 0, 0]\nclass = G0", fillcolor="#9de539"] ;
225 -> 229 ;
230 [label="gini = 0.0\nsamples = 13\nvalue = [0, 0, 0, 0, 23, 0]\nclass = G2", fillcolor="#8139e5"] ;
224 -> 230 ;
231 [label="gini = 0.0\nsamples = 1\nvalue = [0, 1, 0, 0, 0, 0]\nclass = G0", fillcolor="#9de539"] ;
223 -> 231 ;
232 [label="159Tb_pMAPKAPK2_T334_v2 <= 0.68\ngini = 0.01\nsamples = 152\nvalue = [0, 1, 0, 228, 0, 0]\nclass = S", fillcolor="#3a9de5"] ;
84 -> 232 ;
233 [label="198Pt_Cisplatin <= 1.63\ngini = 0.09\nsamples = 14\nvalue = [0, 1, 0, 19, 0, 0]\nclass = S", fillcolor="#43a2e6"] ;
232 -> 233 ;
234 [label="gini = 0.0\nsamples = 1\nvalue = [0, 1, 0, 0, 0, 0]\nclass = G0", fillcolor="#9de539"] ;
233 -> 234 ;
235 [label="gini = 0.0\nsamples = 13\nvalue = [0, 0, 0, 19, 0, 0]\nclass = S", fillcolor="#399de5"] ;
233 -> 235 ;
236 [label="gini = 0.0\nsamples = 138\nvalue = [0, 0, 0, 209, 0, 0]\nclass = S", fillcolor="#399de5"] ;
232 -> 236 ;
237 [label="gini = 0.0\nsamples = 22\nvalue = [0, 0, 0, 0, 0, 35]\nclass = M", fillcolor="#e5399d"] ;
83 -> 237 ;
238 [label="127I_IdU <= 3.82\ngini = 0.65\nsamples = 189\nvalue = [2, 7, 16, 62, 60, 154]\nclass = M", fillcolor="#f5b3d9"] ;
82 -> 238 ;
239 [label="89Y_pHH3_S28 <= 1.74\ngini = 0.52\nsamples = 149\nvalue = [2, 7, 16, 0, 60, 154]\nclass = M", fillcolor="#f197cc"] ;
238 -> 239 ;
240 [label="176Yb_Cyclin_B1_2_v2 <= 1.53\ngini = 0.46\nsamples = 53\nvalue = [2, 7, 16, 0, 60, 0]\nclass = G2", fillcolor="#af81ee"] ;
239 -> 240 ;
241 [label="150Nd_pRB_S807_S811_v2 <= 1.68\ngini = 0.2\nsamples = 10\nvalue = [0, 2, 16, 0, 0, 0]\nclass = G1", fillcolor="#52e891"] ;
240 -> 241 ;
242 [label="gini = 0.0\nsamples = 1\nvalue = [0, 2, 0, 0, 0, 0]\nclass = G0", fillcolor="#9de539"] ;
241 -> 242 ;
243 [label="gini = 0.0\nsamples = 9\nvalue = [0, 0, 16, 0, 0, 0]\nclass = G1", fillcolor="#39e581"] ;
241 -> 243 ;
244 [label="127I_IdU <= 1.94\ngini = 0.19\nsamples = 43\nvalue = [2, 5, 0, 0, 60, 0]\nclass = G2", fillcolor="#8f4fe8"] ;
240 -> 244 ;
245 [label="150Nd_pRB_S807_S811_v2 <= 1.45\ngini = 0.14\nsamples = 42\nvalue = [2, 3, 0, 0, 60, 0]\nclass = G2", fillcolor="#8b49e7"] ;
244 -> 245 ;
246 [label="157Gd_pMKK3_6_S189_207_v3 <= 2.01\ngini = 0.48\nsamples = 2\nvalue = [2, 3, 0, 0, 0, 0]\nclass = G0", fillcolor="#def6bd"] ;
245 -> 246 ;
247 [label="gini = 0.0\nsamples = 1\nvalue = [0, 3, 0, 0, 0, 0]\nclass = G0", fillcolor="#9de539"] ;
246 -> 247 ;
248 [label="gini = 0.0\nsamples = 1\nvalue = [2, 0, 0, 0, 0, 0]\nclass = apoptosis", fillcolor="#e58139"] ;
246 -> 248 ;
249 [label="gini = 0.0\nsamples = 40\nvalue = [0, 0, 0, 0, 60, 0]\nclass = G2", fillcolor="#8139e5"] ;
245 -> 249 ;
250 [label="gini = 0.0\nsamples = 1\nvalue = [0, 2, 0, 0, 0, 0]\nclass = G0", fillcolor="#9de539"] ;
244 -> 250 ;
251 [label="gini = 0.0\nsamples = 96\nvalue = [0, 0, 0, 0, 0, 154]\nclass = M", fillcolor="#e5399d"] ;
239 -> 251 ;
252 [label="gini = 0.0\nsamples = 40\nvalue = [0, 0, 0, 62, 0, 0]\nclass = S", fillcolor="#399de5"] ;
238 -> 252 ;
}