digraph Tree {
node [shape=box, style="filled, rounded", color="black", fontname="helvetica"] ;
edge [fontname="helvetica"] ;
0 [label="150Nd_pRB <= 1.08\ngini = 0.83\nsamples = 16798\nvalue = [4542, 4443, 4418, 4447, 4412, 4352]\nclass = apoptosis", fillcolor="#fffefe"] ;
1 [label="150Nd_pRB <= 0.0\ngini = 0.5\nsamples = 5664\nvalue = [4542, 4443, 0, 0, 0, 0]\nclass = apoptosis", fillcolor="#fefcfb"] ;
0 -> 1 [labeldistance=2.5, labelangle=45, headlabel="True"] ;
2 [label="142Nd_cCaspase_3 <= 3.92\ngini = 0.49\nsamples = 1946\nvalue = [1334, 1793, 0, 0, 0, 0]\nclass = G0", fillcolor="#e6f8cc"] ;
1 -> 2 ;
3 [label="gini = 0.0\nsamples = 1132\nvalue = [0, 1793, 0, 0, 0, 0]\nclass = G0", fillcolor="#9de539"] ;
2 -> 3 ;
4 [label="gini = 0.0\nsamples = 814\nvalue = [1334, 0, 0, 0, 0, 0]\nclass = apoptosis", fillcolor="#e58139"] ;
2 -> 4 ;
5 [label="176Yb_Cyclin_B1 <= 4.16\ngini = 0.5\nsamples = 3718\nvalue = [3208, 2650, 0, 0, 0, 0]\nclass = apoptosis", fillcolor="#fae9dd"] ;
1 -> 5 ;
6 [label="127I_IdU <= 1.23\ngini = 0.5\nsamples = 3461\nvalue = [2946, 2500, 0, 0, 0, 0]\nclass = apoptosis", fillcolor="#fbece1"] ;
5 -> 6 ;
7 [label="142Nd_cCaspase_3 <= 3.92\ngini = 0.5\nsamples = 3384\nvalue = [2862, 2463, 0, 0, 0, 0]\nclass = apoptosis", fillcolor="#fbede3"] ;
6 -> 7 ;
8 [label="gini = 0.0\nsamples = 1557\nvalue = [0, 2463, 0, 0, 0, 0]\nclass = G0", fillcolor="#9de539"] ;
7 -> 8 ;
9 [label="gini = 0.0\nsamples = 1827\nvalue = [2862, 0, 0, 0, 0, 0]\nclass = apoptosis", fillcolor="#e58139"] ;
7 -> 9 ;
10 [label="150Nd_pRB <= 0.01\ngini = 0.42\nsamples = 77\nvalue = [84, 37, 0, 0, 0, 0]\nclass = apoptosis", fillcolor="#f0b890"] ;
6 -> 10 ;
11 [label="gini = 0.0\nsamples = 4\nvalue = [0, 5, 0, 0, 0, 0]\nclass = G0", fillcolor="#9de539"] ;
10 -> 11 ;
12 [label="142Nd_cCaspase_3 <= 3.88\ngini = 0.4\nsamples = 73\nvalue = [84, 32, 0, 0, 0, 0]\nclass = apoptosis", fillcolor="#efb184"] ;
10 -> 12 ;
13 [label="gini = 0.0\nsamples = 23\nvalue = [0, 32, 0, 0, 0, 0]\nclass = G0", fillcolor="#9de539"] ;
12 -> 13 ;
14 [label="gini = 0.0\nsamples = 50\nvalue = [84, 0, 0, 0, 0, 0]\nclass = apoptosis", fillcolor="#e58139"] ;
12 -> 14 ;
15 [label="142Nd_cCaspase_3 <= 3.92\ngini = 0.46\nsamples = 257\nvalue = [262, 150, 0, 0, 0, 0]\nclass = apoptosis", fillcolor="#f4c9aa"] ;
5 -> 15 ;
16 [label="gini = 0.0\nsamples = 92\nvalue = [0, 150, 0, 0, 0, 0]\nclass = G0", fillcolor="#9de539"] ;
15 -> 16 ;
17 [label="gini = 0.0\nsamples = 165\nvalue = [262, 0, 0, 0, 0, 0]\nclass = apoptosis", fillcolor="#e58139"] ;
15 -> 17 ;
18 [label="150Nd_pRB <= 3.75\ngini = 0.75\nsamples = 11134\nvalue = [0, 0, 4418, 4447, 4412, 4352]\nclass = S", fillcolor="#ffffff"] ;
0 -> 18 [labeldistance=2.5, labelangle=-45, headlabel="False"] ;
19 [label="127I_IdU <= 4.0\ngini = 0.71\nsamples = 8152\nvalue = [0, 0, 4146, 3887, 3807, 1052]\nclass = G1", fillcolor="#f9fefb"] ;
18 -> 19 ;
20 [label="176Yb_Cyclin_B1 <= 4.76\ngini = 0.6\nsamples = 5721\nvalue = [0, 0, 4146, 0, 3807, 1052]\nclass = G1", fillcolor="#f2fdf7"] ;
19 -> 20 ;
21 [label="142Nd_cCaspase_3 <= 2.3\ngini = 0.32\nsamples = 3306\nvalue = [0, 0, 4146, 0, 0, 1029]\nclass = G1", fillcolor="#6aeba0"] ;
20 -> 21 ;
22 [label="89Y_pHH3 <= 2.32\ngini = 0.42\nsamples = 2011\nvalue = [0, 0, 2203, 0, 0, 953]\nclass = G1", fillcolor="#8ff0b8"] ;
21 -> 22 ;
23 [label="gini = 0.0\nsamples = 1396\nvalue = [0, 0, 2203, 0, 0, 0]\nclass = G1", fillcolor="#39e581"] ;
22 -> 23 ;
24 [label="gini = 0.0\nsamples = 615\nvalue = [0, 0, 0, 0, 0, 953]\nclass = M", fillcolor="#e5399d"] ;
22 -> 24 ;
25 [label="89Y_pHH3 <= 2.64\ngini = 0.07\nsamples = 1295\nvalue = [0, 0, 1943, 0, 0, 76]\nclass = G1", fillcolor="#41e686"] ;
21 -> 25 ;
26 [label="gini = 0.0\nsamples = 1248\nvalue = [0, 0, 1943, 0, 0, 0]\nclass = G1", fillcolor="#39e581"] ;
25 -> 26 ;
27 [label="gini = 0.0\nsamples = 47\nvalue = [0, 0, 0, 0, 0, 76]\nclass = M", fillcolor="#e5399d"] ;
25 -> 27 ;
28 [label="142Nd_cCaspase_3 <= 1.16\ngini = 0.01\nsamples = 2415\nvalue = [0, 0, 0, 0, 3807, 23]\nclass = G2", fillcolor="#823ae5"] ;
20 -> 28 ;
29 [label="142Nd_cCaspase_3 <= 0.96\ngini = 0.13\nsamples = 108\nvalue = [0, 0, 0, 0, 146, 11]\nclass = G2", fillcolor="#8a48e7"] ;
28 -> 29 ;
30 [label="127I_IdU <= 0.01\ngini = 0.04\nsamples = 74\nvalue = [0, 0, 0, 0, 110, 2]\nclass = G2", fillcolor="#833de5"] ;
29 -> 30 ;
31 [label="176Yb_Cyclin_B1 <= 4.84\ngini = 0.08\nsamples = 34\nvalue = [0, 0, 0, 0, 46, 2]\nclass = G2", fillcolor="#8642e6"] ;
30 -> 31 ;
32 [label="176Yb_Cyclin_B1 <= 4.83\ngini = 0.44\nsamples = 4\nvalue = [0, 0, 0, 0, 4, 2]\nclass = G2", fillcolor="#c09cf2"] ;
31 -> 32 ;
33 [label="gini = 0.0\nsamples = 3\nvalue = [0, 0, 0, 0, 4, 0]\nclass = G2", fillcolor="#8139e5"] ;
32 -> 33 ;
34 [label="gini = 0.0\nsamples = 1\nvalue = [0, 0, 0, 0, 0, 2]\nclass = M", fillcolor="#e5399d"] ;
32 -> 34 ;
35 [label="gini = 0.0\nsamples = 30\nvalue = [0, 0, 0, 0, 42, 0]\nclass = G2", fillcolor="#8139e5"] ;
31 -> 35 ;
36 [label="gini = 0.0\nsamples = 40\nvalue = [0, 0, 0, 0, 64, 0]\nclass = G2", fillcolor="#8139e5"] ;
30 -> 36 ;
37 [label="89Y_pHH3 <= 2.39\ngini = 0.32\nsamples = 34\nvalue = [0, 0, 0, 0, 36, 9]\nclass = G2", fillcolor="#a06aec"] ;
29 -> 37 ;
38 [label="gini = 0.0\nsamples = 28\nvalue = [0, 0, 0, 0, 36, 0]\nclass = G2", fillcolor="#8139e5"] ;
37 -> 38 ;
39 [label="gini = 0.0\nsamples = 6\nvalue = [0, 0, 0, 0, 0, 9]\nclass = M", fillcolor="#e5399d"] ;
37 -> 39 ;
40 [label="89Y_pHH3 <= 3.66\ngini = 0.01\nsamples = 2307\nvalue = [0, 0, 0, 0, 3661, 12]\nclass = G2", fillcolor="#813ae5"] ;
28 -> 40 ;
41 [label="gini = 0.0\nsamples = 2299\nvalue = [0, 0, 0, 0, 3661, 0]\nclass = G2", fillcolor="#8139e5"] ;
40 -> 41 ;
42 [label="gini = 0.0\nsamples = 8\nvalue = [0, 0, 0, 0, 0, 12]\nclass = M", fillcolor="#e5399d"] ;
40 -> 42 ;
43 [label="gini = 0.0\nsamples = 2431\nvalue = [0, 0, 0, 3887, 0, 0]\nclass = S", fillcolor="#399de5"] ;
19 -> 43 ;
44 [label="89Y_pHH3 <= 2.96\ngini = 0.48\nsamples = 2982\nvalue = [0, 0, 272, 560, 605, 3300]\nclass = M", fillcolor="#ee7ebf"] ;
18 -> 44 ;
45 [label="176Yb_Cyclin_B1 <= 4.77\ngini = 0.64\nsamples = 895\nvalue = [0, 0, 272, 546, 605, 0]\nclass = G2", fillcolor="#f7f2fd"] ;
44 -> 45 ;
46 [label="127I_IdU <= 4.02\ngini = 0.45\nsamples = 502\nvalue = [0, 0, 272, 536, 0, 0]\nclass = S", fillcolor="#9dcff2"] ;
45 -> 46 ;
47 [label="gini = 0.0\nsamples = 169\nvalue = [0, 0, 272, 0, 0, 0]\nclass = G1", fillcolor="#39e581"] ;
46 -> 47 ;
48 [label="gini = 0.0\nsamples = 333\nvalue = [0, 0, 0, 536, 0, 0]\nclass = S", fillcolor="#399de5"] ;
46 -> 48 ;
49 [label="176Yb_Cyclin_B1 <= 5.97\ngini = 0.03\nsamples = 393\nvalue = [0, 0, 0, 10, 605, 0]\nclass = G2", fillcolor="#833ce5"] ;
45 -> 49 ;
50 [label="127I_IdU <= 4.27\ngini = 0.02\nsamples = 365\nvalue = [0, 0, 0, 7, 565, 0]\nclass = G2", fillcolor="#833be5"] ;
49 -> 50 ;
51 [label="gini = 0.0\nsamples = 359\nvalue = [0, 0, 0, 0, 565, 0]\nclass = G2", fillcolor="#8139e5"] ;
50 -> 51 ;
52 [label="gini = 0.0\nsamples = 6\nvalue = [0, 0, 0, 7, 0, 0]\nclass = S", fillcolor="#399de5"] ;
50 -> 52 ;
53 [label="150Nd_pRB <= 4.11\ngini = 0.13\nsamples = 28\nvalue = [0, 0, 0, 3, 40, 0]\nclass = G2", fillcolor="#8a48e7"] ;
49 -> 53 ;
54 [label="127I_IdU <= 3.67\ngini = 0.06\nsamples = 22\nvalue = [0, 0, 0, 1, 33, 0]\nclass = G2", fillcolor="#853fe6"] ;
53 -> 54 ;
55 [label="gini = 0.0\nsamples = 21\nvalue = [0, 0, 0, 0, 33, 0]\nclass = G2", fillcolor="#8139e5"] ;
54 -> 55 ;
56 [label="gini = 0.0\nsamples = 1\nvalue = [0, 0, 0, 1, 0, 0]\nclass = S", fillcolor="#399de5"] ;
54 -> 56 ;
57 [label="150Nd_pRB <= 4.12\ngini = 0.35\nsamples = 6\nvalue = [0, 0, 0, 2, 7, 0]\nclass = G2", fillcolor="#a572ec"] ;
53 -> 57 ;
58 [label="gini = 0.0\nsamples = 1\nvalue = [0, 0, 0, 2, 0, 0]\nclass = S", fillcolor="#399de5"] ;
57 -> 58 ;
59 [label="gini = 0.0\nsamples = 5\nvalue = [0, 0, 0, 0, 7, 0]\nclass = G2", fillcolor="#8139e5"] ;
57 -> 59 ;
60 [label="127I_IdU <= 4.95\ngini = 0.01\nsamples = 2087\nvalue = [0, 0, 0, 14, 0, 3300]\nclass = M", fillcolor="#e53a9d"] ;
44 -> 60 ;
61 [label="gini = 0.0\nsamples = 2080\nvalue = [0, 0, 0, 0, 0, 3300]\nclass = M", fillcolor="#e5399d"] ;
60 -> 61 ;
62 [label="gini = 0.0\nsamples = 7\nvalue = [0, 0, 0, 14, 0, 0]\nclass = S", fillcolor="#399de5"] ;
60 -> 62 ;
}