digraph Tree {
node [shape=box, style="filled, rounded", color="black", fontname=helvetica] ;
edge [fontname=helvetica] ;
0 [label="127I_IdU <= 3.91\ngini = 0.83\nsamples = 1056\nvalue = [269, 274, 285, 291, 290, 261]\nclass = S", fillcolor="#ffffff"] ;
1 [label="150Nd_pRB_S807_S811_v2 <= 1.43\ngini = 0.8\nsamples = 870\nvalue = [269, 257, 285, 0, 290, 261]\nclass = G2", fillcolor="#fefeff"] ;
0 -> 1 [labeldistance=2.5, labelangle=45, headlabel="True"] ;
2 [label="142Nd_cCaspase_3_D175_v3 <= 1.2\ngini = 0.5\nsamples = 341\nvalue = [269, 257, 0, 0, 0, 0]\nclass = apoptosis", fillcolor="#fef9f6"] ;
1 -> 2 ;
3 [label="163Dy_cPARP_D214_2 <= 1.72\ngini = 0.12\nsamples = 160\nvalue = [16, 239, 0, 0, 0, 0]\nclass = G0", fillcolor="#a4e746"] ;
2 -> 3 ;
4 [label="gini = 0.0\nsamples = 149\nvalue = [0, 239, 0, 0, 0, 0]\nclass = G0", fillcolor="#9de539"] ;
3 -> 4 ;
5 [label="gini = 0.0\nsamples = 11\nvalue = [16, 0, 0, 0, 0, 0]\nclass = apoptosis", fillcolor="#e58139"] ;
3 -> 5 ;
6 [label="163Dy_cPARP_D214_2 <= 1.26\ngini = 0.12\nsamples = 181\nvalue = [253, 18, 0, 0, 0, 0]\nclass = apoptosis", fillcolor="#e78a47"] ;
2 -> 6 ;
7 [label="gini = 0.0\nsamples = 13\nvalue = [0, 18, 0, 0, 0, 0]\nclass = G0", fillcolor="#9de539"] ;
6 -> 7 ;
8 [label="gini = 0.0\nsamples = 168\nvalue = [253, 0, 0, 0, 0, 0]\nclass = apoptosis", fillcolor="#e58139"] ;
6 -> 8 ;
9 [label="152Sm_pAKT_T308_v6 <= 2.24\ngini = 0.67\nsamples = 529\nvalue = [0, 0, 285, 0, 290, 261]\nclass = G2", fillcolor="#fefdff"] ;
1 -> 9 ;
10 [label="176Yb_Cyclin_B1_2_v2 <= 1.57\ngini = 0.55\nsamples = 376\nvalue = [0, 0, 284, 0, 283, 33]\nclass = G1", fillcolor="#feffff"] ;
9 -> 10 ;
11 [label="143Nd_Geminin <= 0.43\ngini = 0.13\nsamples = 195\nvalue = [0, 0, 284, 0, 0, 21]\nclass = G1", fillcolor="#48e78a"] ;
10 -> 11 ;
12 [label="152Sm_pAKT_T308_v6 <= 1.7\ngini = 0.03\nsamples = 109\nvalue = [0, 0, 173, 0, 0, 3]\nclass = G1", fillcolor="#3ce583"] ;
11 -> 12 ;
13 [label="gini = 0.0\nsamples = 99\nvalue = [0, 0, 162, 0, 0, 0]\nclass = G1", fillcolor="#39e581"] ;
12 -> 13 ;
14 [label="89Y_pHH3_S28 <= 1.81\ngini = 0.34\nsamples = 10\nvalue = [0, 0, 11, 0, 0, 3]\nclass = G1", fillcolor="#6feca3"] ;
12 -> 14 ;
15 [label="gini = 0.0\nsamples = 8\nvalue = [0, 0, 11, 0, 0, 0]\nclass = G1", fillcolor="#39e581"] ;
14 -> 15 ;
16 [label="gini = 0.0\nsamples = 2\nvalue = [0, 0, 0, 0, 0, 3]\nclass = M", fillcolor="#e5399d"] ;
14 -> 16 ;
17 [label="89Y_pHH3_S28 <= 2.0\ngini = 0.24\nsamples = 86\nvalue = [0, 0, 111, 0, 0, 18]\nclass = G1", fillcolor="#59e995"] ;
11 -> 17 ;
18 [label="gini = 0.0\nsamples = 74\nvalue = [0, 0, 111, 0, 0, 0]\nclass = G1", fillcolor="#39e581"] ;
17 -> 18 ;
19 [label="gini = 0.0\nsamples = 12\nvalue = [0, 0, 0, 0, 0, 18]\nclass = M", fillcolor="#e5399d"] ;
17 -> 19 ;
20 [label="176Yb_Cyclin_B1_2_v2 <= 1.74\ngini = 0.08\nsamples = 181\nvalue = [0, 0, 0, 0, 283, 12]\nclass = G2", fillcolor="#8641e6"] ;
10 -> 20 ;
21 [label="152Sm_pAKT_T308_v6 <= 1.04\ngini = 0.5\nsamples = 2\nvalue = [0, 0, 0, 0, 1, 1]\nclass = G2", fillcolor="#ffffff"] ;
20 -> 21 ;
22 [label="gini = 0.0\nsamples = 1\nvalue = [0, 0, 0, 0, 0, 1]\nclass = M", fillcolor="#e5399d"] ;
21 -> 22 ;
23 [label="gini = 0.0\nsamples = 1\nvalue = [0, 0, 0, 0, 1, 0]\nclass = G2", fillcolor="#8139e5"] ;
21 -> 23 ;
24 [label="152Sm_pAKT_T308_v6 <= 1.61\ngini = 0.07\nsamples = 179\nvalue = [0, 0, 0, 0, 282, 11]\nclass = G2", fillcolor="#8641e6"] ;
20 -> 24 ;
25 [label="158Gd_pP38_T180_Y182 <= 3.39\ngini = 0.01\nsamples = 132\nvalue = [0, 0, 0, 0, 222, 1]\nclass = G2", fillcolor="#823ae5"] ;
24 -> 25 ;
26 [label="150Nd_pRB_S807_S811_v2 <= 1.54\ngini = 0.14\nsamples = 8\nvalue = [0, 0, 0, 0, 12, 1]\nclass = G2", fillcolor="#8c49e7"] ;
25 -> 26 ;
27 [label="163Dy_cPARP_D214_2 <= 1.21\ngini = 0.5\nsamples = 2\nvalue = [0, 0, 0, 0, 1, 1]\nclass = G2", fillcolor="#ffffff"] ;
26 -> 27 ;
28 [label="gini = 0.0\nsamples = 1\nvalue = [0, 0, 0, 0, 1, 0]\nclass = G2", fillcolor="#8139e5"] ;
27 -> 28 ;
29 [label="gini = 0.0\nsamples = 1\nvalue = [0, 0, 0, 0, 0, 1]\nclass = M", fillcolor="#e5399d"] ;
27 -> 29 ;
30 [label="gini = 0.0\nsamples = 6\nvalue = [0, 0, 0, 0, 11, 0]\nclass = G2", fillcolor="#8139e5"] ;
26 -> 30 ;
31 [label="gini = 0.0\nsamples = 124\nvalue = [0, 0, 0, 0, 210, 0]\nclass = G2", fillcolor="#8139e5"] ;
25 -> 31 ;
32 [label="143Nd_Geminin <= 0.26\ngini = 0.24\nsamples = 47\nvalue = [0, 0, 0, 0, 60, 10]\nclass = G2", fillcolor="#965ae9"] ;
24 -> 32 ;
33 [label="142Nd_cCaspase_3_D175_v3 <= 0.9\ngini = 0.5\nsamples = 9\nvalue = [0, 0, 0, 0, 6, 7]\nclass = M", fillcolor="#fbe3f1"] ;
32 -> 33 ;
34 [label="169Tm_PLK1 <= 0.93\ngini = 0.22\nsamples = 5\nvalue = [0, 0, 0, 0, 1, 7]\nclass = M", fillcolor="#e955ab"] ;
33 -> 34 ;
35 [label="gini = 0.0\nsamples = 1\nvalue = [0, 0, 0, 0, 1, 0]\nclass = G2", fillcolor="#8139e5"] ;
34 -> 35 ;
36 [label="gini = 0.0\nsamples = 4\nvalue = [0, 0, 0, 0, 0, 7]\nclass = M", fillcolor="#e5399d"] ;
34 -> 36 ;
37 [label="gini = 0.0\nsamples = 4\nvalue = [0, 0, 0, 0, 5, 0]\nclass = G2", fillcolor="#8139e5"] ;
33 -> 37 ;
38 [label="158Gd_pP38_T180_Y182 <= 3.85\ngini = 0.1\nsamples = 38\nvalue = [0, 0, 0, 0, 54, 3]\nclass = G2", fillcolor="#8844e6"] ;
32 -> 38 ;
39 [label="gini = 0.0\nsamples = 1\nvalue = [0, 0, 0, 0, 0, 2]\nclass = M", fillcolor="#e5399d"] ;
38 -> 39 ;
40 [label="127I_IdU <= 0.93\ngini = 0.04\nsamples = 37\nvalue = [0, 0, 0, 0, 54, 1]\nclass = G2", fillcolor="#833de5"] ;
38 -> 40 ;
41 [label="gini = 0.0\nsamples = 27\nvalue = [0, 0, 0, 0, 41, 0]\nclass = G2", fillcolor="#8139e5"] ;
40 -> 41 ;
42 [label="142Nd_cCaspase_3_D175_v3 <= 0.48\ngini = 0.13\nsamples = 10\nvalue = [0, 0, 0, 0, 13, 1]\nclass = G2", fillcolor="#8b48e7"] ;
40 -> 42 ;
43 [label="89Y_pHH3_S28 <= 1.55\ngini = 0.44\nsamples = 3\nvalue = [0, 0, 0, 0, 2, 1]\nclass = G2", fillcolor="#c09cf2"] ;
42 -> 43 ;
44 [label="gini = 0.0\nsamples = 2\nvalue = [0, 0, 0, 0, 2, 0]\nclass = G2", fillcolor="#8139e5"] ;
43 -> 44 ;
45 [label="gini = 0.0\nsamples = 1\nvalue = [0, 0, 0, 0, 0, 1]\nclass = M", fillcolor="#e5399d"] ;
43 -> 45 ;
46 [label="gini = 0.0\nsamples = 7\nvalue = [0, 0, 0, 0, 11, 0]\nclass = G2", fillcolor="#8139e5"] ;
42 -> 46 ;
47 [label="89Y_pHH3_S28 <= 2.13\ngini = 0.07\nsamples = 153\nvalue = [0, 0, 1, 0, 7, 228]\nclass = M", fillcolor="#e640a0"] ;
9 -> 47 ;
48 [label="176Yb_Cyclin_B1_2_v2 <= 1.8\ngini = 0.22\nsamples = 7\nvalue = [0, 0, 1, 0, 7, 0]\nclass = G2", fillcolor="#9355e9"] ;
47 -> 48 ;
49 [label="gini = 0.0\nsamples = 1\nvalue = [0, 0, 1, 0, 0, 0]\nclass = G1", fillcolor="#39e581"] ;
48 -> 49 ;
50 [label="gini = 0.0\nsamples = 6\nvalue = [0, 0, 0, 0, 7, 0]\nclass = G2", fillcolor="#8139e5"] ;
48 -> 50 ;
51 [label="gini = 0.0\nsamples = 146\nvalue = [0, 0, 0, 0, 0, 228]\nclass = M", fillcolor="#e5399d"] ;
47 -> 51 ;
52 [label="127I_IdU <= 6.62\ngini = 0.1\nsamples = 186\nvalue = [0, 17, 0, 291, 0, 0]\nclass = S", fillcolor="#45a3e7"] ;
0 -> 52 [labeldistance=2.5, labelangle=-45, headlabel="False"] ;
53 [label="152Sm_pAKT_T308_v6 <= 0.19\ngini = 0.09\nsamples = 185\nvalue = [0, 15, 0, 291, 0, 0]\nclass = S", fillcolor="#43a2e6"] ;
52 -> 53 ;
54 [label="158Gd_pP38_T180_Y182 <= 4.3\ngini = 0.36\nsamples = 34\nvalue = [0, 14, 0, 46, 0, 0]\nclass = S", fillcolor="#75bbed"] ;
53 -> 54 ;
55 [label="gini = 0.0\nsamples = 7\nvalue = [0, 12, 0, 0, 0, 0]\nclass = G0", fillcolor="#9de539"] ;
54 -> 55 ;
56 [label="158Gd_pP38_T180_Y182 <= 4.54\ngini = 0.08\nsamples = 27\nvalue = [0, 2, 0, 46, 0, 0]\nclass = S", fillcolor="#42a1e6"] ;
54 -> 56 ;
57 [label="150Nd_pRB_S807_S811_v2 <= 1.63\ngini = 0.24\nsamples = 7\nvalue = [0, 2, 0, 12, 0, 0]\nclass = S", fillcolor="#5aade9"] ;
56 -> 57 ;
58 [label="gini = 0.0\nsamples = 1\nvalue = [0, 2, 0, 0, 0, 0]\nclass = G0", fillcolor="#9de539"] ;
57 -> 58 ;
59 [label="gini = 0.0\nsamples = 6\nvalue = [0, 0, 0, 12, 0, 0]\nclass = S", fillcolor="#399de5"] ;
57 -> 59 ;
60 [label="gini = 0.0\nsamples = 20\nvalue = [0, 0, 0, 34, 0, 0]\nclass = S", fillcolor="#399de5"] ;
56 -> 60 ;
61 [label="127I_IdU <= 4.97\ngini = 0.01\nsamples = 151\nvalue = [0, 1, 0, 245, 0, 0]\nclass = S", fillcolor="#3a9de5"] ;
53 -> 61 ;
62 [label="158Gd_pP38_T180_Y182 <= 2.71\ngini = 0.05\nsamples = 26\nvalue = [0, 1, 0, 41, 0, 0]\nclass = S", fillcolor="#3e9fe6"] ;
61 -> 62 ;
63 [label="gini = 0.0\nsamples = 1\nvalue = [0, 1, 0, 0, 0, 0]\nclass = G0", fillcolor="#9de539"] ;
62 -> 63 ;
64 [label="gini = 0.0\nsamples = 25\nvalue = [0, 0, 0, 41, 0, 0]\nclass = S", fillcolor="#399de5"] ;
62 -> 64 ;
65 [label="gini = 0.0\nsamples = 125\nvalue = [0, 0, 0, 204, 0, 0]\nclass = S", fillcolor="#399de5"] ;
61 -> 65 ;
66 [label="gini = 0.0\nsamples = 1\nvalue = [0, 2, 0, 0, 0, 0]\nclass = G0", fillcolor="#9de539"] ;
52 -> 66 ;
}