digraph Tree {
node [shape=box, style="filled, rounded", color="black", fontname=helvetica] ;
edge [fontname=helvetica] ;
0 [label="145Nd_FABP1 <= 1.53\ngini = 0.83\nsamples = 19187\nvalue = [5096, 5066, 4852, 5009, 5061, 5160]\nclass = M", fillcolor="#fffeff"] ;
1 [label="175Lu_CD44 <= 1.57\ngini = 0.71\nsamples = 8776\nvalue = [319, 655, 1994, 4996, 831, 5119]\nclass = M", fillcolor="#fffcfe"] ;
0 -> 1 [labeldistance=2.5, labelangle=45, headlabel="True"] ;
2 [label="162Dy_LRIG1 <= 1.14\ngini = 0.71\nsamples = 879\nvalue = [306, 593, 231, 23, 198, 7]\nclass = G0", fillcolor="#e4f8c9"] ;
1 -> 2 ;
3 [label="162Dy_LRIG1 <= 0.53\ngini = 0.61\nsamples = 645\nvalue = [278, 537, 64, 4, 104, 2]\nclass = G0", fillcolor="#dbf6b7"] ;
2 -> 3 ;
4 [label="145Nd_FABP1 <= 1.19\ngini = 0.53\nsamples = 441\nvalue = [204, 411, 27, 1, 30, 2]\nclass = G0", fillcolor="#d4f4a8"] ;
3 -> 4 ;
5 [label="173Yb_DCAMKL1 <= 2.3\ngini = 0.52\nsamples = 359\nvalue = [152, 346, 20, 1, 28, 0]\nclass = G0", fillcolor="#cff29e"] ;
4 -> 5 ;
6 [label="144Nd_Lysozyme <= 0.0\ngini = 0.53\nsamples = 329\nvalue = [148, 310, 20, 1, 27, 0]\nclass = G0", fillcolor="#d3f3a5"] ;
5 -> 6 ;
7 [label="175Lu_CD44 <= 0.72\ngini = 0.41\nsamples = 112\nvalue = [33, 123, 6, 0, 4, 0]\nclass = G0", fillcolor="#bded79"] ;
6 -> 7 ;
8 [label="145Nd_FABP1 <= 1.18\ngini = 0.39\nsamples = 107\nvalue = [33, 120, 6, 0, 1, 0]\nclass = G0", fillcolor="#bced77"] ;
7 -> 8 ;
9 [label="145Nd_FABP1 <= 0.47\ngini = 0.39\nsamples = 106\nvalue = [33, 120, 5, 0, 1, 0]\nclass = G0", fillcolor="#bbed76"] ;
8 -> 9 ;
10 [label="174Yb_CHGA <= 2.24\ngini = 0.46\nsamples = 52\nvalue = [21, 51, 2, 0, 1, 0]\nclass = G0", fillcolor="#c9f191"] ;
9 -> 10 ;
11 [label="145Nd_FABP1 <= 0.07\ngini = 0.38\nsamples = 46\nvalue = [14, 50, 1, 0, 1, 0]\nclass = G0", fillcolor="#bbed76"] ;
10 -> 11 ;
12 [label="173Yb_DCAMKL1 <= 1.82\ngini = 0.46\nsamples = 27\nvalue = [12, 26, 1, 0, 0, 0]\nclass = G0", fillcolor="#ccf298"] ;
11 -> 12 ;
13 [label="145Nd_FABP1 <= 0.06\ngini = 0.34\nsamples = 22\nvalue = [7, 25, 0, 0, 0, 0]\nclass = G0", fillcolor="#b8ec70"] ;
12 -> 13 ;
14 [label="173Yb_DCAMKL1 <= 0.86\ngini = 0.31\nsamples = 21\nvalue = [6, 25, 0, 0, 0, 0]\nclass = G0", fillcolor="#b5eb69"] ;
13 -> 14 ;
15 [label="174Yb_CHGA <= 1.17\ngini = 0.35\nsamples = 18\nvalue = [6, 21, 0, 0, 0, 0]\nclass = G0", fillcolor="#b9ec72"] ;
14 -> 15 ;
16 [label="174Yb_CHGA <= 0.28\ngini = 0.29\nsamples = 15\nvalue = [4, 19, 0, 0, 0, 0]\nclass = G0", fillcolor="#b2ea63"] ;
15 -> 16 ;
17 [label="162Dy_LRIG1 <= 0.43\ngini = 0.32\nsamples = 13\nvalue = [4, 16, 0, 0, 0, 0]\nclass = G0", fillcolor="#b6ec6a"] ;
16 -> 17 ;
18 [label="171Yb_CLCA1 <= 1.68\ngini = 0.27\nsamples = 12\nvalue = [3, 16, 0, 0, 0, 0]\nclass = G0", fillcolor="#afea5e"] ;
17 -> 18 ;
19 [label="171Yb_CLCA1 <= 1.5\ngini = 0.44\nsamples = 4\nvalue = [2, 4, 0, 0, 0, 0]\nclass = G0", fillcolor="#cef29c"] ;
18 -> 19 ;
20 [label="gini = 0.0\nsamples = 3\nvalue = [0, 4, 0, 0, 0, 0]\nclass = G0", fillcolor="#9de539"] ;
19 -> 20 ;
21 [label="gini = 0.0\nsamples = 1\nvalue = [2, 0, 0, 0, 0, 0]\nclass = apoptosis", fillcolor="#e58139"] ;
19 -> 21 ;
22 [label="173Yb_DCAMKL1 <= 0.57\ngini = 0.14\nsamples = 8\nvalue = [1, 12, 0, 0, 0, 0]\nclass = G0", fillcolor="#a5e749"] ;
18 -> 22 ;
23 [label="gini = 0.0\nsamples = 7\nvalue = [0, 12, 0, 0, 0, 0]\nclass = G0", fillcolor="#9de539"] ;
22 -> 23 ;
24 [label="gini = 0.0\nsamples = 1\nvalue = [1, 0, 0, 0, 0, 0]\nclass = apoptosis", fillcolor="#e58139"] ;
22 -> 24 ;
25 [label="gini = 0.0\nsamples = 1\nvalue = [1, 0, 0, 0, 0, 0]\nclass = apoptosis", fillcolor="#e58139"] ;
17 -> 25 ;
26 [label="gini = 0.0\nsamples = 2\nvalue = [0, 3, 0, 0, 0, 0]\nclass = G0", fillcolor="#9de539"] ;
16 -> 26 ;
27 [label="162Dy_LRIG1 <= 0.36\ngini = 0.5\nsamples = 3\nvalue = [2, 2, 0, 0, 0, 0]\nclass = apoptosis", fillcolor="#ffffff"] ;
15 -> 27 ;
28 [label="gini = 0.0\nsamples = 2\nvalue = [0, 2, 0, 0, 0, 0]\nclass = G0", fillcolor="#9de539"] ;
27 -> 28 ;
29 [label="gini = 0.0\nsamples = 1\nvalue = [2, 0, 0, 0, 0, 0]\nclass = apoptosis", fillcolor="#e58139"] ;
27 -> 29 ;
30 [label="gini = 0.0\nsamples = 3\nvalue = [0, 4, 0, 0, 0, 0]\nclass = G0", fillcolor="#9de539"] ;
14 -> 30 ;
31 [label="gini = 0.0\nsamples = 1\nvalue = [1, 0, 0, 0, 0, 0]\nclass = apoptosis", fillcolor="#e58139"] ;
13 -> 31 ;
32 [label="173Yb_DCAMKL1 <= 2.16\ngini = 0.45\nsamples = 5\nvalue = [5, 1, 1, 0, 0, 0]\nclass = apoptosis", fillcolor="#eeab7b"] ;
12 -> 32 ;
33 [label="gini = 0.0\nsamples = 3\nvalue = [5, 0, 0, 0, 0, 0]\nclass = apoptosis", fillcolor="#e58139"] ;
32 -> 33 ;
34 [label="162Dy_LRIG1 <= 0.08\ngini = 0.5\nsamples = 2\nvalue = [0, 1, 1, 0, 0, 0]\nclass = G0", fillcolor="#ffffff"] ;
32 -> 34 ;
35 [label="gini = 0.0\nsamples = 1\nvalue = [0, 0, 1, 0, 0, 0]\nclass = G1", fillcolor="#39e581"] ;
34 -> 35 ;
36 [label="gini = 0.0\nsamples = 1\nvalue = [0, 1, 0, 0, 0, 0]\nclass = G0", fillcolor="#9de539"] ;
34 -> 36 ;
37 [label="174Yb_CHGA <= 2.0\ngini = 0.2\nsamples = 19\nvalue = [2, 24, 0, 0, 1, 0]\nclass = G0", fillcolor="#a9e851"] ;
11 -> 37 ;
38 [label="174Yb_CHGA <= 0.01\ngini = 0.16\nsamples = 16\nvalue = [2, 21, 0, 0, 0, 0]\nclass = G0", fillcolor="#a6e74c"] ;
37 -> 38 ;
39 [label="145Nd_FABP1 <= 0.23\ngini = 0.21\nsamples = 12\nvalue = [2, 15, 0, 0, 0, 0]\nclass = G0", fillcolor="#aae853"] ;
38 -> 39 ;
40 [label="173Yb_DCAMKL1 <= 1.23\ngini = 0.38\nsamples = 4\nvalue = [1, 3, 0, 0, 0, 0]\nclass = G0", fillcolor="#beee7b"] ;
39 -> 40 ;
41 [label="gini = 0.0\nsamples = 1\nvalue = [1, 0, 0, 0, 0, 0]\nclass = apoptosis", fillcolor="#e58139"] ;
40 -> 41 ;
42 [label="gini = 0.0\nsamples = 3\nvalue = [0, 3, 0, 0, 0, 0]\nclass = G0", fillcolor="#9de539"] ;
40 -> 42 ;
43 [label="171Yb_CLCA1 <= 0.86\ngini = 0.14\nsamples = 8\nvalue = [1, 12, 0, 0, 0, 0]\nclass = G0", fillcolor="#a5e749"] ;
39 -> 43 ;
44 [label="145Nd_FABP1 <= 0.34\ngini = 0.24\nsamples = 5\nvalue = [1, 6, 0, 0, 0, 0]\nclass = G0", fillcolor="#ade95a"] ;
43 -> 44 ;
45 [label="gini = 0.0\nsamples = 3\nvalue = [0, 3, 0, 0, 0, 0]\nclass = G0", fillcolor="#9de539"] ;
44 -> 45 ;
46 [label="162Dy_LRIG1 <= 0.09\ngini = 0.38\nsamples = 2\nvalue = [1, 3, 0, 0, 0, 0]\nclass = G0", fillcolor="#beee7b"] ;
44 -> 46 ;
47 [label="gini = 0.0\nsamples = 1\nvalue = [1, 0, 0, 0, 0, 0]\nclass = apoptosis", fillcolor="#e58139"] ;
46 -> 47 ;
48 [label="gini = 0.0\nsamples = 1\nvalue = [0, 3, 0, 0, 0, 0]\nclass = G0", fillcolor="#9de539"] ;
46 -> 48 ;
49 [label="gini = 0.0\nsamples = 3\nvalue = [0, 6, 0, 0, 0, 0]\nclass = G0", fillcolor="#9de539"] ;
43 -> 49 ;
50 [label="gini = 0.0\nsamples = 4\nvalue = [0, 6, 0, 0, 0, 0]\nclass = G0", fillcolor="#9de539"] ;
38 -> 50 ;
51 [label="173Yb_DCAMKL1 <= 0.64\ngini = 0.38\nsamples = 3\nvalue = [0, 3, 0, 0, 1, 0]\nclass = G0", fillcolor="#beee7b"] ;
37 -> 51 ;
52 [label="174Yb_CHGA <= 2.1\ngini = 0.44\nsamples = 2\nvalue = [0, 2, 0, 0, 1, 0]\nclass = G0", fillcolor="#cef29c"] ;
51 -> 52 ;
53 [label="gini = 0.0\nsamples = 1\nvalue = [0, 0, 0, 0, 1, 0]\nclass = G2", fillcolor="#8139e5"] ;
52 -> 53 ;
54 [label="gini = 0.0\nsamples = 1\nvalue = [0, 2, 0, 0, 0, 0]\nclass = G0", fillcolor="#9de539"] ;
52 -> 54 ;
55 [label="gini = 0.0\nsamples = 1\nvalue = [0, 1, 0, 0, 0, 0]\nclass = G0", fillcolor="#9de539"] ;
51 -> 55 ;
56 [label="162Dy_LRIG1 <= 0.25\ngini = 0.37\nsamples = 6\nvalue = [7, 1, 1, 0, 0, 0]\nclass = apoptosis", fillcolor="#eca06a"] ;
10 -> 56 ;
57 [label="174Yb_CHGA <= 2.4\ngini = 0.44\nsamples = 3\nvalue = [2, 0, 1, 0, 0, 0]\nclass = apoptosis", fillcolor="#f2c09c"] ;
56 -> 57 ;
58 [label="gini = 0.0\nsamples = 2\nvalue = [2, 0, 0, 0, 0, 0]\nclass = apoptosis", fillcolor="#e58139"] ;
57 -> 58 ;
59 [label="gini = 0.0\nsamples = 1\nvalue = [0, 0, 1, 0, 0, 0]\nclass = G1", fillcolor="#39e581"] ;
57 -> 59 ;
60 [label="173Yb_DCAMKL1 <= 0.88\ngini = 0.28\nsamples = 3\nvalue = [5, 1, 0, 0, 0, 0]\nclass = apoptosis", fillcolor="#ea9a61"] ;
56 -> 60 ;
61 [label="gini = 0.0\nsamples = 1\nvalue = [3, 0, 0, 0, 0, 0]\nclass = apoptosis", fillcolor="#e58139"] ;
60 -> 61 ;
62 [label="173Yb_DCAMKL1 <= 2.02\ngini = 0.44\nsamples = 2\nvalue = [2, 1, 0, 0, 0, 0]\nclass = apoptosis", fillcolor="#f2c09c"] ;
60 -> 62 ;
63 [label="gini = 0.0\nsamples = 1\nvalue = [0, 1, 0, 0, 0, 0]\nclass = G0", fillcolor="#9de539"] ;
62 -> 63 ;
64 [label="gini = 0.0\nsamples = 1\nvalue = [2, 0, 0, 0, 0, 0]\nclass = apoptosis", fillcolor="#e58139"] ;
62 -> 64 ;
65 [label="145Nd_FABP1 <= 0.73\ngini = 0.3\nsamples = 54\nvalue = [12, 69, 3, 0, 0, 0]\nclass = G0", fillcolor="#b1ea62"] ;
9 -> 65 ;
66 [label="145Nd_FABP1 <= 0.57\ngini = 0.08\nsamples = 19\nvalue = [0, 24, 1, 0, 0, 0]\nclass = G0", fillcolor="#a1e641"] ;
65 -> 66 ;
67 [label="145Nd_FABP1 <= 0.56\ngini = 0.22\nsamples = 6\nvalue = [0, 7, 1, 0, 0, 0]\nclass = G0", fillcolor="#abe955"] ;
66 -> 67 ;
68 [label="gini = 0.0\nsamples = 5\nvalue = [0, 7, 0, 0, 0, 0]\nclass = G0", fillcolor="#9de539"] ;
67 -> 68 ;
69 [label="gini = 0.0\nsamples = 1\nvalue = [0, 0, 1, 0, 0, 0]\nclass = G1", fillcolor="#39e581"] ;
67 -> 69 ;
70 [label="gini = 0.0\nsamples = 13\nvalue = [0, 17, 0, 0, 0, 0]\nclass = G0", fillcolor="#9de539"] ;
66 -> 70 ;
71 [label="174Yb_CHGA <= 2.07\ngini = 0.38\nsamples = 35\nvalue = [12, 45, 2, 0, 0, 0]\nclass = G0", fillcolor="#baed74"] ;
65 -> 71 ;
72 [label="162Dy_LRIG1 <= 0.25\ngini = 0.32\nsamples = 31\nvalue = [11, 43, 0, 0, 0, 0]\nclass = G0", fillcolor="#b6ec6c"] ;
71 -> 72 ;
73 [label="173Yb_DCAMKL1 <= 1.56\ngini = 0.41\nsamples = 22\nvalue = [11, 27, 0, 0, 0, 0]\nclass = G0", fillcolor="#c5f08a"] ;
72 -> 73 ;
74 [label="145Nd_FABP1 <= 0.75\ngini = 0.35\nsamples = 18\nvalue = [7, 24, 0, 0, 0, 0]\nclass = G0", fillcolor="#baed73"] ;
73 -> 74 ;
75 [label="gini = 0.0\nsamples = 1\nvalue = [2, 0, 0, 0, 0, 0]\nclass = apoptosis", fillcolor="#e58139"] ;
74 -> 75 ;
76 [label="171Yb_CLCA1 <= 0.85\ngini = 0.29\nsamples = 17\nvalue = [5, 24, 0, 0, 0, 0]\nclass = G0", fillcolor="#b1ea62"] ;
74 -> 76 ;
77 [label="162Dy_LRIG1 <= 0.11\ngini = 0.46\nsamples = 7\nvalue = [4, 7, 0, 0, 0, 0]\nclass = G0", fillcolor="#d5f4aa"] ;
76 -> 77 ;
78 [label="173Yb_DCAMKL1 <= 0.71\ngini = 0.42\nsamples = 6\nvalue = [3, 7, 0, 0, 0, 0]\nclass = G0", fillcolor="#c7f08e"] ;
77 -> 78 ;
79 [label="171Yb_CLCA1 <= 0.42\ngini = 0.44\nsamples = 5\nvalue = [3, 6, 0, 0, 0, 0]\nclass = G0", fillcolor="#cef29c"] ;
78 -> 79 ;
80 [label="gini = 0.0\nsamples = 4\nvalue = [0, 6, 0, 0, 0, 0]\nclass = G0", fillcolor="#9de539"] ;
79 -> 80 ;
81 [label="gini = 0.0\nsamples = 1\nvalue = [3, 0, 0, 0, 0, 0]\nclass = apoptosis", fillcolor="#e58139"] ;
79 -> 81 ;
82 [label="gini = 0.0\nsamples = 1\nvalue = [0, 1, 0, 0, 0, 0]\nclass = G0", fillcolor="#9de539"] ;
78 -> 82 ;
83 [label="gini = 0.0\nsamples = 1\nvalue = [1, 0, 0, 0, 0, 0]\nclass = apoptosis", fillcolor="#e58139"] ;
77 -> 83 ;
84 [label="174Yb_CHGA <= 0.12\ngini = 0.1\nsamples = 10\nvalue = [1, 17, 0, 0, 0, 0]\nclass = G0", fillcolor="#a3e745"] ;
76 -> 84 ;
85 [label="gini = 0.0\nsamples = 7\nvalue = [0, 12, 0, 0, 0, 0]\nclass = G0", fillcolor="#9de539"] ;
84 -> 85 ;
86 [label="174Yb_CHGA <= 0.34\ngini = 0.28\nsamples = 3\nvalue = [1, 5, 0, 0, 0, 0]\nclass = G0", fillcolor="#b1ea61"] ;
84 -> 86 ;
87 [label="gini = 0.0\nsamples = 1\nvalue = [1, 0, 0, 0, 0, 0]\nclass = apoptosis", fillcolor="#e58139"] ;
86 -> 87 ;
88 [label="gini = 0.0\nsamples = 2\nvalue = [0, 5, 0, 0, 0, 0]\nclass = G0", fillcolor="#9de539"] ;
86 -> 88 ;
89 [label="145Nd_FABP1 <= 0.78\ngini = 0.49\nsamples = 4\nvalue = [4, 3, 0, 0, 0, 0]\nclass = apoptosis", fillcolor="#f8e0ce"] ;
73 -> 89 ;
90 [label="gini = 0.0\nsamples = 1\nvalue = [3, 0, 0, 0, 0, 0]\nclass = apoptosis", fillcolor="#e58139"] ;
89 -> 90 ;
91 [label="173Yb_DCAMKL1 <= 1.86\ngini = 0.38\nsamples = 3\nvalue = [1, 3, 0, 0, 0, 0]\nclass = G0", fillcolor="#beee7b"] ;
89 -> 91 ;
92 [label="gini = 0.0\nsamples = 1\nvalue = [1, 0, 0, 0, 0, 0]\nclass = apoptosis", fillcolor="#e58139"] ;
91 -> 92 ;
93 [label="gini = 0.0\nsamples = 2\nvalue = [0, 3, 0, 0, 0, 0]\nclass = G0", fillcolor="#9de539"] ;
91 -> 93 ;
94 [label="gini = 0.0\nsamples = 9\nvalue = [0, 16, 0, 0, 0, 0]\nclass = G0", fillcolor="#9de539"] ;
72 -> 94 ;
95 [label="174Yb_CHGA <= 2.41\ngini = 0.64\nsamples = 4\nvalue = [1, 2, 2, 0, 0, 0]\nclass = G0", fillcolor="#ffffff"] ;
71 -> 95 ;
96 [label="gini = 0.0\nsamples = 1\nvalue = [0, 0, 2, 0, 0, 0]\nclass = G1", fillcolor="#39e581"] ;
95 -> 96 ;
97 [label="162Dy_LRIG1 <= 0.31\ngini = 0.44\nsamples = 3\nvalue = [1, 2, 0, 0, 0, 0]\nclass = G0", fillcolor="#cef29c"] ;
95 -> 97 ;
98 [label="gini = 0.0\nsamples = 2\nvalue = [0, 2, 0, 0, 0, 0]\nclass = G0", fillcolor="#9de539"] ;
97 -> 98 ;
99 [label="gini = 0.0\nsamples = 1\nvalue = [1, 0, 0, 0, 0, 0]\nclass = apoptosis", fillcolor="#e58139"] ;
97 -> 99 ;
100 [label="gini = 0.0\nsamples = 1\nvalue = [0, 0, 1, 0, 0, 0]\nclass = G1", fillcolor="#39e581"] ;
8 -> 100 ;
101 [label="175Lu_CD44 <= 0.99\ngini = 0.5\nsamples = 5\nvalue = [0, 3, 0, 0, 3, 0]\nclass = G0", fillcolor="#ffffff"] ;
7 -> 101 ;
102 [label="162Dy_LRIG1 <= 0.1\ngini = 0.38\nsamples = 3\nvalue = [0, 1, 0, 0, 3, 0]\nclass = G2", fillcolor="#ab7bee"] ;
101 -> 102 ;
103 [label="gini = 0.0\nsamples = 1\nvalue = [0, 1, 0, 0, 0, 0]\nclass = G0", fillcolor="#9de539"] ;
102 -> 103 ;
104 [label="gini = 0.0\nsamples = 2\nvalue = [0, 0, 0, 0, 3, 0]\nclass = G2", fillcolor="#8139e5"] ;
102 -> 104 ;
105 [label="gini = 0.0\nsamples = 2\nvalue = [0, 2, 0, 0, 0, 0]\nclass = G0", fillcolor="#9de539"] ;
101 -> 105 ;
106 [label="171Yb_CLCA1 <= 2.52\ngini = 0.58\nsamples = 217\nvalue = [115, 187, 14, 1, 23, 0]\nclass = G0", fillcolor="#e0f7c0"] ;
6 -> 106 ;
107 [label="173Yb_DCAMKL1 <= 1.55\ngini = 0.56\nsamples = 183\nvalue = [84, 168, 14, 1, 20, 0]\nclass = G0", fillcolor="#d6f4ad"] ;
106 -> 107 ;
108 [label="174Yb_CHGA <= 1.89\ngini = 0.56\nsamples = 135\nvalue = [50, 126, 12, 1, 19, 0]\nclass = G0", fillcolor="#d0f2a0"] ;
107 -> 108 ;
109 [label="162Dy_LRIG1 <= 0.2\ngini = 0.46\nsamples = 107\nvalue = [39, 111, 6, 1, 3, 0]\nclass = G0", fillcolor="#c5f089"] ;
108 -> 109 ;
110 [label="145Nd_FABP1 <= 0.65\ngini = 0.34\nsamples = 63\nvalue = [17, 81, 3, 1, 0, 0]\nclass = G0", fillcolor="#b5eb6a"] ;
109 -> 110 ;
111 [label="145Nd_FABP1 <= 0.36\ngini = 0.3\nsamples = 42\nvalue = [8, 58, 3, 1, 0, 0]\nclass = G0", fillcolor="#b0ea5f"] ;
110 -> 111 ;
112 [label="171Yb_CLCA1 <= 0.1\ngini = 0.43\nsamples = 29\nvalue = [7, 30, 3, 1, 0, 0]\nclass = G0", fillcolor="#bded79"] ;
111 -> 112 ;
113 [label="145Nd_FABP1 <= 0.1\ngini = 0.2\nsamples = 6\nvalue = [0, 8, 0, 1, 0, 0]\nclass = G0", fillcolor="#a9e852"] ;
112 -> 113 ;
114 [label="144Nd_Lysozyme <= 1.99\ngini = 0.32\nsamples = 4\nvalue = [0, 4, 0, 1, 0, 0]\nclass = G0", fillcolor="#b6ec6a"] ;
113 -> 114 ;
115 [label="gini = 0.0\nsamples = 3\nvalue = [0, 4, 0, 0, 0, 0]\nclass = G0", fillcolor="#9de539"] ;
114 -> 115 ;
116 [label="gini = 0.0\nsamples = 1\nvalue = [0, 0, 0, 1, 0, 0]\nclass = S", fillcolor="#399de5"] ;
114 -> 116 ;
117 [label="gini = 0.0\nsamples = 2\nvalue = [0, 4, 0, 0, 0, 0]\nclass = G0", fillcolor="#9de539"] ;
113 -> 117 ;
118 [label="171Yb_CLCA1 <= 0.3\ngini = 0.47\nsamples = 23\nvalue = [7, 22, 3, 0, 0, 0]\nclass = G0", fillcolor="#c4ef88"] ;
112 -> 118 ;
119 [label="gini = 0.0\nsamples = 1\nvalue = [2, 0, 0, 0, 0, 0]\nclass = apoptosis", fillcolor="#e58139"] ;
118 -> 119 ;
120 [label="162Dy_LRIG1 <= 0.07\ngini = 0.42\nsamples = 22\nvalue = [5, 22, 3, 0, 0, 0]\nclass = G0", fillcolor="#bced78"] ;
118 -> 120 ;
121 [label="144Nd_Lysozyme <= 0.08\ngini = 0.29\nsamples = 14\nvalue = [3, 14, 0, 0, 0, 0]\nclass = G0", fillcolor="#b2eb63"] ;
120 -> 121 ;
122 [label="gini = 0.0\nsamples = 1\nvalue = [2, 0, 0, 0, 0, 0]\nclass = apoptosis", fillcolor="#e58139"] ;
121 -> 122 ;
123 [label="144Nd_Lysozyme <= 0.36\ngini = 0.12\nsamples = 13\nvalue = [1, 14, 0, 0, 0, 0]\nclass = G0", fillcolor="#a4e747"] ;
121 -> 123 ;
124 [label="144Nd_Lysozyme <= 0.31\ngini = 0.28\nsamples = 6\nvalue = [1, 5, 0, 0, 0, 0]\nclass = G0", fillcolor="#b1ea61"] ;
123 -> 124 ;
125 [label="gini = 0.0\nsamples = 5\nvalue = [0, 5, 0, 0, 0, 0]\nclass = G0", fillcolor="#9de539"] ;
124 -> 125 ;
126 [label="gini = 0.0\nsamples = 1\nvalue = [1, 0, 0, 0, 0, 0]\nclass = apoptosis", fillcolor="#e58139"] ;
124 -> 126 ;
127 [label="gini = 0.0\nsamples = 7\nvalue = [0, 9, 0, 0, 0, 0]\nclass = G0", fillcolor="#9de539"] ;
123 -> 127 ;
128 [label="173Yb_DCAMKL1 <= 0.41\ngini = 0.54\nsamples = 8\nvalue = [2, 8, 3, 0, 0, 0]\nclass = G0", fillcolor="#cef29c"] ;
120 -> 128 ;
129 [label="171Yb_CLCA1 <= 0.72\ngini = 0.62\nsamples = 3\nvalue = [1, 1, 2, 0, 0, 0]\nclass = G1", fillcolor="#bdf6d5"] ;
128 -> 129 ;
130 [label="gini = 0.0\nsamples = 1\nvalue = [0, 0, 2, 0, 0, 0]\nclass = G1", fillcolor="#39e581"] ;
129 -> 130 ;
131 [label="162Dy_LRIG1 <= 0.13\ngini = 0.5\nsamples = 2\nvalue = [1, 1, 0, 0, 0, 0]\nclass = apoptosis", fillcolor="#ffffff"] ;
129 -> 131 ;
132 [label="gini = 0.0\nsamples = 1\nvalue = [0, 1, 0, 0, 0, 0]\nclass = G0", fillcolor="#9de539"] ;
131 -> 132 ;
133 [label="gini = 0.0\nsamples = 1\nvalue = [1, 0, 0, 0, 0, 0]\nclass = apoptosis", fillcolor="#e58139"] ;
131 -> 133 ;
134 [label="144Nd_Lysozyme <= 0.08\ngini = 0.37\nsamples = 5\nvalue = [1, 7, 1, 0, 0, 0]\nclass = G0", fillcolor="#b6ec6a"] ;
128 -> 134 ;
135 [label="gini = 0.0\nsamples = 1\nvalue = [1, 0, 0, 0, 0, 0]\nclass = apoptosis", fillcolor="#e58139"] ;
134 -> 135 ;
136 [label="174Yb_CHGA <= 0.61\ngini = 0.22\nsamples = 4\nvalue = [0, 7, 1, 0, 0, 0]\nclass = G0", fillcolor="#abe955"] ;
134 -> 136 ;
137 [label="gini = 0.0\nsamples = 2\nvalue = [0, 6, 0, 0, 0, 0]\nclass = G0", fillcolor="#9de539"] ;
136 -> 137 ;
138 [label="174Yb_CHGA <= 1.53\ngini = 0.5\nsamples = 2\nvalue = [0, 1, 1, 0, 0, 0]\nclass = G0", fillcolor="#ffffff"] ;
136 -> 138 ;
139 [label="gini = 0.0\nsamples = 1\nvalue = [0, 0, 1, 0, 0, 0]\nclass = G1", fillcolor="#39e581"] ;
138 -> 139 ;
140 [label="gini = 0.0\nsamples = 1\nvalue = [0, 1, 0, 0, 0, 0]\nclass = G0", fillcolor="#9de539"] ;
138 -> 140 ;
141 [label="175Lu_CD44 <= 0.55\ngini = 0.07\nsamples = 13\nvalue = [1, 28, 0, 0, 0, 0]\nclass = G0", fillcolor="#a0e640"] ;
111 -> 141 ;
142 [label="gini = 0.0\nsamples = 12\nvalue = [0, 28, 0, 0, 0, 0]\nclass = G0", fillcolor="#9de539"] ;
141 -> 142 ;
143 [label="gini = 0.0\nsamples = 1\nvalue = [1, 0, 0, 0, 0, 0]\nclass = apoptosis", fillcolor="#e58139"] ;
141 -> 143 ;
144 [label="145Nd_FABP1 <= 0.77\ngini = 0.4\nsamples = 21\nvalue = [9, 23, 0, 0, 0, 0]\nclass = G0", fillcolor="#c3ef86"] ;
110 -> 144 ;
145 [label="145Nd_FABP1 <= 0.73\ngini = 0.24\nsamples = 4\nvalue = [6, 1, 0, 0, 0, 0]\nclass = apoptosis", fillcolor="#e9965a"] ;
144 -> 145 ;
146 [label="gini = 0.0\nsamples = 2\nvalue = [4, 0, 0, 0, 0, 0]\nclass = apoptosis", fillcolor="#e58139"] ;
145 -> 146 ;
147 [label="145Nd_FABP1 <= 0.77\ngini = 0.44\nsamples = 2\nvalue = [2, 1, 0, 0, 0, 0]\nclass = apoptosis", fillcolor="#f2c09c"] ;
145 -> 147 ;
148 [label="gini = 0.0\nsamples = 1\nvalue = [0, 1, 0, 0, 0, 0]\nclass = G0", fillcolor="#9de539"] ;
147 -> 148 ;
149 [label="gini = 0.0\nsamples = 1\nvalue = [2, 0, 0, 0, 0, 0]\nclass = apoptosis", fillcolor="#e58139"] ;
147 -> 149 ;
150 [label="144Nd_Lysozyme <= 1.3\ngini = 0.21\nsamples = 17\nvalue = [3, 22, 0, 0, 0, 0]\nclass = G0", fillcolor="#aae954"] ;
144 -> 150 ;
151 [label="171Yb_CLCA1 <= 1.72\ngini = 0.16\nsamples = 15\nvalue = [2, 21, 0, 0, 0, 0]\nclass = G0", fillcolor="#a6e74c"] ;
150 -> 151 ;
152 [label="gini = 0.0\nsamples = 10\nvalue = [0, 15, 0, 0, 0, 0]\nclass = G0", fillcolor="#9de539"] ;
151 -> 152 ;
153 [label="145Nd_FABP1 <= 1.11\ngini = 0.38\nsamples = 5\nvalue = [2, 6, 0, 0, 0, 0]\nclass = G0", fillcolor="#beee7b"] ;
151 -> 153 ;
154 [label="gini = 0.0\nsamples = 2\nvalue = [2, 0, 0, 0, 0, 0]\nclass = apoptosis", fillcolor="#e58139"] ;
153 -> 154 ;
155 [label="gini = 0.0\nsamples = 3\nvalue = [0, 6, 0, 0, 0, 0]\nclass = G0", fillcolor="#9de539"] ;
153 -> 155 ;
156 [label="173Yb_DCAMKL1 <= 0.4\ngini = 0.5\nsamples = 2\nvalue = [1, 1, 0, 0, 0, 0]\nclass = apoptosis", fillcolor="#ffffff"] ;
150 -> 156 ;
157 [label="gini = 0.0\nsamples = 1\nvalue = [1, 0, 0, 0, 0, 0]\nclass = apoptosis", fillcolor="#e58139"] ;
156 -> 157 ;
158 [label="gini = 0.0\nsamples = 1\nvalue = [0, 1, 0, 0, 0, 0]\nclass = G0", fillcolor="#9de539"] ;
156 -> 158 ;
159 [label="145Nd_FABP1 <= 0.7\ngini = 0.58\nsamples = 44\nvalue = [22, 30, 3, 0, 3, 0]\nclass = G0", fillcolor="#e9f9d3"] ;
109 -> 159 ;
160 [label="171Yb_CLCA1 <= 1.45\ngini = 0.62\nsamples = 29\nvalue = [19, 13, 3, 0, 3, 0]\nclass = apoptosis", fillcolor="#f9e1cf"] ;
159 -> 160 ;
161 [label="171Yb_CLCA1 <= 0.75\ngini = 0.52\nsamples = 16\nvalue = [14, 2, 3, 0, 2, 0]\nclass = apoptosis", fillcolor="#efb286"] ;
160 -> 161 ;
162 [label="144Nd_Lysozyme <= 2.15\ngini = 0.72\nsamples = 6\nvalue = [2, 2, 3, 0, 1, 0]\nclass = G1", fillcolor="#defbea"] ;
161 -> 162 ;
163 [label="gini = 0.0\nsamples = 2\nvalue = [2, 0, 0, 0, 0, 0]\nclass = apoptosis", fillcolor="#e58139"] ;
162 -> 163 ;
164 [label="171Yb_CLCA1 <= 0.31\ngini = 0.61\nsamples = 4\nvalue = [0, 2, 3, 0, 1, 0]\nclass = G1", fillcolor="#cef8e0"] ;
162 -> 164 ;
165 [label="gini = 0.0\nsamples = 2\nvalue = [0, 0, 3, 0, 0, 0]\nclass = G1", fillcolor="#39e581"] ;
164 -> 165 ;
166 [label="145Nd_FABP1 <= 0.13\ngini = 0.44\nsamples = 2\nvalue = [0, 2, 0, 0, 1, 0]\nclass = G0", fillcolor="#cef29c"] ;
164 -> 166 ;
167 [label="gini = 0.0\nsamples = 1\nvalue = [0, 0, 0, 0, 1, 0]\nclass = G2", fillcolor="#8139e5"] ;
166 -> 167 ;
168 [label="gini = 0.0\nsamples = 1\nvalue = [0, 2, 0, 0, 0, 0]\nclass = G0", fillcolor="#9de539"] ;
166 -> 168 ;
169 [label="173Yb_DCAMKL1 <= 1.31\ngini = 0.14\nsamples = 10\nvalue = [12, 0, 0, 0, 1, 0]\nclass = apoptosis", fillcolor="#e78c49"] ;
161 -> 169 ;
170 [label="gini = 0.0\nsamples = 8\nvalue = [9, 0, 0, 0, 0, 0]\nclass = apoptosis", fillcolor="#e58139"] ;
169 -> 170 ;
171 [label="171Yb_CLCA1 <= 0.9\ngini = 0.38\nsamples = 2\nvalue = [3, 0, 0, 0, 1, 0]\nclass = apoptosis", fillcolor="#eeab7b"] ;
169 -> 171 ;
172 [label="gini = 0.0\nsamples = 1\nvalue = [3, 0, 0, 0, 0, 0]\nclass = apoptosis", fillcolor="#e58139"] ;
171 -> 172 ;
173 [label="gini = 0.0\nsamples = 1\nvalue = [0, 0, 0, 0, 1, 0]\nclass = G2", fillcolor="#8139e5"] ;
171 -> 173 ;
174 [label="145Nd_FABP1 <= 0.21\ngini = 0.49\nsamples = 13\nvalue = [5, 11, 0, 0, 1, 0]\nclass = G0", fillcolor="#cef29c"] ;
160 -> 174 ;
175 [label="162Dy_LRIG1 <= 0.52\ngini = 0.2\nsamples = 6\nvalue = [1, 8, 0, 0, 0, 0]\nclass = G0", fillcolor="#a9e852"] ;
174 -> 175 ;
176 [label="gini = 0.0\nsamples = 5\nvalue = [0, 8, 0, 0, 0, 0]\nclass = G0", fillcolor="#9de539"] ;
175 -> 176 ;
177 [label="gini = 0.0\nsamples = 1\nvalue = [1, 0, 0, 0, 0, 0]\nclass = apoptosis", fillcolor="#e58139"] ;
175 -> 177 ;
178 [label="162Dy_LRIG1 <= 0.35\ngini = 0.59\nsamples = 7\nvalue = [4, 3, 0, 0, 1, 0]\nclass = apoptosis", fillcolor="#fae6d7"] ;
174 -> 178 ;
179 [label="171Yb_CLCA1 <= 1.84\ngini = 0.5\nsamples = 2\nvalue = [0, 1, 0, 0, 1, 0]\nclass = G0", fillcolor="#ffffff"] ;
178 -> 179 ;
180 [label="gini = 0.0\nsamples = 1\nvalue = [0, 0, 0, 0, 1, 0]\nclass = G2", fillcolor="#8139e5"] ;
179 -> 180 ;
181 [label="gini = 0.0\nsamples = 1\nvalue = [0, 1, 0, 0, 0, 0]\nclass = G0", fillcolor="#9de539"] ;
179 -> 181 ;
182 [label="171Yb_CLCA1 <= 1.98\ngini = 0.44\nsamples = 5\nvalue = [4, 2, 0, 0, 0, 0]\nclass = apoptosis", fillcolor="#f2c09c"] ;
178 -> 182 ;
183 [label="162Dy_LRIG1 <= 0.44\ngini = 0.44\nsamples = 3\nvalue = [1, 2, 0, 0, 0, 0]\nclass = G0", fillcolor="#cef29c"] ;
182 -> 183 ;
184 [label="gini = 0.0\nsamples = 1\nvalue = [0, 1, 0, 0, 0, 0]\nclass = G0", fillcolor="#9de539"] ;
183 -> 184 ;
185 [label="171Yb_CLCA1 <= 1.82\ngini = 0.5\nsamples = 2\nvalue = [1, 1, 0, 0, 0, 0]\nclass = apoptosis", fillcolor="#ffffff"] ;
183 -> 185 ;
186 [label="gini = 0.0\nsamples = 1\nvalue = [0, 1, 0, 0, 0, 0]\nclass = G0", fillcolor="#9de539"] ;
185 -> 186 ;
187 [label="gini = 0.0\nsamples = 1\nvalue = [1, 0, 0, 0, 0, 0]\nclass = apoptosis", fillcolor="#e58139"] ;
185 -> 187 ;
188 [label="gini = 0.0\nsamples = 2\nvalue = [3, 0, 0, 0, 0, 0]\nclass = apoptosis", fillcolor="#e58139"] ;
182 -> 188 ;
189 [label="173Yb_DCAMKL1 <= 1.05\ngini = 0.26\nsamples = 15\nvalue = [3, 17, 0, 0, 0, 0]\nclass = G0", fillcolor="#aeea5c"] ;
159 -> 189 ;
190 [label="162Dy_LRIG1 <= 0.4\ngini = 0.34\nsamples = 11\nvalue = [3, 11, 0, 0, 0, 0]\nclass = G0", fillcolor="#b8ec6f"] ;
189 -> 190 ;
191 [label="171Yb_CLCA1 <= 1.99\ngini = 0.48\nsamples = 5\nvalue = [2, 3, 0, 0, 0, 0]\nclass = G0", fillcolor="#def6bd"] ;
190 -> 191 ;
192 [label="162Dy_LRIG1 <= 0.32\ngini = 0.44\nsamples = 3\nvalue = [2, 1, 0, 0, 0, 0]\nclass = apoptosis", fillcolor="#f2c09c"] ;
191 -> 192 ;
193 [label="gini = 0.0\nsamples = 1\nvalue = [0, 1, 0, 0, 0, 0]\nclass = G0", fillcolor="#9de539"] ;
192 -> 193 ;
194 [label="gini = 0.0\nsamples = 2\nvalue = [2, 0, 0, 0, 0, 0]\nclass = apoptosis", fillcolor="#e58139"] ;
192 -> 194 ;
195 [label="gini = 0.0\nsamples = 2\nvalue = [0, 2, 0, 0, 0, 0]\nclass = G0", fillcolor="#9de539"] ;
191 -> 195 ;
196 [label="171Yb_CLCA1 <= 0.21\ngini = 0.2\nsamples = 6\nvalue = [1, 8, 0, 0, 0, 0]\nclass = G0", fillcolor="#a9e852"] ;
190 -> 196 ;
197 [label="175Lu_CD44 <= 0.03\ngini = 0.32\nsamples = 4\nvalue = [1, 4, 0, 0, 0, 0]\nclass = G0", fillcolor="#b6ec6a"] ;
196 -> 197 ;
198 [label="173Yb_DCAMKL1 <= 0.52\ngini = 0.5\nsamples = 2\nvalue = [1, 1, 0, 0, 0, 0]\nclass = apoptosis", fillcolor="#ffffff"] ;
197 -> 198 ;
199 [label="gini = 0.0\nsamples = 1\nvalue = [0, 1, 0, 0, 0, 0]\nclass = G0", fillcolor="#9de539"] ;
198 -> 199 ;
200 [label="gini = 0.0\nsamples = 1\nvalue = [1, 0, 0, 0, 0, 0]\nclass = apoptosis", fillcolor="#e58139"] ;
198 -> 200 ;
201 [label="gini = 0.0\nsamples = 2\nvalue = [0, 3, 0, 0, 0, 0]\nclass = G0", fillcolor="#9de539"] ;
197 -> 201 ;
202 [label="gini = 0.0\nsamples = 2\nvalue = [0, 4, 0, 0, 0, 0]\nclass = G0", fillcolor="#9de539"] ;
196 -> 202 ;
203 [label="gini = 0.0\nsamples = 4\nvalue = [0, 6, 0, 0, 0, 0]\nclass = G0", fillcolor="#9de539"] ;
189 -> 203 ;
204 [label="144Nd_Lysozyme <= 0.17\ngini = 0.72\nsamples = 28\nvalue = [11, 15, 6, 0, 16, 0]\nclass = G2", fillcolor="#fbf9fe"] ;
108 -> 204 ;
205 [label="145Nd_FABP1 <= 0.17\ngini = 0.64\nsamples = 10\nvalue = [5, 0, 4, 0, 8, 0]\nclass = G2", fillcolor="#e0cef8"] ;
204 -> 205 ;
206 [label="171Yb_CLCA1 <= 0.94\ngini = 0.48\nsamples = 3\nvalue = [2, 0, 3, 0, 0, 0]\nclass = G1", fillcolor="#bdf6d5"] ;
205 -> 206 ;
207 [label="gini = 0.0\nsamples = 2\nvalue = [0, 0, 3, 0, 0, 0]\nclass = G1", fillcolor="#39e581"] ;
206 -> 207 ;
208 [label="gini = 0.0\nsamples = 1\nvalue = [2, 0, 0, 0, 0, 0]\nclass = apoptosis", fillcolor="#e58139"] ;
206 -> 208 ;
209 [label="171Yb_CLCA1 <= 0.9\ngini = 0.49\nsamples = 7\nvalue = [3, 0, 1, 0, 8, 0]\nclass = G2", fillcolor="#b991f1"] ;
205 -> 209 ;
210 [label="145Nd_FABP1 <= 0.75\ngini = 0.22\nsamples = 4\nvalue = [0, 0, 1, 0, 7, 0]\nclass = G2", fillcolor="#9355e9"] ;
209 -> 210 ;
211 [label="gini = 0.0\nsamples = 3\nvalue = [0, 0, 0, 0, 7, 0]\nclass = G2", fillcolor="#8139e5"] ;
210 -> 211 ;
212 [label="gini = 0.0\nsamples = 1\nvalue = [0, 0, 1, 0, 0, 0]\nclass = G1", fillcolor="#39e581"] ;
210 -> 212 ;
213 [label="173Yb_DCAMKL1 <= 0.06\ngini = 0.38\nsamples = 3\nvalue = [3, 0, 0, 0, 1, 0]\nclass = apoptosis", fillcolor="#eeab7b"] ;
209 -> 213 ;
214 [label="gini = 0.0\nsamples = 2\nvalue = [3, 0, 0, 0, 0, 0]\nclass = apoptosis", fillcolor="#e58139"] ;
213 -> 214 ;
215 [label="gini = 0.0\nsamples = 1\nvalue = [0, 0, 0, 0, 1, 0]\nclass = G2", fillcolor="#8139e5"] ;
213 -> 215 ;
216 [label="162Dy_LRIG1 <= 0.19\ngini = 0.66\nsamples = 18\nvalue = [6, 15, 2, 0, 8, 0]\nclass = G0", fillcolor="#e1f7c3"] ;
204 -> 216 ;
217 [label="175Lu_CD44 <= 0.58\ngini = 0.54\nsamples = 11\nvalue = [6, 12, 0, 0, 2, 0]\nclass = G0", fillcolor="#d5f4aa"] ;
216 -> 217 ;
218 [label="145Nd_FABP1 <= 0.05\ngini = 0.49\nsamples = 10\nvalue = [4, 12, 0, 0, 2, 0]\nclass = G0", fillcolor="#c7f08e"] ;
217 -> 218 ;
219 [label="gini = 0.0\nsamples = 2\nvalue = [0, 5, 0, 0, 0, 0]\nclass = G0", fillcolor="#9de539"] ;
218 -> 219 ;
220 [label="145Nd_FABP1 <= 0.21\ngini = 0.59\nsamples = 8\nvalue = [4, 7, 0, 0, 2, 0]\nclass = G0", fillcolor="#def6bd"] ;
218 -> 220 ;
221 [label="gini = 0.0\nsamples = 2\nvalue = [3, 0, 0, 0, 0, 0]\nclass = apoptosis", fillcolor="#e58139"] ;
220 -> 221 ;
222 [label="162Dy_LRIG1 <= 0.09\ngini = 0.46\nsamples = 6\nvalue = [1, 7, 0, 0, 2, 0]\nclass = G0", fillcolor="#c2ef83"] ;
220 -> 222 ;
223 [label="171Yb_CLCA1 <= 0.74\ngini = 0.35\nsamples = 5\nvalue = [0, 7, 0, 0, 2, 0]\nclass = G0", fillcolor="#b9ec72"] ;
222 -> 223 ;
224 [label="174Yb_CHGA <= 2.71\ngini = 0.5\nsamples = 2\nvalue = [0, 2, 0, 0, 2, 0]\nclass = G0", fillcolor="#ffffff"] ;
223 -> 224 ;
225 [label="gini = 0.0\nsamples = 1\nvalue = [0, 2, 0, 0, 0, 0]\nclass = G0", fillcolor="#9de539"] ;
224 -> 225 ;
226 [label="gini = 0.0\nsamples = 1\nvalue = [0, 0, 0, 0, 2, 0]\nclass = G2", fillcolor="#8139e5"] ;
224 -> 226 ;
227 [label="gini = 0.0\nsamples = 3\nvalue = [0, 5, 0, 0, 0, 0]\nclass = G0", fillcolor="#9de539"] ;
223 -> 227 ;
228 [label="gini = 0.0\nsamples = 1\nvalue = [1, 0, 0, 0, 0, 0]\nclass = apoptosis", fillcolor="#e58139"] ;
222 -> 228 ;
229 [label="gini = 0.0\nsamples = 1\nvalue = [2, 0, 0, 0, 0, 0]\nclass = apoptosis", fillcolor="#e58139"] ;
217 -> 229 ;
230 [label="144Nd_Lysozyme <= 0.3\ngini = 0.6\nsamples = 7\nvalue = [0, 3, 2, 0, 6, 0]\nclass = G2", fillcolor="#d0b5f5"] ;
216 -> 230 ;
231 [label="gini = 0.0\nsamples = 1\nvalue = [0, 2, 0, 0, 0, 0]\nclass = G0", fillcolor="#9de539"] ;
230 -> 231 ;
232 [label="144Nd_Lysozyme <= 0.56\ngini = 0.49\nsamples = 6\nvalue = [0, 1, 2, 0, 6, 0]\nclass = G2", fillcolor="#b78ef0"] ;
230 -> 232 ;
233 [label="145Nd_FABP1 <= 0.21\ngini = 0.64\nsamples = 3\nvalue = [0, 1, 2, 0, 2, 0]\nclass = G1", fillcolor="#ffffff"] ;
232 -> 233 ;
234 [label="gini = 0.0\nsamples = 1\nvalue = [0, 0, 0, 0, 2, 0]\nclass = G2", fillcolor="#8139e5"] ;
233 -> 234 ;
235 [label="174Yb_CHGA <= 2.57\ngini = 0.44\nsamples = 2\nvalue = [0, 1, 2, 0, 0, 0]\nclass = G1", fillcolor="#9cf2c0"] ;
233 -> 235 ;
236 [label="gini = 0.0\nsamples = 1\nvalue = [0, 0, 2, 0, 0, 0]\nclass = G1", fillcolor="#39e581"] ;
235 -> 236 ;
237 [label="gini = 0.0\nsamples = 1\nvalue = [0, 1, 0, 0, 0, 0]\nclass = G0", fillcolor="#9de539"] ;
235 -> 237 ;
238 [label="gini = 0.0\nsamples = 3\nvalue = [0, 0, 0, 0, 4, 0]\nclass = G2", fillcolor="#8139e5"] ;
232 -> 238 ;
239 [label="173Yb_DCAMKL1 <= 1.61\ngini = 0.53\nsamples = 48\nvalue = [34, 42, 2, 0, 1, 0]\nclass = G0", fillcolor="#eefadc"] ;
107 -> 239 ;
240 [label="gini = 0.0\nsamples = 3\nvalue = [10, 0, 0, 0, 0, 0]\nclass = apoptosis", fillcolor="#e58139"] ;
239 -> 240 ;
241 [label="175Lu_CD44 <= 0.63\ngini = 0.51\nsamples = 45\nvalue = [24, 42, 2, 0, 1, 0]\nclass = G0", fillcolor="#d8f5b0"] ;
239 -> 241 ;
242 [label="162Dy_LRIG1 <= 0.46\ngini = 0.49\nsamples = 43\nvalue = [20, 42, 2, 0, 1, 0]\nclass = G0", fillcolor="#cff29e"] ;
241 -> 242 ;
243 [label="174Yb_CHGA <= 1.02\ngini = 0.45\nsamples = 39\nvalue = [15, 41, 2, 0, 1, 0]\nclass = G0", fillcolor="#c5f08a"] ;
242 -> 243 ;
244 [label="174Yb_CHGA <= 0.03\ngini = 0.23\nsamples = 25\nvalue = [5, 32, 0, 0, 0, 0]\nclass = G0", fillcolor="#ace958"] ;
243 -> 244 ;
245 [label="145Nd_FABP1 <= 0.55\ngini = 0.15\nsamples = 16\nvalue = [2, 23, 0, 0, 0, 0]\nclass = G0", fillcolor="#a6e74a"] ;
244 -> 245 ;
246 [label="gini = 0.0\nsamples = 11\nvalue = [0, 19, 0, 0, 0, 0]\nclass = G0", fillcolor="#9de539"] ;
245 -> 246 ;
247 [label="171Yb_CLCA1 <= 1.47\ngini = 0.44\nsamples = 5\nvalue = [2, 4, 0, 0, 0, 0]\nclass = G0", fillcolor="#cef29c"] ;
245 -> 247 ;
248 [label="gini = 0.0\nsamples = 4\nvalue = [0, 4, 0, 0, 0, 0]\nclass = G0", fillcolor="#9de539"] ;
247 -> 248 ;
249 [label="gini = 0.0\nsamples = 1\nvalue = [2, 0, 0, 0, 0, 0]\nclass = apoptosis", fillcolor="#e58139"] ;
247 -> 249 ;
250 [label="174Yb_CHGA <= 0.13\ngini = 0.38\nsamples = 9\nvalue = [3, 9, 0, 0, 0, 0]\nclass = G0", fillcolor="#beee7b"] ;
244 -> 250 ;
251 [label="gini = 0.0\nsamples = 1\nvalue = [1, 0, 0, 0, 0, 0]\nclass = apoptosis", fillcolor="#e58139"] ;
250 -> 251 ;
252 [label="173Yb_DCAMKL1 <= 1.78\ngini = 0.3\nsamples = 8\nvalue = [2, 9, 0, 0, 0, 0]\nclass = G0", fillcolor="#b3eb65"] ;
250 -> 252 ;
253 [label="gini = 0.0\nsamples = 1\nvalue = [1, 0, 0, 0, 0, 0]\nclass = apoptosis", fillcolor="#e58139"] ;
252 -> 253 ;
254 [label="173Yb_DCAMKL1 <= 2.26\ngini = 0.18\nsamples = 7\nvalue = [1, 9, 0, 0, 0, 0]\nclass = G0", fillcolor="#a8e84f"] ;
252 -> 254 ;
255 [label="gini = 0.0\nsamples = 6\nvalue = [0, 9, 0, 0, 0, 0]\nclass = G0", fillcolor="#9de539"] ;
254 -> 255 ;
256 [label="gini = 0.0\nsamples = 1\nvalue = [1, 0, 0, 0, 0, 0]\nclass = apoptosis", fillcolor="#e58139"] ;
254 -> 256 ;
257 [label="171Yb_CLCA1 <= 1.49\ngini = 0.62\nsamples = 14\nvalue = [10, 9, 2, 0, 1, 0]\nclass = apoptosis", fillcolor="#fdf5f0"] ;
243 -> 257 ;
258 [label="145Nd_FABP1 <= 1.0\ngini = 0.57\nsamples = 11\nvalue = [10, 6, 2, 0, 0, 0]\nclass = apoptosis", fillcolor="#f6d5bd"] ;
257 -> 258 ;
259 [label="144Nd_Lysozyme <= 0.87\ngini = 0.53\nsamples = 10\nvalue = [10, 4, 2, 0, 0, 0]\nclass = apoptosis", fillcolor="#f2c09c"] ;
258 -> 259 ;
260 [label="174Yb_CHGA <= 1.31\ngini = 0.64\nsamples = 7\nvalue = [4, 4, 2, 0, 0, 0]\nclass = apoptosis", fillcolor="#ffffff"] ;
259 -> 260 ;
261 [label="gini = 0.0\nsamples = 2\nvalue = [4, 0, 0, 0, 0, 0]\nclass = apoptosis", fillcolor="#e58139"] ;
260 -> 261 ;
262 [label="171Yb_CLCA1 <= 0.38\ngini = 0.44\nsamples = 5\nvalue = [0, 4, 2, 0, 0, 0]\nclass = G0", fillcolor="#cef29c"] ;
260 -> 262 ;
263 [label="gini = 0.0\nsamples = 3\nvalue = [0, 4, 0, 0, 0, 0]\nclass = G0", fillcolor="#9de539"] ;
262 -> 263 ;
264 [label="gini = 0.0\nsamples = 2\nvalue = [0, 0, 2, 0, 0, 0]\nclass = G1", fillcolor="#39e581"] ;
262 -> 264 ;
265 [label="gini = 0.0\nsamples = 3\nvalue = [6, 0, 0, 0, 0, 0]\nclass = apoptosis", fillcolor="#e58139"] ;
259 -> 265 ;
266 [label="gini = 0.0\nsamples = 1\nvalue = [0, 2, 0, 0, 0, 0]\nclass = G0", fillcolor="#9de539"] ;
258 -> 266 ;
267 [label="174Yb_CHGA <= 2.27\ngini = 0.38\nsamples = 3\nvalue = [0, 3, 0, 0, 1, 0]\nclass = G0", fillcolor="#beee7b"] ;
257 -> 267 ;
268 [label="gini = 0.0\nsamples = 2\nvalue = [0, 3, 0, 0, 0, 0]\nclass = G0", fillcolor="#9de539"] ;
267 -> 268 ;
269 [label="gini = 0.0\nsamples = 1\nvalue = [0, 0, 0, 0, 1, 0]\nclass = G2", fillcolor="#8139e5"] ;
267 -> 269 ;
270 [label="162Dy_LRIG1 <= 0.53\ngini = 0.28\nsamples = 4\nvalue = [5, 1, 0, 0, 0, 0]\nclass = apoptosis", fillcolor="#ea9a61"] ;
242 -> 270 ;
271 [label="gini = 0.0\nsamples = 3\nvalue = [5, 0, 0, 0, 0, 0]\nclass = apoptosis", fillcolor="#e58139"] ;
270 -> 271 ;
272 [label="gini = 0.0\nsamples = 1\nvalue = [0, 1, 0, 0, 0, 0]\nclass = G0", fillcolor="#9de539"] ;
270 -> 272 ;
273 [label="gini = 0.0\nsamples = 2\nvalue = [4, 0, 0, 0, 0, 0]\nclass = apoptosis", fillcolor="#e58139"] ;
241 -> 273 ;
274 [label="162Dy_LRIG1 <= 0.02\ngini = 0.53\nsamples = 34\nvalue = [31, 19, 0, 0, 3, 0]\nclass = apoptosis", fillcolor="#f6d3b9"] ;
106 -> 274 ;
275 [label="144Nd_Lysozyme <= 0.15\ngini = 0.36\nsamples = 16\nvalue = [21, 5, 0, 0, 1, 0]\nclass = apoptosis", fillcolor="#eca36f"] ;
274 -> 275 ;
276 [label="144Nd_Lysozyme <= 0.05\ngini = 0.61\nsamples = 5\nvalue = [3, 3, 0, 0, 1, 0]\nclass = apoptosis", fillcolor="#ffffff"] ;
275 -> 276 ;
277 [label="gini = 0.0\nsamples = 2\nvalue = [3, 0, 0, 0, 0, 0]\nclass = apoptosis", fillcolor="#e58139"] ;
276 -> 277 ;
278 [label="144Nd_Lysozyme <= 0.13\ngini = 0.38\nsamples = 3\nvalue = [0, 3, 0, 0, 1, 0]\nclass = G0", fillcolor="#beee7b"] ;
276 -> 278 ;
279 [label="gini = 0.0\nsamples = 2\nvalue = [0, 3, 0, 0, 0, 0]\nclass = G0", fillcolor="#9de539"] ;
278 -> 279 ;
280 [label="gini = 0.0\nsamples = 1\nvalue = [0, 0, 0, 0, 1, 0]\nclass = G2", fillcolor="#8139e5"] ;
278 -> 280 ;
281 [label="175Lu_CD44 <= 0.1\ngini = 0.18\nsamples = 11\nvalue = [18, 2, 0, 0, 0, 0]\nclass = apoptosis", fillcolor="#e88f4f"] ;
275 -> 281 ;
282 [label="145Nd_FABP1 <= 0.96\ngini = 0.28\nsamples = 7\nvalue = [10, 2, 0, 0, 0, 0]\nclass = apoptosis", fillcolor="#ea9a61"] ;
281 -> 282 ;
283 [label="gini = 0.0\nsamples = 5\nvalue = [9, 0, 0, 0, 0, 0]\nclass = apoptosis", fillcolor="#e58139"] ;
282 -> 283 ;
284 [label="145Nd_FABP1 <= 1.07\ngini = 0.44\nsamples = 2\nvalue = [1, 2, 0, 0, 0, 0]\nclass = G0", fillcolor="#cef29c"] ;
282 -> 284 ;
285 [label="gini = 0.0\nsamples = 1\nvalue = [0, 2, 0, 0, 0, 0]\nclass = G0", fillcolor="#9de539"] ;
284 -> 285 ;
286 [label="gini = 0.0\nsamples = 1\nvalue = [1, 0, 0, 0, 0, 0]\nclass = apoptosis", fillcolor="#e58139"] ;
284 -> 286 ;
287 [label="gini = 0.0\nsamples = 4\nvalue = [8, 0, 0, 0, 0, 0]\nclass = apoptosis", fillcolor="#e58139"] ;
281 -> 287 ;
288 [label="171Yb_CLCA1 <= 2.54\ngini = 0.56\nsamples = 18\nvalue = [10, 14, 0, 0, 2, 0]\nclass = G0", fillcolor="#e6f8ce"] ;
274 -> 288 ;
289 [label="gini = 0.0\nsamples = 1\nvalue = [3, 0, 0, 0, 0, 0]\nclass = apoptosis", fillcolor="#e58139"] ;
288 -> 289 ;
290 [label="171Yb_CLCA1 <= 3.02\ngini = 0.53\nsamples = 17\nvalue = [7, 14, 0, 0, 2, 0]\nclass = G0", fillcolor="#d4f4a8"] ;
288 -> 290 ;
291 [label="174Yb_CHGA <= 0.11\ngini = 0.18\nsamples = 7\nvalue = [1, 9, 0, 0, 0, 0]\nclass = G0", fillcolor="#a8e84f"] ;
290 -> 291 ;
292 [label="144Nd_Lysozyme <= 0.44\ngini = 0.28\nsamples = 4\nvalue = [1, 5, 0, 0, 0, 0]\nclass = G0", fillcolor="#b1ea61"] ;
291 -> 292 ;
293 [label="gini = 0.0\nsamples = 3\nvalue = [0, 5, 0, 0, 0, 0]\nclass = G0", fillcolor="#9de539"] ;
292 -> 293 ;
294 [label="gini = 0.0\nsamples = 1\nvalue = [1, 0, 0, 0, 0, 0]\nclass = apoptosis", fillcolor="#e58139"] ;
292 -> 294 ;
295 [label="gini = 0.0\nsamples = 3\nvalue = [0, 4, 0, 0, 0, 0]\nclass = G0", fillcolor="#9de539"] ;
291 -> 295 ;
296 [label="171Yb_CLCA1 <= 3.09\ngini = 0.62\nsamples = 10\nvalue = [6, 5, 0, 0, 2, 0]\nclass = apoptosis", fillcolor="#fcefe6"] ;
290 -> 296 ;
297 [label="gini = 0.0\nsamples = 2\nvalue = [3, 0, 0, 0, 0, 0]\nclass = apoptosis", fillcolor="#e58139"] ;
296 -> 297 ;
298 [label="174Yb_CHGA <= 2.08\ngini = 0.62\nsamples = 8\nvalue = [3, 5, 0, 0, 2, 0]\nclass = G0", fillcolor="#e3f8c6"] ;
296 -> 298 ;
299 [label="173Yb_DCAMKL1 <= 0.42\ngini = 0.53\nsamples = 6\nvalue = [1, 5, 0, 0, 2, 0]\nclass = G0", fillcolor="#cef29c"] ;
298 -> 299 ;
300 [label="162Dy_LRIG1 <= 0.2\ngini = 0.28\nsamples = 4\nvalue = [0, 5, 0, 0, 1, 0]\nclass = G0", fillcolor="#b1ea61"] ;
299 -> 300 ;
301 [label="gini = 0.0\nsamples = 2\nvalue = [0, 3, 0, 0, 0, 0]\nclass = G0", fillcolor="#9de539"] ;
300 -> 301 ;
302 [label="144Nd_Lysozyme <= 0.48\ngini = 0.44\nsamples = 2\nvalue = [0, 2, 0, 0, 1, 0]\nclass = G0", fillcolor="#cef29c"] ;
300 -> 302 ;
303 [label="gini = 0.0\nsamples = 1\nvalue = [0, 0, 0, 0, 1, 0]\nclass = G2", fillcolor="#8139e5"] ;
302 -> 303 ;
304 [label="gini = 0.0\nsamples = 1\nvalue = [0, 2, 0, 0, 0, 0]\nclass = G0", fillcolor="#9de539"] ;
302 -> 304 ;
305 [label="171Yb_CLCA1 <= 3.36\ngini = 0.5\nsamples = 2\nvalue = [1, 0, 0, 0, 1, 0]\nclass = apoptosis", fillcolor="#ffffff"] ;
299 -> 305 ;
306 [label="gini = 0.0\nsamples = 1\nvalue = [0, 0, 0, 0, 1, 0]\nclass = G2", fillcolor="#8139e5"] ;
305 -> 306 ;
307 [label="gini = 0.0\nsamples = 1\nvalue = [1, 0, 0, 0, 0, 0]\nclass = apoptosis", fillcolor="#e58139"] ;
305 -> 307 ;
308 [label="gini = 0.0\nsamples = 2\nvalue = [2, 0, 0, 0, 0, 0]\nclass = apoptosis", fillcolor="#e58139"] ;
298 -> 308 ;
309 [label="162Dy_LRIG1 <= 0.13\ngini = 0.22\nsamples = 30\nvalue = [4, 36, 0, 0, 1, 0]\nclass = G0", fillcolor="#aae954"] ;
5 -> 309 ;
310 [label="145Nd_FABP1 <= 0.73\ngini = 0.07\nsamples = 18\nvalue = [1, 25, 0, 0, 0, 0]\nclass = G0", fillcolor="#a1e641"] ;
309 -> 310 ;
311 [label="gini = 0.0\nsamples = 15\nvalue = [0, 20, 0, 0, 0, 0]\nclass = G0", fillcolor="#9de539"] ;
310 -> 311 ;
312 [label="144Nd_Lysozyme <= 0.47\ngini = 0.28\nsamples = 3\nvalue = [1, 5, 0, 0, 0, 0]\nclass = G0", fillcolor="#b1ea61"] ;
310 -> 312 ;
313 [label="gini = 0.0\nsamples = 2\nvalue = [0, 5, 0, 0, 0, 0]\nclass = G0", fillcolor="#9de539"] ;
312 -> 313 ;
314 [label="gini = 0.0\nsamples = 1\nvalue = [1, 0, 0, 0, 0, 0]\nclass = apoptosis", fillcolor="#e58139"] ;
312 -> 314 ;
315 [label="171Yb_CLCA1 <= 2.04\ngini = 0.42\nsamples = 12\nvalue = [3, 11, 0, 0, 1, 0]\nclass = G0", fillcolor="#beee7b"] ;
309 -> 315 ;
316 [label="175Lu_CD44 <= 0.35\ngini = 0.29\nsamples = 9\nvalue = [1, 10, 0, 0, 1, 0]\nclass = G0", fillcolor="#afea5d"] ;
315 -> 316 ;
317 [label="gini = 0.0\nsamples = 7\nvalue = [0, 10, 0, 0, 0, 0]\nclass = G0", fillcolor="#9de539"] ;
316 -> 317 ;
318 [label="175Lu_CD44 <= 0.9\ngini = 0.5\nsamples = 2\nvalue = [1, 0, 0, 0, 1, 0]\nclass = apoptosis", fillcolor="#ffffff"] ;
316 -> 318 ;
319 [label="gini = 0.0\nsamples = 1\nvalue = [0, 0, 0, 0, 1, 0]\nclass = G2", fillcolor="#8139e5"] ;
318 -> 319 ;
320 [label="gini = 0.0\nsamples = 1\nvalue = [1, 0, 0, 0, 0, 0]\nclass = apoptosis", fillcolor="#e58139"] ;
318 -> 320 ;
321 [label="171Yb_CLCA1 <= 2.53\ngini = 0.44\nsamples = 3\nvalue = [2, 1, 0, 0, 0, 0]\nclass = apoptosis", fillcolor="#f2c09c"] ;
315 -> 321 ;
322 [label="gini = 0.0\nsamples = 2\nvalue = [2, 0, 0, 0, 0, 0]\nclass = apoptosis", fillcolor="#e58139"] ;
321 -> 322 ;
323 [label="gini = 0.0\nsamples = 1\nvalue = [0, 1, 0, 0, 0, 0]\nclass = G0", fillcolor="#9de539"] ;
321 -> 323 ;
324 [label="171Yb_CLCA1 <= 1.14\ngini = 0.57\nsamples = 82\nvalue = [52, 65, 7, 0, 2, 2]\nclass = G0", fillcolor="#eefbdd"] ;
4 -> 324 ;
325 [label="145Nd_FABP1 <= 1.22\ngini = 0.5\nsamples = 47\nvalue = [16, 48, 5, 0, 1, 2]\nclass = G0", fillcolor="#c7f08e"] ;
324 -> 325 ;
326 [label="174Yb_CHGA <= 2.35\ngini = 0.41\nsamples = 6\nvalue = [6, 0, 1, 0, 1, 0]\nclass = apoptosis", fillcolor="#eca572"] ;
325 -> 326 ;
327 [label="gini = 0.0\nsamples = 4\nvalue = [6, 0, 0, 0, 0, 0]\nclass = apoptosis", fillcolor="#e58139"] ;
326 -> 327 ;
328 [label="173Yb_DCAMKL1 <= 0.68\ngini = 0.5\nsamples = 2\nvalue = [0, 0, 1, 0, 1, 0]\nclass = G1", fillcolor="#ffffff"] ;
326 -> 328 ;
329 [label="gini = 0.0\nsamples = 1\nvalue = [0, 0, 1, 0, 0, 0]\nclass = G1", fillcolor="#39e581"] ;
328 -> 329 ;
330 [label="gini = 0.0\nsamples = 1\nvalue = [0, 0, 0, 0, 1, 0]\nclass = G2", fillcolor="#8139e5"] ;
328 -> 330 ;
331 [label="173Yb_DCAMKL1 <= 4.05\ngini = 0.41\nsamples = 41\nvalue = [10, 48, 4, 0, 0, 2]\nclass = G0", fillcolor="#baed74"] ;
325 -> 331 ;
332 [label="144Nd_Lysozyme <= 0.08\ngini = 0.38\nsamples = 40\nvalue = [8, 48, 4, 0, 0, 2]\nclass = G0", fillcolor="#b6ec6c"] ;
331 -> 332 ;
333 [label="145Nd_FABP1 <= 1.41\ngini = 0.51\nsamples = 22\nvalue = [6, 22, 3, 0, 0, 2]\nclass = G0", fillcolor="#c5f08a"] ;
332 -> 333 ;
334 [label="174Yb_CHGA <= 2.17\ngini = 0.4\nsamples = 13\nvalue = [0, 15, 3, 0, 0, 2]\nclass = G0", fillcolor="#baed73"] ;
333 -> 334 ;
335 [label="171Yb_CLCA1 <= 0.04\ngini = 0.3\nsamples = 10\nvalue = [0, 14, 1, 0, 0, 2]\nclass = G0", fillcolor="#b1ea61"] ;
334 -> 335 ;
336 [label="173Yb_DCAMKL1 <= 0.66\ngini = 0.4\nsamples = 8\nvalue = [0, 9, 1, 0, 0, 2]\nclass = G0", fillcolor="#baed74"] ;
335 -> 336 ;
337 [label="144Nd_Lysozyme <= 0.01\ngini = 0.62\nsamples = 3\nvalue = [0, 1, 1, 0, 0, 2]\nclass = M", fillcolor="#f6bdde"] ;
336 -> 337 ;
338 [label="174Yb_CHGA <= 1.05\ngini = 0.44\nsamples = 2\nvalue = [0, 1, 0, 0, 0, 2]\nclass = M", fillcolor="#f29cce"] ;
337 -> 338 ;
339 [label="gini = 0.0\nsamples = 1\nvalue = [0, 0, 0, 0, 0, 2]\nclass = M", fillcolor="#e5399d"] ;
338 -> 339 ;
340 [label="gini = 0.0\nsamples = 1\nvalue = [0, 1, 0, 0, 0, 0]\nclass = G0", fillcolor="#9de539"] ;
338 -> 340 ;
341 [label="gini = 0.0\nsamples = 1\nvalue = [0, 0, 1, 0, 0, 0]\nclass = G1", fillcolor="#39e581"] ;
337 -> 341 ;
342 [label="gini = 0.0\nsamples = 5\nvalue = [0, 8, 0, 0, 0, 0]\nclass = G0", fillcolor="#9de539"] ;
336 -> 342 ;
343 [label="gini = 0.0\nsamples = 2\nvalue = [0, 5, 0, 0, 0, 0]\nclass = G0", fillcolor="#9de539"] ;
335 -> 343 ;
344 [label="162Dy_LRIG1 <= 0.23\ngini = 0.44\nsamples = 3\nvalue = [0, 1, 2, 0, 0, 0]\nclass = G1", fillcolor="#9cf2c0"] ;
334 -> 344 ;
345 [label="145Nd_FABP1 <= 1.3\ngini = 0.5\nsamples = 2\nvalue = [0, 1, 1, 0, 0, 0]\nclass = G0", fillcolor="#ffffff"] ;
344 -> 345 ;
346 [label="gini = 0.0\nsamples = 1\nvalue = [0, 0, 1, 0, 0, 0]\nclass = G1", fillcolor="#39e581"] ;
345 -> 346 ;
347 [label="gini = 0.0\nsamples = 1\nvalue = [0, 1, 0, 0, 0, 0]\nclass = G0", fillcolor="#9de539"] ;
345 -> 347 ;
348 [label="gini = 0.0\nsamples = 1\nvalue = [0, 0, 1, 0, 0, 0]\nclass = G1", fillcolor="#39e581"] ;
344 -> 348 ;
349 [label="171Yb_CLCA1 <= 0.32\ngini = 0.5\nsamples = 9\nvalue = [6, 7, 0, 0, 0, 0]\nclass = G0", fillcolor="#f1fbe3"] ;
333 -> 349 ;
350 [label="171Yb_CLCA1 <= 0.12\ngini = 0.42\nsamples = 8\nvalue = [3, 7, 0, 0, 0, 0]\nclass = G0", fillcolor="#c7f08e"] ;
349 -> 350 ;
351 [label="162Dy_LRIG1 <= 0.05\ngini = 0.44\nsamples = 7\nvalue = [3, 6, 0, 0, 0, 0]\nclass = G0", fillcolor="#cef29c"] ;
350 -> 351 ;
352 [label="145Nd_FABP1 <= 1.5\ngini = 0.48\nsamples = 3\nvalue = [3, 2, 0, 0, 0, 0]\nclass = apoptosis", fillcolor="#f6d5bd"] ;
351 -> 352 ;
353 [label="gini = 0.0\nsamples = 2\nvalue = [3, 0, 0, 0, 0, 0]\nclass = apoptosis", fillcolor="#e58139"] ;
352 -> 353 ;
354 [label="gini = 0.0\nsamples = 1\nvalue = [0, 2, 0, 0, 0, 0]\nclass = G0", fillcolor="#9de539"] ;
352 -> 354 ;
355 [label="gini = 0.0\nsamples = 4\nvalue = [0, 4, 0, 0, 0, 0]\nclass = G0", fillcolor="#9de539"] ;
351 -> 355 ;
356 [label="gini = 0.0\nsamples = 1\nvalue = [0, 1, 0, 0, 0, 0]\nclass = G0", fillcolor="#9de539"] ;
350 -> 356 ;
357 [label="gini = 0.0\nsamples = 1\nvalue = [3, 0, 0, 0, 0, 0]\nclass = apoptosis", fillcolor="#e58139"] ;
349 -> 357 ;
358 [label="173Yb_DCAMKL1 <= 0.58\ngini = 0.19\nsamples = 18\nvalue = [2, 26, 1, 0, 0, 0]\nclass = G0", fillcolor="#a8e84f"] ;
332 -> 358 ;
359 [label="145Nd_FABP1 <= 1.29\ngini = 0.4\nsamples = 9\nvalue = [2, 9, 1, 0, 0, 0]\nclass = G0", fillcolor="#baed74"] ;
358 -> 359 ;
360 [label="gini = 0.0\nsamples = 1\nvalue = [1, 0, 0, 0, 0, 0]\nclass = apoptosis", fillcolor="#e58139"] ;
359 -> 360 ;
361 [label="144Nd_Lysozyme <= 0.22\ngini = 0.31\nsamples = 8\nvalue = [1, 9, 1, 0, 0, 0]\nclass = G0", fillcolor="#b1ea61"] ;
359 -> 361 ;
362 [label="144Nd_Lysozyme <= 0.13\ngini = 0.5\nsamples = 2\nvalue = [0, 1, 1, 0, 0, 0]\nclass = G0", fillcolor="#ffffff"] ;
361 -> 362 ;
363 [label="gini = 0.0\nsamples = 1\nvalue = [0, 1, 0, 0, 0, 0]\nclass = G0", fillcolor="#9de539"] ;
362 -> 363 ;
364 [label="gini = 0.0\nsamples = 1\nvalue = [0, 0, 1, 0, 0, 0]\nclass = G1", fillcolor="#39e581"] ;
362 -> 364 ;
365 [label="162Dy_LRIG1 <= 0.3\ngini = 0.2\nsamples = 6\nvalue = [1, 8, 0, 0, 0, 0]\nclass = G0", fillcolor="#a9e852"] ;
361 -> 365 ;
366 [label="gini = 0.0\nsamples = 4\nvalue = [0, 7, 0, 0, 0, 0]\nclass = G0", fillcolor="#9de539"] ;
365 -> 366 ;
367 [label="162Dy_LRIG1 <= 0.41\ngini = 0.5\nsamples = 2\nvalue = [1, 1, 0, 0, 0, 0]\nclass = apoptosis", fillcolor="#ffffff"] ;
365 -> 367 ;
368 [label="gini = 0.0\nsamples = 1\nvalue = [1, 0, 0, 0, 0, 0]\nclass = apoptosis", fillcolor="#e58139"] ;
367 -> 368 ;
369 [label="gini = 0.0\nsamples = 1\nvalue = [0, 1, 0, 0, 0, 0]\nclass = G0", fillcolor="#9de539"] ;
367 -> 369 ;
370 [label="gini = 0.0\nsamples = 9\nvalue = [0, 17, 0, 0, 0, 0]\nclass = G0", fillcolor="#9de539"] ;
358 -> 370 ;
371 [label="gini = 0.0\nsamples = 1\nvalue = [2, 0, 0, 0, 0, 0]\nclass = apoptosis", fillcolor="#e58139"] ;
331 -> 371 ;
372 [label="175Lu_CD44 <= 0.65\ngini = 0.49\nsamples = 35\nvalue = [36, 17, 2, 0, 1, 0]\nclass = apoptosis", fillcolor="#f2c29f"] ;
324 -> 372 ;
373 [label="145Nd_FABP1 <= 1.44\ngini = 0.43\nsamples = 29\nvalue = [34, 12, 2, 0, 0, 0]\nclass = apoptosis", fillcolor="#efb286"] ;
372 -> 373 ;
374 [label="162Dy_LRIG1 <= 0.33\ngini = 0.32\nsamples = 21\nvalue = [30, 5, 2, 0, 0, 0]\nclass = apoptosis", fillcolor="#eb9d64"] ;
373 -> 374 ;
375 [label="162Dy_LRIG1 <= 0.32\ngini = 0.41\nsamples = 15\nvalue = [20, 5, 2, 0, 0, 0]\nclass = apoptosis", fillcolor="#eda978"] ;
374 -> 375 ;
376 [label="175Lu_CD44 <= 0.06\ngini = 0.38\nsamples = 14\nvalue = [20, 4, 2, 0, 0, 0]\nclass = apoptosis", fillcolor="#eca36f"] ;
375 -> 376 ;
377 [label="173Yb_DCAMKL1 <= 0.94\ngini = 0.48\nsamples = 11\nvalue = [13, 4, 2, 0, 0, 0]\nclass = apoptosis", fillcolor="#efb388"] ;
376 -> 377 ;
378 [label="145Nd_FABP1 <= 1.31\ngini = 0.57\nsamples = 8\nvalue = [8, 4, 2, 0, 0, 0]\nclass = apoptosis", fillcolor="#f5cdb0"] ;
377 -> 378 ;
379 [label="171Yb_CLCA1 <= 2.0\ngini = 0.32\nsamples = 6\nvalue = [8, 0, 2, 0, 0, 0]\nclass = apoptosis", fillcolor="#eca06a"] ;
378 -> 379 ;
380 [label="145Nd_FABP1 <= 1.28\ngini = 0.44\nsamples = 2\nvalue = [1, 0, 2, 0, 0, 0]\nclass = G1", fillcolor="#9cf2c0"] ;
379 -> 380 ;
381 [label="gini = 0.0\nsamples = 1\nvalue = [0, 0, 2, 0, 0, 0]\nclass = G1", fillcolor="#39e581"] ;
380 -> 381 ;
382 [label="gini = 0.0\nsamples = 1\nvalue = [1, 0, 0, 0, 0, 0]\nclass = apoptosis", fillcolor="#e58139"] ;
380 -> 382 ;
383 [label="gini = 0.0\nsamples = 4\nvalue = [7, 0, 0, 0, 0, 0]\nclass = apoptosis", fillcolor="#e58139"] ;
379 -> 383 ;
384 [label="gini = 0.0\nsamples = 2\nvalue = [0, 4, 0, 0, 0, 0]\nclass = G0", fillcolor="#9de539"] ;
378 -> 384 ;
385 [label="gini = 0.0\nsamples = 3\nvalue = [5, 0, 0, 0, 0, 0]\nclass = apoptosis", fillcolor="#e58139"] ;
377 -> 385 ;
386 [label="gini = 0.0\nsamples = 3\nvalue = [7, 0, 0, 0, 0, 0]\nclass = apoptosis", fillcolor="#e58139"] ;
376 -> 386 ;
387 [label="gini = 0.0\nsamples = 1\nvalue = [0, 1, 0, 0, 0, 0]\nclass = G0", fillcolor="#9de539"] ;
375 -> 387 ;
388 [label="gini = 0.0\nsamples = 6\nvalue = [10, 0, 0, 0, 0, 0]\nclass = apoptosis", fillcolor="#e58139"] ;
374 -> 388 ;
389 [label="162Dy_LRIG1 <= 0.24\ngini = 0.46\nsamples = 8\nvalue = [4, 7, 0, 0, 0, 0]\nclass = G0", fillcolor="#d5f4aa"] ;
373 -> 389 ;
390 [label="171Yb_CLCA1 <= 1.76\ngini = 0.35\nsamples = 7\nvalue = [2, 7, 0, 0, 0, 0]\nclass = G0", fillcolor="#b9ec72"] ;
389 -> 390 ;
391 [label="gini = 0.0\nsamples = 5\nvalue = [0, 7, 0, 0, 0, 0]\nclass = G0", fillcolor="#9de539"] ;
390 -> 391 ;
392 [label="gini = 0.0\nsamples = 2\nvalue = [2, 0, 0, 0, 0, 0]\nclass = apoptosis", fillcolor="#e58139"] ;
390 -> 392 ;
393 [label="gini = 0.0\nsamples = 1\nvalue = [2, 0, 0, 0, 0, 0]\nclass = apoptosis", fillcolor="#e58139"] ;
389 -> 393 ;
394 [label="162Dy_LRIG1 <= 0.15\ngini = 0.53\nsamples = 6\nvalue = [2, 5, 0, 0, 1, 0]\nclass = G0", fillcolor="#cef29c"] ;
372 -> 394 ;
395 [label="gini = 0.0\nsamples = 3\nvalue = [0, 4, 0, 0, 0, 0]\nclass = G0", fillcolor="#9de539"] ;
394 -> 395 ;
396 [label="145Nd_FABP1 <= 1.25\ngini = 0.62\nsamples = 3\nvalue = [2, 1, 0, 0, 1, 0]\nclass = apoptosis", fillcolor="#f6d5bd"] ;
394 -> 396 ;
397 [label="gini = 0.0\nsamples = 1\nvalue = [2, 0, 0, 0, 0, 0]\nclass = apoptosis", fillcolor="#e58139"] ;
396 -> 397 ;
398 [label="171Yb_CLCA1 <= 1.7\ngini = 0.5\nsamples = 2\nvalue = [0, 1, 0, 0, 1, 0]\nclass = G0", fillcolor="#ffffff"] ;
396 -> 398 ;
399 [label="gini = 0.0\nsamples = 1\nvalue = [0, 1, 0, 0, 0, 0]\nclass = G0", fillcolor="#9de539"] ;
398 -> 399 ;
400 [label="gini = 0.0\nsamples = 1\nvalue = [0, 0, 0, 0, 1, 0]\nclass = G2", fillcolor="#8139e5"] ;
398 -> 400 ;
401 [label="174Yb_CHGA <= 1.15\ngini = 0.71\nsamples = 204\nvalue = [74, 126, 37, 3, 74, 0]\nclass = G0", fillcolor="#eaf9d4"] ;
3 -> 401 ;
402 [label="171Yb_CLCA1 <= 2.45\ngini = 0.59\nsamples = 117\nvalue = [58, 106, 7, 3, 16, 0]\nclass = G0", fillcolor="#dbf6b7"] ;
401 -> 402 ;
403 [label="144Nd_Lysozyme <= 0.21\ngini = 0.58\nsamples = 96\nvalue = [39, 91, 7, 3, 15, 0]\nclass = G0", fillcolor="#d3f3a6"] ;
402 -> 403 ;
404 [label="162Dy_LRIG1 <= 0.63\ngini = 0.34\nsamples = 40\nvalue = [13, 56, 0, 0, 2, 0]\nclass = G0", fillcolor="#b6ec6c"] ;
403 -> 404 ;
405 [label="171Yb_CLCA1 <= 1.64\ngini = 0.5\nsamples = 11\nvalue = [8, 9, 0, 0, 0, 0]\nclass = G0", fillcolor="#f4fce9"] ;
404 -> 405 ;
406 [label="171Yb_CLCA1 <= 0.55\ngini = 0.46\nsamples = 10\nvalue = [5, 9, 0, 0, 0, 0]\nclass = G0", fillcolor="#d3f3a7"] ;
405 -> 406 ;
407 [label="162Dy_LRIG1 <= 0.6\ngini = 0.49\nsamples = 8\nvalue = [5, 4, 0, 0, 0, 0]\nclass = apoptosis", fillcolor="#fae6d7"] ;
406 -> 407 ;
408 [label="gini = 0.0\nsamples = 3\nvalue = [3, 0, 0, 0, 0, 0]\nclass = apoptosis", fillcolor="#e58139"] ;
407 -> 408 ;
409 [label="145Nd_FABP1 <= 0.24\ngini = 0.44\nsamples = 5\nvalue = [2, 4, 0, 0, 0, 0]\nclass = G0", fillcolor="#cef29c"] ;
407 -> 409 ;
410 [label="gini = 0.0\nsamples = 1\nvalue = [2, 0, 0, 0, 0, 0]\nclass = apoptosis", fillcolor="#e58139"] ;
409 -> 410 ;
411 [label="gini = 0.0\nsamples = 4\nvalue = [0, 4, 0, 0, 0, 0]\nclass = G0", fillcolor="#9de539"] ;
409 -> 411 ;
412 [label="gini = 0.0\nsamples = 2\nvalue = [0, 5, 0, 0, 0, 0]\nclass = G0", fillcolor="#9de539"] ;
406 -> 412 ;
413 [label="gini = 0.0\nsamples = 1\nvalue = [3, 0, 0, 0, 0, 0]\nclass = apoptosis", fillcolor="#e58139"] ;
405 -> 413 ;
414 [label="162Dy_LRIG1 <= 0.86\ngini = 0.23\nsamples = 29\nvalue = [5, 47, 0, 0, 2, 0]\nclass = G0", fillcolor="#abe955"] ;
404 -> 414 ;
415 [label="162Dy_LRIG1 <= 0.78\ngini = 0.1\nsamples = 16\nvalue = [0, 34, 0, 0, 2, 0]\nclass = G0", fillcolor="#a3e745"] ;
414 -> 415 ;
416 [label="gini = 0.0\nsamples = 9\nvalue = [0, 23, 0, 0, 0, 0]\nclass = G0", fillcolor="#9de539"] ;
415 -> 416 ;
417 [label="173Yb_DCAMKL1 <= 1.95\ngini = 0.26\nsamples = 7\nvalue = [0, 11, 0, 0, 2, 0]\nclass = G0", fillcolor="#afea5d"] ;
415 -> 417 ;
418 [label="gini = 0.0\nsamples = 4\nvalue = [0, 8, 0, 0, 0, 0]\nclass = G0", fillcolor="#9de539"] ;
417 -> 418 ;
419 [label="175Lu_CD44 <= 0.58\ngini = 0.48\nsamples = 3\nvalue = [0, 3, 0, 0, 2, 0]\nclass = G0", fillcolor="#def6bd"] ;
417 -> 419 ;
420 [label="gini = 0.0\nsamples = 2\nvalue = [0, 3, 0, 0, 0, 0]\nclass = G0", fillcolor="#9de539"] ;
419 -> 420 ;
421 [label="gini = 0.0\nsamples = 1\nvalue = [0, 0, 0, 0, 2, 0]\nclass = G2", fillcolor="#8139e5"] ;
419 -> 421 ;
422 [label="173Yb_DCAMKL1 <= 1.77\ngini = 0.4\nsamples = 13\nvalue = [5, 13, 0, 0, 0, 0]\nclass = G0", fillcolor="#c3ef85"] ;
414 -> 422 ;
423 [label="162Dy_LRIG1 <= 0.89\ngini = 0.47\nsamples = 9\nvalue = [5, 8, 0, 0, 0, 0]\nclass = G0", fillcolor="#daf5b5"] ;
422 -> 423 ;
424 [label="gini = 0.0\nsamples = 1\nvalue = [2, 0, 0, 0, 0, 0]\nclass = apoptosis", fillcolor="#e58139"] ;
423 -> 424 ;
425 [label="173Yb_DCAMKL1 <= 1.72\ngini = 0.4\nsamples = 8\nvalue = [3, 8, 0, 0, 0, 0]\nclass = G0", fillcolor="#c2ef83"] ;
423 -> 425 ;
426 [label="173Yb_DCAMKL1 <= 1.38\ngini = 0.32\nsamples = 7\nvalue = [2, 8, 0, 0, 0, 0]\nclass = G0", fillcolor="#b6ec6a"] ;
425 -> 426 ;
427 [label="145Nd_FABP1 <= 0.07\ngini = 0.38\nsamples = 5\nvalue = [2, 6, 0, 0, 0, 0]\nclass = G0", fillcolor="#beee7b"] ;
426 -> 427 ;
428 [label="gini = 0.0\nsamples = 1\nvalue = [1, 0, 0, 0, 0, 0]\nclass = apoptosis", fillcolor="#e58139"] ;
427 -> 428 ;
429 [label="145Nd_FABP1 <= 1.28\ngini = 0.24\nsamples = 4\nvalue = [1, 6, 0, 0, 0, 0]\nclass = G0", fillcolor="#ade95a"] ;
427 -> 429 ;
430 [label="gini = 0.0\nsamples = 3\nvalue = [0, 6, 0, 0, 0, 0]\nclass = G0", fillcolor="#9de539"] ;
429 -> 430 ;
431 [label="gini = 0.0\nsamples = 1\nvalue = [1, 0, 0, 0, 0, 0]\nclass = apoptosis", fillcolor="#e58139"] ;
429 -> 431 ;
432 [label="gini = 0.0\nsamples = 2\nvalue = [0, 2, 0, 0, 0, 0]\nclass = G0", fillcolor="#9de539"] ;
426 -> 432 ;
433 [label="gini = 0.0\nsamples = 1\nvalue = [1, 0, 0, 0, 0, 0]\nclass = apoptosis", fillcolor="#e58139"] ;
425 -> 433 ;
434 [label="gini = 0.0\nsamples = 4\nvalue = [0, 5, 0, 0, 0, 0]\nclass = G0", fillcolor="#9de539"] ;
422 -> 434 ;
435 [label="174Yb_CHGA <= 0.19\ngini = 0.7\nsamples = 56\nvalue = [26, 35, 7, 3, 13, 0]\nclass = G0", fillcolor="#f0fbe0"] ;
403 -> 435 ;
436 [label="175Lu_CD44 <= 0.53\ngini = 0.6\nsamples = 39\nvalue = [15, 35, 5, 1, 5, 0]\nclass = G0", fillcolor="#d4f4a9"] ;
435 -> 436 ;
437 [label="171Yb_CLCA1 <= 1.26\ngini = 0.63\nsamples = 34\nvalue = [15, 27, 4, 1, 5, 0]\nclass = G0", fillcolor="#dff7bf"] ;
436 -> 437 ;
438 [label="171Yb_CLCA1 <= 0.95\ngini = 0.69\nsamples = 22\nvalue = [14, 15, 4, 1, 4, 0]\nclass = G0", fillcolor="#fbfef7"] ;
437 -> 438 ;
439 [label="175Lu_CD44 <= 0.1\ngini = 0.69\nsamples = 20\nvalue = [9, 15, 4, 1, 4, 0]\nclass = G0", fillcolor="#e6f8ce"] ;
438 -> 439 ;
440 [label="145Nd_FABP1 <= 1.29\ngini = 0.66\nsamples = 19\nvalue = [9, 15, 4, 1, 2, 0]\nclass = G0", fillcolor="#e4f8c9"] ;
439 -> 440 ;
441 [label="162Dy_LRIG1 <= 0.88\ngini = 0.65\nsamples = 17\nvalue = [7, 15, 4, 1, 2, 0]\nclass = G0", fillcolor="#dbf6b7"] ;
440 -> 441 ;
442 [label="145Nd_FABP1 <= 1.16\ngini = 0.64\nsamples = 13\nvalue = [3, 12, 4, 1, 2, 0]\nclass = G0", fillcolor="#d3f3a7"] ;
441 -> 442 ;
443 [label="145Nd_FABP1 <= 0.5\ngini = 0.62\nsamples = 12\nvalue = [3, 12, 3, 1, 2, 0]\nclass = G0", fillcolor="#cef29c"] ;
442 -> 443 ;
444 [label="144Nd_Lysozyme <= 4.66\ngini = 0.65\nsamples = 7\nvalue = [0, 6, 3, 1, 2, 0]\nclass = G0", fillcolor="#def6bd"] ;
443 -> 444 ;
445 [label="171Yb_CLCA1 <= 0.55\ngini = 0.54\nsamples = 6\nvalue = [0, 6, 3, 1, 0, 0]\nclass = G0", fillcolor="#d5f4aa"] ;
444 -> 445 ;
446 [label="171Yb_CLCA1 <= 0.11\ngini = 0.49\nsamples = 5\nvalue = [0, 6, 2, 1, 0, 0]\nclass = G0", fillcolor="#c7f08e"] ;
445 -> 446 ;
447 [label="144Nd_Lysozyme <= 3.99\ngini = 0.53\nsamples = 4\nvalue = [0, 5, 2, 1, 0, 0]\nclass = G0", fillcolor="#cef29c"] ;
446 -> 447 ;
448 [label="173Yb_DCAMKL1 <= 0.7\ngini = 0.64\nsamples = 3\nvalue = [0, 2, 2, 1, 0, 0]\nclass = G0", fillcolor="#ffffff"] ;
447 -> 448 ;
449 [label="gini = 0.0\nsamples = 1\nvalue = [0, 0, 2, 0, 0, 0]\nclass = G1", fillcolor="#39e581"] ;
448 -> 449 ;
450 [label="144Nd_Lysozyme <= 1.75\ngini = 0.44\nsamples = 2\nvalue = [0, 2, 0, 1, 0, 0]\nclass = G0", fillcolor="#cef29c"] ;
448 -> 450 ;
451 [label="gini = 0.0\nsamples = 1\nvalue = [0, 2, 0, 0, 0, 0]\nclass = G0", fillcolor="#9de539"] ;
450 -> 451 ;
452 [label="gini = 0.0\nsamples = 1\nvalue = [0, 0, 0, 1, 0, 0]\nclass = S", fillcolor="#399de5"] ;
450 -> 452 ;
453 [label="gini = 0.0\nsamples = 1\nvalue = [0, 3, 0, 0, 0, 0]\nclass = G0", fillcolor="#9de539"] ;
447 -> 453 ;
454 [label="gini = 0.0\nsamples = 1\nvalue = [0, 1, 0, 0, 0, 0]\nclass = G0", fillcolor="#9de539"] ;
446 -> 454 ;
455 [label="gini = 0.0\nsamples = 1\nvalue = [0, 0, 1, 0, 0, 0]\nclass = G1", fillcolor="#39e581"] ;
445 -> 455 ;
456 [label="gini = 0.0\nsamples = 1\nvalue = [0, 0, 0, 0, 2, 0]\nclass = G2", fillcolor="#8139e5"] ;
444 -> 456 ;
457 [label="173Yb_DCAMKL1 <= 0.39\ngini = 0.44\nsamples = 5\nvalue = [3, 6, 0, 0, 0, 0]\nclass = G0", fillcolor="#cef29c"] ;
443 -> 457 ;
458 [label="gini = 0.0\nsamples = 1\nvalue = [2, 0, 0, 0, 0, 0]\nclass = apoptosis", fillcolor="#e58139"] ;
457 -> 458 ;
459 [label="173Yb_DCAMKL1 <= 1.78\ngini = 0.24\nsamples = 4\nvalue = [1, 6, 0, 0, 0, 0]\nclass = G0", fillcolor="#ade95a"] ;
457 -> 459 ;
460 [label="gini = 0.0\nsamples = 3\nvalue = [0, 6, 0, 0, 0, 0]\nclass = G0", fillcolor="#9de539"] ;
459 -> 460 ;
461 [label="gini = 0.0\nsamples = 1\nvalue = [1, 0, 0, 0, 0, 0]\nclass = apoptosis", fillcolor="#e58139"] ;
459 -> 461 ;
462 [label="gini = 0.0\nsamples = 1\nvalue = [0, 0, 1, 0, 0, 0]\nclass = G1", fillcolor="#39e581"] ;
442 -> 462 ;
463 [label="144Nd_Lysozyme <= 2.13\ngini = 0.49\nsamples = 4\nvalue = [4, 3, 0, 0, 0, 0]\nclass = apoptosis", fillcolor="#f8e0ce"] ;
441 -> 463 ;
464 [label="gini = 0.0\nsamples = 2\nvalue = [4, 0, 0, 0, 0, 0]\nclass = apoptosis", fillcolor="#e58139"] ;
463 -> 464 ;
465 [label="gini = 0.0\nsamples = 2\nvalue = [0, 3, 0, 0, 0, 0]\nclass = G0", fillcolor="#9de539"] ;
463 -> 465 ;
466 [label="gini = 0.0\nsamples = 2\nvalue = [2, 0, 0, 0, 0, 0]\nclass = apoptosis", fillcolor="#e58139"] ;
440 -> 466 ;
467 [label="gini = 0.0\nsamples = 1\nvalue = [0, 0, 0, 0, 2, 0]\nclass = G2", fillcolor="#8139e5"] ;
439 -> 467 ;
468 [label="gini = 0.0\nsamples = 2\nvalue = [5, 0, 0, 0, 0, 0]\nclass = apoptosis", fillcolor="#e58139"] ;
438 -> 468 ;
469 [label="171Yb_CLCA1 <= 2.21\ngini = 0.26\nsamples = 12\nvalue = [1, 12, 0, 0, 1, 0]\nclass = G0", fillcolor="#ace957"] ;
437 -> 469 ;
470 [label="145Nd_FABP1 <= 1.03\ngini = 0.14\nsamples = 11\nvalue = [1, 12, 0, 0, 0, 0]\nclass = G0", fillcolor="#a5e749"] ;
469 -> 470 ;
471 [label="gini = 0.0\nsamples = 9\nvalue = [0, 11, 0, 0, 0, 0]\nclass = G0", fillcolor="#9de539"] ;
470 -> 471 ;
472 [label="162Dy_LRIG1 <= 0.75\ngini = 0.5\nsamples = 2\nvalue = [1, 1, 0, 0, 0, 0]\nclass = apoptosis", fillcolor="#ffffff"] ;
470 -> 472 ;
473 [label="gini = 0.0\nsamples = 1\nvalue = [0, 1, 0, 0, 0, 0]\nclass = G0", fillcolor="#9de539"] ;
472 -> 473 ;
474 [label="gini = 0.0\nsamples = 1\nvalue = [1, 0, 0, 0, 0, 0]\nclass = apoptosis", fillcolor="#e58139"] ;
472 -> 474 ;
475 [label="gini = 0.0\nsamples = 1\nvalue = [0, 0, 0, 0, 1, 0]\nclass = G2", fillcolor="#8139e5"] ;
469 -> 475 ;
476 [label="144Nd_Lysozyme <= 5.84\ngini = 0.2\nsamples = 5\nvalue = [0, 8, 1, 0, 0, 0]\nclass = G0", fillcolor="#a9e852"] ;
436 -> 476 ;
477 [label="gini = 0.0\nsamples = 3\nvalue = [0, 7, 0, 0, 0, 0]\nclass = G0", fillcolor="#9de539"] ;
476 -> 477 ;
478 [label="145Nd_FABP1 <= 0.4\ngini = 0.5\nsamples = 2\nvalue = [0, 1, 1, 0, 0, 0]\nclass = G0", fillcolor="#ffffff"] ;
476 -> 478 ;
479 [label="gini = 0.0\nsamples = 1\nvalue = [0, 0, 1, 0, 0, 0]\nclass = G1", fillcolor="#39e581"] ;
478 -> 479 ;
480 [label="gini = 0.0\nsamples = 1\nvalue = [0, 1, 0, 0, 0, 0]\nclass = G0", fillcolor="#9de539"] ;
478 -> 480 ;
481 [label="162Dy_LRIG1 <= 0.98\ngini = 0.64\nsamples = 17\nvalue = [11, 0, 2, 2, 8, 0]\nclass = apoptosis", fillcolor="#fae6d7"] ;
435 -> 481 ;
482 [label="145Nd_FABP1 <= 0.08\ngini = 0.62\nsamples = 11\nvalue = [4, 0, 1, 2, 8, 0]\nclass = G2", fillcolor="#d1b7f6"] ;
481 -> 482 ;
483 [label="175Lu_CD44 <= 0.27\ngini = 0.5\nsamples = 2\nvalue = [2, 0, 0, 2, 0, 0]\nclass = apoptosis", fillcolor="#ffffff"] ;
482 -> 483 ;
484 [label="gini = 0.0\nsamples = 1\nvalue = [2, 0, 0, 0, 0, 0]\nclass = apoptosis", fillcolor="#e58139"] ;
483 -> 484 ;
485 [label="gini = 0.0\nsamples = 1\nvalue = [0, 0, 0, 2, 0, 0]\nclass = S", fillcolor="#399de5"] ;
483 -> 485 ;
486 [label="171Yb_CLCA1 <= 0.48\ngini = 0.43\nsamples = 9\nvalue = [2, 0, 1, 0, 8, 0]\nclass = G2", fillcolor="#ab7bee"] ;
482 -> 486 ;
487 [label="174Yb_CHGA <= 0.34\ngini = 0.64\nsamples = 5\nvalue = [2, 0, 1, 0, 2, 0]\nclass = apoptosis", fillcolor="#ffffff"] ;
486 -> 487 ;
488 [label="173Yb_DCAMKL1 <= 0.61\ngini = 0.5\nsamples = 2\nvalue = [1, 0, 1, 0, 0, 0]\nclass = apoptosis", fillcolor="#ffffff"] ;
487 -> 488 ;
489 [label="gini = 0.0\nsamples = 1\nvalue = [0, 0, 1, 0, 0, 0]\nclass = G1", fillcolor="#39e581"] ;
488 -> 489 ;
490 [label="gini = 0.0\nsamples = 1\nvalue = [1, 0, 0, 0, 0, 0]\nclass = apoptosis", fillcolor="#e58139"] ;
488 -> 490 ;
491 [label="173Yb_DCAMKL1 <= 2.63\ngini = 0.44\nsamples = 3\nvalue = [1, 0, 0, 0, 2, 0]\nclass = G2", fillcolor="#c09cf2"] ;
487 -> 491 ;
492 [label="gini = 0.0\nsamples = 2\nvalue = [0, 0, 0, 0, 2, 0]\nclass = G2", fillcolor="#8139e5"] ;
491 -> 492 ;
493 [label="gini = 0.0\nsamples = 1\nvalue = [1, 0, 0, 0, 0, 0]\nclass = apoptosis", fillcolor="#e58139"] ;
491 -> 493 ;
494 [label="gini = 0.0\nsamples = 4\nvalue = [0, 0, 0, 0, 6, 0]\nclass = G2", fillcolor="#8139e5"] ;
486 -> 494 ;
495 [label="162Dy_LRIG1 <= 1.12\ngini = 0.22\nsamples = 6\nvalue = [7, 0, 1, 0, 0, 0]\nclass = apoptosis", fillcolor="#e99355"] ;
481 -> 495 ;
496 [label="gini = 0.0\nsamples = 5\nvalue = [7, 0, 0, 0, 0, 0]\nclass = apoptosis", fillcolor="#e58139"] ;
495 -> 496 ;
497 [label="gini = 0.0\nsamples = 1\nvalue = [0, 0, 1, 0, 0, 0]\nclass = G1", fillcolor="#39e581"] ;
495 -> 497 ;
498 [label="174Yb_CHGA <= 0.76\ngini = 0.52\nsamples = 21\nvalue = [19, 15, 0, 0, 1, 0]\nclass = apoptosis", fillcolor="#fae6d7"] ;
402 -> 498 ;
499 [label="173Yb_DCAMKL1 <= 2.34\ngini = 0.42\nsamples = 17\nvalue = [19, 8, 0, 0, 0, 0]\nclass = apoptosis", fillcolor="#f0b68c"] ;
498 -> 499 ;
500 [label="145Nd_FABP1 <= 0.48\ngini = 0.39\nsamples = 16\nvalue = [19, 7, 0, 0, 0, 0]\nclass = apoptosis", fillcolor="#efaf82"] ;
499 -> 500 ;
501 [label="144Nd_Lysozyme <= 0.09\ngini = 0.5\nsamples = 7\nvalue = [5, 5, 0, 0, 0, 0]\nclass = apoptosis", fillcolor="#ffffff"] ;
500 -> 501 ;
502 [label="gini = 0.0\nsamples = 2\nvalue = [0, 2, 0, 0, 0, 0]\nclass = G0", fillcolor="#9de539"] ;
501 -> 502 ;
503 [label="171Yb_CLCA1 <= 2.55\ngini = 0.47\nsamples = 5\nvalue = [5, 3, 0, 0, 0, 0]\nclass = apoptosis", fillcolor="#f5cdb0"] ;
501 -> 503 ;
504 [label="gini = 0.0\nsamples = 1\nvalue = [0, 2, 0, 0, 0, 0]\nclass = G0", fillcolor="#9de539"] ;
503 -> 504 ;
505 [label="144Nd_Lysozyme <= 1.15\ngini = 0.28\nsamples = 4\nvalue = [5, 1, 0, 0, 0, 0]\nclass = apoptosis", fillcolor="#ea9a61"] ;
503 -> 505 ;
506 [label="gini = 0.0\nsamples = 3\nvalue = [5, 0, 0, 0, 0, 0]\nclass = apoptosis", fillcolor="#e58139"] ;
505 -> 506 ;
507 [label="gini = 0.0\nsamples = 1\nvalue = [0, 1, 0, 0, 0, 0]\nclass = G0", fillcolor="#9de539"] ;
505 -> 507 ;
508 [label="171Yb_CLCA1 <= 3.08\ngini = 0.22\nsamples = 9\nvalue = [14, 2, 0, 0, 0, 0]\nclass = apoptosis", fillcolor="#e99355"] ;
500 -> 508 ;
509 [label="gini = 0.0\nsamples = 6\nvalue = [13, 0, 0, 0, 0, 0]\nclass = apoptosis", fillcolor="#e58139"] ;
508 -> 509 ;
510 [label="162Dy_LRIG1 <= 0.95\ngini = 0.44\nsamples = 3\nvalue = [1, 2, 0, 0, 0, 0]\nclass = G0", fillcolor="#cef29c"] ;
508 -> 510 ;
511 [label="gini = 0.0\nsamples = 2\nvalue = [0, 2, 0, 0, 0, 0]\nclass = G0", fillcolor="#9de539"] ;
510 -> 511 ;
512 [label="gini = 0.0\nsamples = 1\nvalue = [1, 0, 0, 0, 0, 0]\nclass = apoptosis", fillcolor="#e58139"] ;
510 -> 512 ;
513 [label="gini = 0.0\nsamples = 1\nvalue = [0, 1, 0, 0, 0, 0]\nclass = G0", fillcolor="#9de539"] ;
499 -> 513 ;
514 [label="144Nd_Lysozyme <= 1.29\ngini = 0.22\nsamples = 4\nvalue = [0, 7, 0, 0, 1, 0]\nclass = G0", fillcolor="#abe955"] ;
498 -> 514 ;
515 [label="gini = 0.0\nsamples = 3\nvalue = [0, 7, 0, 0, 0, 0]\nclass = G0", fillcolor="#9de539"] ;
514 -> 515 ;
516 [label="gini = 0.0\nsamples = 1\nvalue = [0, 0, 0, 0, 1, 0]\nclass = G2", fillcolor="#8139e5"] ;
514 -> 516 ;
517 [label="171Yb_CLCA1 <= 2.37\ngini = 0.68\nsamples = 87\nvalue = [16, 20, 30, 0, 58, 0]\nclass = G2", fillcolor="#d9c4f7"] ;
401 -> 517 ;
518 [label="174Yb_CHGA <= 2.49\ngini = 0.66\nsamples = 75\nvalue = [8, 19, 29, 0, 53, 0]\nclass = G2", fillcolor="#d9c4f7"] ;
517 -> 518 ;
519 [label="174Yb_CHGA <= 2.04\ngini = 0.64\nsamples = 59\nvalue = [6, 19, 16, 0, 44, 0]\nclass = G2", fillcolor="#cfb4f5"] ;
518 -> 519 ;
520 [label="145Nd_FABP1 <= 1.11\ngini = 0.7\nsamples = 34\nvalue = [3, 14, 10, 0, 15, 0]\nclass = G2", fillcolor="#faf8fe"] ;
519 -> 520 ;
521 [label="162Dy_LRIG1 <= 0.67\ngini = 0.67\nsamples = 26\nvalue = [3, 8, 5, 0, 14, 0]\nclass = G2", fillcolor="#ddc9f8"] ;
520 -> 521 ;
522 [label="162Dy_LRIG1 <= 0.58\ngini = 0.61\nsamples = 10\nvalue = [1, 6, 1, 0, 3, 0]\nclass = G0", fillcolor="#daf5b5"] ;
521 -> 522 ;
523 [label="144Nd_Lysozyme <= 0.8\ngini = 0.67\nsamples = 5\nvalue = [1, 1, 1, 0, 3, 0]\nclass = G2", fillcolor="#cdb0f5"] ;
522 -> 523 ;
524 [label="173Yb_DCAMKL1 <= 0.86\ngini = 0.5\nsamples = 2\nvalue = [1, 1, 0, 0, 0, 0]\nclass = apoptosis", fillcolor="#ffffff"] ;
523 -> 524 ;
525 [label="gini = 0.0\nsamples = 1\nvalue = [0, 1, 0, 0, 0, 0]\nclass = G0", fillcolor="#9de539"] ;
524 -> 525 ;
526 [label="gini = 0.0\nsamples = 1\nvalue = [1, 0, 0, 0, 0, 0]\nclass = apoptosis", fillcolor="#e58139"] ;
524 -> 526 ;
527 [label="145Nd_FABP1 <= 0.49\ngini = 0.38\nsamples = 3\nvalue = [0, 0, 1, 0, 3, 0]\nclass = G2", fillcolor="#ab7bee"] ;
523 -> 527 ;
528 [label="gini = 0.0\nsamples = 2\nvalue = [0, 0, 0, 0, 3, 0]\nclass = G2", fillcolor="#8139e5"] ;
527 -> 528 ;
529 [label="gini = 0.0\nsamples = 1\nvalue = [0, 0, 1, 0, 0, 0]\nclass = G1", fillcolor="#39e581"] ;
527 -> 529 ;
530 [label="gini = 0.0\nsamples = 5\nvalue = [0, 5, 0, 0, 0, 0]\nclass = G0", fillcolor="#9de539"] ;
522 -> 530 ;
531 [label="145Nd_FABP1 <= 0.96\ngini = 0.6\nsamples = 16\nvalue = [2, 2, 4, 0, 11, 0]\nclass = G2", fillcolor="#c4a3f3"] ;
521 -> 531 ;
532 [label="145Nd_FABP1 <= 0.88\ngini = 0.68\nsamples = 13\nvalue = [2, 2, 4, 0, 7, 0]\nclass = G2", fillcolor="#ddc9f8"] ;
531 -> 532 ;
533 [label="162Dy_LRIG1 <= 0.96\ngini = 0.64\nsamples = 11\nvalue = [2, 2, 2, 0, 7, 0]\nclass = G2", fillcolor="#c6a5f3"] ;
532 -> 533 ;
534 [label="173Yb_DCAMKL1 <= 2.8\ngini = 0.41\nsamples = 7\nvalue = [1, 1, 0, 0, 6, 0]\nclass = G2", fillcolor="#a572ec"] ;
533 -> 534 ;
535 [label="174Yb_CHGA <= 1.78\ngini = 0.24\nsamples = 6\nvalue = [1, 0, 0, 0, 6, 0]\nclass = G2", fillcolor="#965ae9"] ;
534 -> 535 ;
536 [label="gini = 0.0\nsamples = 4\nvalue = [0, 0, 0, 0, 5, 0]\nclass = G2", fillcolor="#8139e5"] ;
535 -> 536 ;
537 [label="174Yb_CHGA <= 1.82\ngini = 0.5\nsamples = 2\nvalue = [1, 0, 0, 0, 1, 0]\nclass = apoptosis", fillcolor="#ffffff"] ;
535 -> 537 ;
538 [label="gini = 0.0\nsamples = 1\nvalue = [1, 0, 0, 0, 0, 0]\nclass = apoptosis", fillcolor="#e58139"] ;
537 -> 538 ;
539 [label="gini = 0.0\nsamples = 1\nvalue = [0, 0, 0, 0, 1, 0]\nclass = G2", fillcolor="#8139e5"] ;
537 -> 539 ;
540 [label="gini = 0.0\nsamples = 1\nvalue = [0, 1, 0, 0, 0, 0]\nclass = G0", fillcolor="#9de539"] ;
534 -> 540 ;
541 [label="144Nd_Lysozyme <= 0.35\ngini = 0.72\nsamples = 4\nvalue = [1, 1, 2, 0, 1, 0]\nclass = G1", fillcolor="#cef8e0"] ;
533 -> 541 ;
542 [label="gini = 0.0\nsamples = 1\nvalue = [0, 0, 2, 0, 0, 0]\nclass = G1", fillcolor="#39e581"] ;
541 -> 542 ;
543 [label="145Nd_FABP1 <= 0.1\ngini = 0.67\nsamples = 3\nvalue = [1, 1, 0, 0, 1, 0]\nclass = apoptosis", fillcolor="#ffffff"] ;
541 -> 543 ;
544 [label="gini = 0.0\nsamples = 1\nvalue = [0, 0, 0, 0, 1, 0]\nclass = G2", fillcolor="#8139e5"] ;
543 -> 544 ;
545 [label="173Yb_DCAMKL1 <= 0.52\ngini = 0.5\nsamples = 2\nvalue = [1, 1, 0, 0, 0, 0]\nclass = apoptosis", fillcolor="#ffffff"] ;
543 -> 545 ;
546 [label="gini = 0.0\nsamples = 1\nvalue = [0, 1, 0, 0, 0, 0]\nclass = G0", fillcolor="#9de539"] ;
545 -> 546 ;
547 [label="gini = 0.0\nsamples = 1\nvalue = [1, 0, 0, 0, 0, 0]\nclass = apoptosis", fillcolor="#e58139"] ;
545 -> 547 ;
548 [label="gini = 0.0\nsamples = 2\nvalue = [0, 0, 2, 0, 0, 0]\nclass = G1", fillcolor="#39e581"] ;
532 -> 548 ;
549 [label="gini = 0.0\nsamples = 3\nvalue = [0, 0, 0, 0, 4, 0]\nclass = G2", fillcolor="#8139e5"] ;
531 -> 549 ;
550 [label="173Yb_DCAMKL1 <= 1.26\ngini = 0.57\nsamples = 8\nvalue = [0, 6, 5, 0, 1, 0]\nclass = G0", fillcolor="#f1fbe3"] ;
520 -> 550 ;
551 [label="171Yb_CLCA1 <= 1.77\ngini = 0.49\nsamples = 6\nvalue = [0, 6, 2, 0, 1, 0]\nclass = G0", fillcolor="#c7f08e"] ;
550 -> 551 ;
552 [label="171Yb_CLCA1 <= 0.72\ngini = 0.24\nsamples = 5\nvalue = [0, 6, 0, 0, 1, 0]\nclass = G0", fillcolor="#ade95a"] ;
551 -> 552 ;
553 [label="174Yb_CHGA <= 1.9\ngini = 0.44\nsamples = 3\nvalue = [0, 2, 0, 0, 1, 0]\nclass = G0", fillcolor="#cef29c"] ;
552 -> 553 ;
554 [label="gini = 0.0\nsamples = 2\nvalue = [0, 2, 0, 0, 0, 0]\nclass = G0", fillcolor="#9de539"] ;
553 -> 554 ;
555 [label="gini = 0.0\nsamples = 1\nvalue = [0, 0, 0, 0, 1, 0]\nclass = G2", fillcolor="#8139e5"] ;
553 -> 555 ;
556 [label="gini = 0.0\nsamples = 2\nvalue = [0, 4, 0, 0, 0, 0]\nclass = G0", fillcolor="#9de539"] ;
552 -> 556 ;
557 [label="gini = 0.0\nsamples = 1\nvalue = [0, 0, 2, 0, 0, 0]\nclass = G1", fillcolor="#39e581"] ;
551 -> 557 ;
558 [label="gini = 0.0\nsamples = 2\nvalue = [0, 0, 3, 0, 0, 0]\nclass = G1", fillcolor="#39e581"] ;
550 -> 558 ;
559 [label="144Nd_Lysozyme <= 0.11\ngini = 0.51\nsamples = 25\nvalue = [3, 5, 6, 0, 29, 0]\nclass = G2", fillcolor="#b184ef"] ;
519 -> 559 ;
560 [label="171Yb_CLCA1 <= 0.31\ngini = 0.67\nsamples = 7\nvalue = [0, 4, 4, 0, 4, 0]\nclass = G0", fillcolor="#ffffff"] ;
559 -> 560 ;
561 [label="gini = 0.0\nsamples = 2\nvalue = [0, 0, 4, 0, 0, 0]\nclass = G1", fillcolor="#39e581"] ;
560 -> 561 ;
562 [label="174Yb_CHGA <= 2.35\ngini = 0.5\nsamples = 5\nvalue = [0, 4, 0, 0, 4, 0]\nclass = G0", fillcolor="#ffffff"] ;
560 -> 562 ;
563 [label="171Yb_CLCA1 <= 1.35\ngini = 0.44\nsamples = 4\nvalue = [0, 2, 0, 0, 4, 0]\nclass = G2", fillcolor="#c09cf2"] ;
562 -> 563 ;
564 [label="gini = 0.0\nsamples = 2\nvalue = [0, 0, 0, 0, 3, 0]\nclass = G2", fillcolor="#8139e5"] ;
563 -> 564 ;
565 [label="173Yb_DCAMKL1 <= 1.38\ngini = 0.44\nsamples = 2\nvalue = [0, 2, 0, 0, 1, 0]\nclass = G0", fillcolor="#cef29c"] ;
563 -> 565 ;
566 [label="gini = 0.0\nsamples = 1\nvalue = [0, 0, 0, 0, 1, 0]\nclass = G2", fillcolor="#8139e5"] ;
565 -> 566 ;
567 [label="gini = 0.0\nsamples = 1\nvalue = [0, 2, 0, 0, 0, 0]\nclass = G0", fillcolor="#9de539"] ;
565 -> 567 ;
568 [label="gini = 0.0\nsamples = 1\nvalue = [0, 2, 0, 0, 0, 0]\nclass = G0", fillcolor="#9de539"] ;
562 -> 568 ;
569 [label="173Yb_DCAMKL1 <= 1.02\ngini = 0.34\nsamples = 18\nvalue = [3, 1, 2, 0, 25, 0]\nclass = G2", fillcolor="#9c63eb"] ;
559 -> 569 ;
570 [label="145Nd_FABP1 <= 0.06\ngini = 0.26\nsamples = 16\nvalue = [3, 1, 0, 0, 23, 0]\nclass = G2", fillcolor="#965ae9"] ;
569 -> 570 ;
571 [label="gini = 0.0\nsamples = 1\nvalue = [1, 0, 0, 0, 0, 0]\nclass = apoptosis", fillcolor="#e58139"] ;
570 -> 571 ;
572 [label="145Nd_FABP1 <= 1.34\ngini = 0.21\nsamples = 15\nvalue = [2, 1, 0, 0, 23, 0]\nclass = G2", fillcolor="#9152e8"] ;
570 -> 572 ;
573 [label="145Nd_FABP1 <= 0.8\ngini = 0.09\nsamples = 13\nvalue = [0, 1, 0, 0, 21, 0]\nclass = G2", fillcolor="#8742e6"] ;
572 -> 573 ;
574 [label="gini = 0.0\nsamples = 8\nvalue = [0, 0, 0, 0, 14, 0]\nclass = G2", fillcolor="#8139e5"] ;
573 -> 574 ;
575 [label="144Nd_Lysozyme <= 0.58\ngini = 0.22\nsamples = 5\nvalue = [0, 1, 0, 0, 7, 0]\nclass = G2", fillcolor="#9355e9"] ;
573 -> 575 ;
576 [label="gini = 0.0\nsamples = 4\nvalue = [0, 0, 0, 0, 7, 0]\nclass = G2", fillcolor="#8139e5"] ;
575 -> 576 ;
577 [label="gini = 0.0\nsamples = 1\nvalue = [0, 1, 0, 0, 0, 0]\nclass = G0", fillcolor="#9de539"] ;
575 -> 577 ;
578 [label="144Nd_Lysozyme <= 0.63\ngini = 0.5\nsamples = 2\nvalue = [2, 0, 0, 0, 2, 0]\nclass = apoptosis", fillcolor="#ffffff"] ;
572 -> 578 ;
579 [label="gini = 0.0\nsamples = 1\nvalue = [2, 0, 0, 0, 0, 0]\nclass = apoptosis", fillcolor="#e58139"] ;
578 -> 579 ;
580 [label="gini = 0.0\nsamples = 1\nvalue = [0, 0, 0, 0, 2, 0]\nclass = G2", fillcolor="#8139e5"] ;
578 -> 580 ;
581 [label="173Yb_DCAMKL1 <= 1.34\ngini = 0.5\nsamples = 2\nvalue = [0, 0, 2, 0, 2, 0]\nclass = G1", fillcolor="#ffffff"] ;
569 -> 581 ;
582 [label="gini = 0.0\nsamples = 1\nvalue = [0, 0, 2, 0, 0, 0]\nclass = G1", fillcolor="#39e581"] ;
581 -> 582 ;
583 [label="gini = 0.0\nsamples = 1\nvalue = [0, 0, 0, 0, 2, 0]\nclass = G2", fillcolor="#8139e5"] ;
581 -> 583 ;
584 [label="173Yb_DCAMKL1 <= 1.31\ngini = 0.56\nsamples = 16\nvalue = [2, 0, 13, 0, 9, 0]\nclass = G1", fillcolor="#caf8dd"] ;
518 -> 584 ;
585 [label="144Nd_Lysozyme <= 0.61\ngini = 0.4\nsamples = 12\nvalue = [0, 0, 13, 0, 5, 0]\nclass = G1", fillcolor="#85efb1"] ;
584 -> 585 ;
586 [label="174Yb_CHGA <= 2.59\ngini = 0.24\nsamples = 9\nvalue = [0, 0, 12, 0, 2, 0]\nclass = G1", fillcolor="#5ae996"] ;
585 -> 586 ;
587 [label="174Yb_CHGA <= 2.53\ngini = 0.44\nsamples = 3\nvalue = [0, 0, 2, 0, 1, 0]\nclass = G1", fillcolor="#9cf2c0"] ;
586 -> 587 ;
588 [label="gini = 0.0\nsamples = 2\nvalue = [0, 0, 2, 0, 0, 0]\nclass = G1", fillcolor="#39e581"] ;
587 -> 588 ;
589 [label="gini = 0.0\nsamples = 1\nvalue = [0, 0, 0, 0, 1, 0]\nclass = G2", fillcolor="#8139e5"] ;
587 -> 589 ;
590 [label="171Yb_CLCA1 <= 1.73\ngini = 0.17\nsamples = 6\nvalue = [0, 0, 10, 0, 1, 0]\nclass = G1", fillcolor="#4de88e"] ;
586 -> 590 ;
591 [label="gini = 0.0\nsamples = 5\nvalue = [0, 0, 10, 0, 0, 0]\nclass = G1", fillcolor="#39e581"] ;
590 -> 591 ;
592 [label="gini = 0.0\nsamples = 1\nvalue = [0, 0, 0, 0, 1, 0]\nclass = G2", fillcolor="#8139e5"] ;
590 -> 592 ;
593 [label="162Dy_LRIG1 <= 0.89\ngini = 0.38\nsamples = 3\nvalue = [0, 0, 1, 0, 3, 0]\nclass = G2", fillcolor="#ab7bee"] ;
585 -> 593 ;
594 [label="162Dy_LRIG1 <= 0.68\ngini = 0.5\nsamples = 2\nvalue = [0, 0, 1, 0, 1, 0]\nclass = G1", fillcolor="#ffffff"] ;
593 -> 594 ;
595 [label="gini = 0.0\nsamples = 1\nvalue = [0, 0, 0, 0, 1, 0]\nclass = G2", fillcolor="#8139e5"] ;
594 -> 595 ;
596 [label="gini = 0.0\nsamples = 1\nvalue = [0, 0, 1, 0, 0, 0]\nclass = G1", fillcolor="#39e581"] ;
594 -> 596 ;
597 [label="gini = 0.0\nsamples = 1\nvalue = [0, 0, 0, 0, 2, 0]\nclass = G2", fillcolor="#8139e5"] ;
593 -> 597 ;
598 [label="144Nd_Lysozyme <= 1.18\ngini = 0.44\nsamples = 4\nvalue = [2, 0, 0, 0, 4, 0]\nclass = G2", fillcolor="#c09cf2"] ;
584 -> 598 ;
599 [label="gini = 0.0\nsamples = 3\nvalue = [0, 0, 0, 0, 4, 0]\nclass = G2", fillcolor="#8139e5"] ;
598 -> 599 ;
600 [label="gini = 0.0\nsamples = 1\nvalue = [2, 0, 0, 0, 0, 0]\nclass = apoptosis", fillcolor="#e58139"] ;
598 -> 600 ;
601 [label="145Nd_FABP1 <= 0.97\ngini = 0.6\nsamples = 12\nvalue = [8, 1, 1, 0, 5, 0]\nclass = apoptosis", fillcolor="#f7d9c4"] ;
517 -> 601 ;
602 [label="162Dy_LRIG1 <= 0.81\ngini = 0.49\nsamples = 9\nvalue = [8, 1, 0, 0, 3, 0]\nclass = apoptosis", fillcolor="#f1b991"] ;
601 -> 602 ;
603 [label="gini = 0.0\nsamples = 2\nvalue = [0, 0, 0, 0, 3, 0]\nclass = G2", fillcolor="#8139e5"] ;
602 -> 603 ;
604 [label="162Dy_LRIG1 <= 1.02\ngini = 0.2\nsamples = 7\nvalue = [8, 1, 0, 0, 0, 0]\nclass = apoptosis", fillcolor="#e89152"] ;
602 -> 604 ;
605 [label="gini = 0.0\nsamples = 6\nvalue = [8, 0, 0, 0, 0, 0]\nclass = apoptosis", fillcolor="#e58139"] ;
604 -> 605 ;
606 [label="gini = 0.0\nsamples = 1\nvalue = [0, 1, 0, 0, 0, 0]\nclass = G0", fillcolor="#9de539"] ;
604 -> 606 ;
607 [label="173Yb_DCAMKL1 <= 0.09\ngini = 0.44\nsamples = 3\nvalue = [0, 0, 1, 0, 2, 0]\nclass = G2", fillcolor="#c09cf2"] ;
601 -> 607 ;
608 [label="162Dy_LRIG1 <= 0.82\ngini = 0.5\nsamples = 2\nvalue = [0, 0, 1, 0, 1, 0]\nclass = G1", fillcolor="#ffffff"] ;
607 -> 608 ;
609 [label="gini = 0.0\nsamples = 1\nvalue = [0, 0, 1, 0, 0, 0]\nclass = G1", fillcolor="#39e581"] ;
608 -> 609 ;
610 [label="gini = 0.0\nsamples = 1\nvalue = [0, 0, 0, 0, 1, 0]\nclass = G2", fillcolor="#8139e5"] ;
608 -> 610 ;
611 [label="gini = 0.0\nsamples = 1\nvalue = [0, 0, 0, 0, 1, 0]\nclass = G2", fillcolor="#8139e5"] ;
607 -> 611 ;
612 [label="173Yb_DCAMKL1 <= 1.34\ngini = 0.7\nsamples = 234\nvalue = [28, 56, 167, 19, 94, 5]\nclass = G1", fillcolor="#caf8de"] ;
2 -> 612 ;
613 [label="171Yb_CLCA1 <= 1.88\ngini = 0.65\nsamples = 177\nvalue = [7, 44, 144, 16, 69, 3]\nclass = G1", fillcolor="#baf6d3"] ;
612 -> 613 ;
614 [label="171Yb_CLCA1 <= 0.81\ngini = 0.62\nsamples = 146\nvalue = [3, 28, 127, 14, 56, 3]\nclass = G1", fillcolor="#aff4cc"] ;
613 -> 614 ;
615 [label="144Nd_Lysozyme <= 3.07\ngini = 0.61\nsamples = 92\nvalue = [1, 20, 83, 14, 26, 0]\nclass = G1", fillcolor="#9ff2c2"] ;
614 -> 615 ;
616 [label="175Lu_CD44 <= 1.09\ngini = 0.68\nsamples = 57\nvalue = [1, 8, 40, 14, 25, 0]\nclass = G1", fillcolor="#d0f9e1"] ;
615 -> 616 ;
617 [label="174Yb_CHGA <= 0.6\ngini = 0.63\nsamples = 53\nvalue = [1, 4, 40, 9, 25, 0]\nclass = G1", fillcolor="#c8f8dc"] ;
616 -> 617 ;
618 [label="174Yb_CHGA <= 0.13\ngini = 0.49\nsamples = 8\nvalue = [1, 2, 1, 9, 0, 0]\nclass = S", fillcolor="#81c1ee"] ;
617 -> 618 ;
619 [label="145Nd_FABP1 <= 0.05\ngini = 0.72\nsamples = 5\nvalue = [1, 2, 1, 2, 0, 0]\nclass = G0", fillcolor="#ffffff"] ;
618 -> 619 ;
620 [label="gini = 0.0\nsamples = 1\nvalue = [0, 0, 0, 2, 0, 0]\nclass = S", fillcolor="#399de5"] ;
619 -> 620 ;
621 [label="175Lu_CD44 <= 0.14\ngini = 0.62\nsamples = 4\nvalue = [1, 2, 1, 0, 0, 0]\nclass = G0", fillcolor="#def6bd"] ;
619 -> 621 ;
622 [label="173Yb_DCAMKL1 <= 0.63\ngini = 0.67\nsamples = 3\nvalue = [1, 1, 1, 0, 0, 0]\nclass = apoptosis", fillcolor="#ffffff"] ;
621 -> 622 ;
623 [label="162Dy_LRIG1 <= 1.95\ngini = 0.5\nsamples = 2\nvalue = [0, 1, 1, 0, 0, 0]\nclass = G0", fillcolor="#ffffff"] ;
622 -> 623 ;
624 [label="gini = 0.0\nsamples = 1\nvalue = [0, 1, 0, 0, 0, 0]\nclass = G0", fillcolor="#9de539"] ;
623 -> 624 ;
625 [label="gini = 0.0\nsamples = 1\nvalue = [0, 0, 1, 0, 0, 0]\nclass = G1", fillcolor="#39e581"] ;
623 -> 625 ;
626 [label="gini = 0.0\nsamples = 1\nvalue = [1, 0, 0, 0, 0, 0]\nclass = apoptosis", fillcolor="#e58139"] ;
622 -> 626 ;
627 [label="gini = 0.0\nsamples = 1\nvalue = [0, 1, 0, 0, 0, 0]\nclass = G0", fillcolor="#9de539"] ;
621 -> 627 ;
628 [label="gini = 0.0\nsamples = 3\nvalue = [0, 0, 0, 7, 0, 0]\nclass = S", fillcolor="#399de5"] ;
618 -> 628 ;
629 [label="174Yb_CHGA <= 2.46\ngini = 0.51\nsamples = 45\nvalue = [0, 2, 39, 0, 25, 0]\nclass = G1", fillcolor="#bbf6d4"] ;
617 -> 629 ;
630 [label="162Dy_LRIG1 <= 1.94\ngini = 0.54\nsamples = 34\nvalue = [0, 2, 23, 0, 23, 0]\nclass = G1", fillcolor="#ffffff"] ;
629 -> 630 ;
631 [label="162Dy_LRIG1 <= 1.4\ngini = 0.4\nsamples = 19\nvalue = [0, 0, 8, 0, 21, 0]\nclass = G2", fillcolor="#b184ef"] ;
630 -> 631 ;
632 [label="175Lu_CD44 <= 0.36\ngini = 0.22\nsamples = 9\nvalue = [0, 0, 2, 0, 14, 0]\nclass = G2", fillcolor="#9355e9"] ;
631 -> 632 ;
633 [label="174Yb_CHGA <= 2.03\ngini = 0.12\nsamples = 8\nvalue = [0, 0, 1, 0, 14, 0]\nclass = G2", fillcolor="#8a47e7"] ;
632 -> 633 ;
634 [label="gini = 0.0\nsamples = 5\nvalue = [0, 0, 0, 0, 10, 0]\nclass = G2", fillcolor="#8139e5"] ;
633 -> 634 ;
635 [label="174Yb_CHGA <= 2.16\ngini = 0.32\nsamples = 3\nvalue = [0, 0, 1, 0, 4, 0]\nclass = G2", fillcolor="#a06aec"] ;
633 -> 635 ;
636 [label="gini = 0.0\nsamples = 1\nvalue = [0, 0, 1, 0, 0, 0]\nclass = G1", fillcolor="#39e581"] ;
635 -> 636 ;
637 [label="gini = 0.0\nsamples = 2\nvalue = [0, 0, 0, 0, 4, 0]\nclass = G2", fillcolor="#8139e5"] ;
635 -> 637 ;
638 [label="gini = 0.0\nsamples = 1\nvalue = [0, 0, 1, 0, 0, 0]\nclass = G1", fillcolor="#39e581"] ;
632 -> 638 ;
639 [label="162Dy_LRIG1 <= 1.53\ngini = 0.5\nsamples = 10\nvalue = [0, 0, 6, 0, 7, 0]\nclass = G2", fillcolor="#ede3fb"] ;
631 -> 639 ;
640 [label="gini = 0.0\nsamples = 2\nvalue = [0, 0, 3, 0, 0, 0]\nclass = G1", fillcolor="#39e581"] ;
639 -> 640 ;
641 [label="144Nd_Lysozyme <= 0.17\ngini = 0.42\nsamples = 8\nvalue = [0, 0, 3, 0, 7, 0]\nclass = G2", fillcolor="#b78ef0"] ;
639 -> 641 ;
642 [label="171Yb_CLCA1 <= 0.27\ngini = 0.44\nsamples = 3\nvalue = [0, 0, 2, 0, 1, 0]\nclass = G1", fillcolor="#9cf2c0"] ;
641 -> 642 ;
643 [label="173Yb_DCAMKL1 <= 0.72\ngini = 0.5\nsamples = 2\nvalue = [0, 0, 1, 0, 1, 0]\nclass = G1", fillcolor="#ffffff"] ;
642 -> 643 ;
644 [label="gini = 0.0\nsamples = 1\nvalue = [0, 0, 0, 0, 1, 0]\nclass = G2", fillcolor="#8139e5"] ;
643 -> 644 ;
645 [label="gini = 0.0\nsamples = 1\nvalue = [0, 0, 1, 0, 0, 0]\nclass = G1", fillcolor="#39e581"] ;
643 -> 645 ;
646 [label="gini = 0.0\nsamples = 1\nvalue = [0, 0, 1, 0, 0, 0]\nclass = G1", fillcolor="#39e581"] ;
642 -> 646 ;
647 [label="145Nd_FABP1 <= 1.1\ngini = 0.24\nsamples = 5\nvalue = [0, 0, 1, 0, 6, 0]\nclass = G2", fillcolor="#965ae9"] ;
641 -> 647 ;
648 [label="gini = 0.0\nsamples = 4\nvalue = [0, 0, 0, 0, 6, 0]\nclass = G2", fillcolor="#8139e5"] ;
647 -> 648 ;
649 [label="gini = 0.0\nsamples = 1\nvalue = [0, 0, 1, 0, 0, 0]\nclass = G1", fillcolor="#39e581"] ;
647 -> 649 ;
650 [label="145Nd_FABP1 <= 0.17\ngini = 0.35\nsamples = 15\nvalue = [0, 2, 15, 0, 2, 0]\nclass = G1", fillcolor="#68eb9f"] ;
630 -> 650 ;
651 [label="174Yb_CHGA <= 1.13\ngini = 0.67\nsamples = 5\nvalue = [0, 2, 2, 0, 2, 0]\nclass = G0", fillcolor="#ffffff"] ;
650 -> 651 ;
652 [label="gini = 0.0\nsamples = 1\nvalue = [0, 2, 0, 0, 0, 0]\nclass = G0", fillcolor="#9de539"] ;
651 -> 652 ;
653 [label="175Lu_CD44 <= 0.82\ngini = 0.5\nsamples = 4\nvalue = [0, 0, 2, 0, 2, 0]\nclass = G1", fillcolor="#ffffff"] ;
651 -> 653 ;
654 [label="171Yb_CLCA1 <= 0.37\ngini = 0.44\nsamples = 3\nvalue = [0, 0, 1, 0, 2, 0]\nclass = G2", fillcolor="#c09cf2"] ;
653 -> 654 ;
655 [label="gini = 0.0\nsamples = 2\nvalue = [0, 0, 0, 0, 2, 0]\nclass = G2", fillcolor="#8139e5"] ;
654 -> 655 ;
656 [label="gini = 0.0\nsamples = 1\nvalue = [0, 0, 1, 0, 0, 0]\nclass = G1", fillcolor="#39e581"] ;
654 -> 656 ;
657 [label="gini = 0.0\nsamples = 1\nvalue = [0, 0, 1, 0, 0, 0]\nclass = G1", fillcolor="#39e581"] ;
653 -> 657 ;
658 [label="gini = 0.0\nsamples = 10\nvalue = [0, 0, 13, 0, 0, 0]\nclass = G1", fillcolor="#39e581"] ;
650 -> 658 ;
659 [label="145Nd_FABP1 <= 1.04\ngini = 0.2\nsamples = 11\nvalue = [0, 0, 16, 0, 2, 0]\nclass = G1", fillcolor="#52e891"] ;
629 -> 659 ;
660 [label="145Nd_FABP1 <= 0.06\ngini = 0.12\nsamples = 9\nvalue = [0, 0, 15, 0, 1, 0]\nclass = G1", fillcolor="#46e789"] ;
659 -> 660 ;
661 [label="174Yb_CHGA <= 2.71\ngini = 0.44\nsamples = 2\nvalue = [0, 0, 2, 0, 1, 0]\nclass = G1", fillcolor="#9cf2c0"] ;
660 -> 661 ;
662 [label="gini = 0.0\nsamples = 1\nvalue = [0, 0, 0, 0, 1, 0]\nclass = G2", fillcolor="#8139e5"] ;
661 -> 662 ;
663 [label="gini = 0.0\nsamples = 1\nvalue = [0, 0, 2, 0, 0, 0]\nclass = G1", fillcolor="#39e581"] ;
661 -> 663 ;
664 [label="gini = 0.0\nsamples = 7\nvalue = [0, 0, 13, 0, 0, 0]\nclass = G1", fillcolor="#39e581"] ;
660 -> 664 ;
665 [label="145Nd_FABP1 <= 1.17\ngini = 0.5\nsamples = 2\nvalue = [0, 0, 1, 0, 1, 0]\nclass = G1", fillcolor="#ffffff"] ;
659 -> 665 ;
666 [label="gini = 0.0\nsamples = 1\nvalue = [0, 0, 0, 0, 1, 0]\nclass = G2", fillcolor="#8139e5"] ;
665 -> 666 ;
667 [label="gini = 0.0\nsamples = 1\nvalue = [0, 0, 1, 0, 0, 0]\nclass = G1", fillcolor="#39e581"] ;
665 -> 667 ;
668 [label="144Nd_Lysozyme <= 0.86\ngini = 0.49\nsamples = 4\nvalue = [0, 4, 0, 5, 0, 0]\nclass = S", fillcolor="#d7ebfa"] ;
616 -> 668 ;
669 [label="gini = 0.0\nsamples = 3\nvalue = [0, 0, 0, 5, 0, 0]\nclass = S", fillcolor="#399de5"] ;
668 -> 669 ;
670 [label="gini = 0.0\nsamples = 1\nvalue = [0, 4, 0, 0, 0, 0]\nclass = G0", fillcolor="#9de539"] ;
668 -> 670 ;
671 [label="144Nd_Lysozyme <= 6.21\ngini = 0.36\nsamples = 35\nvalue = [0, 12, 43, 0, 1, 0]\nclass = G1", fillcolor="#74eda6"] ;
615 -> 671 ;
672 [label="145Nd_FABP1 <= 0.98\ngini = 0.25\nsamples = 27\nvalue = [0, 5, 37, 0, 1, 0]\nclass = G1", fillcolor="#58e995"] ;
671 -> 672 ;
673 [label="174Yb_CHGA <= 2.23\ngini = 0.16\nsamples = 21\nvalue = [0, 2, 32, 0, 1, 0]\nclass = G1", fillcolor="#4be78c"] ;
672 -> 673 ;
674 [label="145Nd_FABP1 <= 0.13\ngini = 0.11\nsamples = 20\nvalue = [0, 2, 32, 0, 0, 0]\nclass = G1", fillcolor="#45e789"] ;
673 -> 674 ;
675 [label="162Dy_LRIG1 <= 1.87\ngini = 0.3\nsamples = 7\nvalue = [0, 2, 9, 0, 0, 0]\nclass = G1", fillcolor="#65eb9d"] ;
674 -> 675 ;
676 [label="144Nd_Lysozyme <= 3.92\ngini = 0.44\nsamples = 3\nvalue = [0, 2, 1, 0, 0, 0]\nclass = G0", fillcolor="#cef29c"] ;
675 -> 676 ;
677 [label="gini = 0.0\nsamples = 1\nvalue = [0, 0, 1, 0, 0, 0]\nclass = G1", fillcolor="#39e581"] ;
676 -> 677 ;
678 [label="gini = 0.0\nsamples = 2\nvalue = [0, 2, 0, 0, 0, 0]\nclass = G0", fillcolor="#9de539"] ;
676 -> 678 ;
679 [label="gini = 0.0\nsamples = 4\nvalue = [0, 0, 8, 0, 0, 0]\nclass = G1", fillcolor="#39e581"] ;
675 -> 679 ;
680 [label="gini = 0.0\nsamples = 13\nvalue = [0, 0, 23, 0, 0, 0]\nclass = G1", fillcolor="#39e581"] ;
674 -> 680 ;
681 [label="gini = 0.0\nsamples = 1\nvalue = [0, 0, 0, 0, 1, 0]\nclass = G2", fillcolor="#8139e5"] ;
673 -> 681 ;
682 [label="174Yb_CHGA <= 0.29\ngini = 0.47\nsamples = 6\nvalue = [0, 3, 5, 0, 0, 0]\nclass = G1", fillcolor="#b0f5cd"] ;
672 -> 682 ;
683 [label="145Nd_FABP1 <= 1.37\ngini = 0.38\nsamples = 3\nvalue = [0, 3, 1, 0, 0, 0]\nclass = G0", fillcolor="#beee7b"] ;
682 -> 683 ;
684 [label="gini = 0.0\nsamples = 2\nvalue = [0, 3, 0, 0, 0, 0]\nclass = G0", fillcolor="#9de539"] ;
683 -> 684 ;
685 [label="gini = 0.0\nsamples = 1\nvalue = [0, 0, 1, 0, 0, 0]\nclass = G1", fillcolor="#39e581"] ;
683 -> 685 ;
686 [label="gini = 0.0\nsamples = 3\nvalue = [0, 0, 4, 0, 0, 0]\nclass = G1", fillcolor="#39e581"] ;
682 -> 686 ;
687 [label="144Nd_Lysozyme <= 6.36\ngini = 0.5\nsamples = 8\nvalue = [0, 7, 6, 0, 0, 0]\nclass = G0", fillcolor="#f1fbe3"] ;
671 -> 687 ;
688 [label="gini = 0.0\nsamples = 1\nvalue = [0, 2, 0, 0, 0, 0]\nclass = G0", fillcolor="#9de539"] ;
687 -> 688 ;
689 [label="175Lu_CD44 <= 0.75\ngini = 0.5\nsamples = 7\nvalue = [0, 5, 6, 0, 0, 0]\nclass = G1", fillcolor="#defbea"] ;
687 -> 689 ;
690 [label="175Lu_CD44 <= 0.06\ngini = 0.44\nsamples = 5\nvalue = [0, 3, 6, 0, 0, 0]\nclass = G1", fillcolor="#9cf2c0"] ;
689 -> 690 ;
691 [label="173Yb_DCAMKL1 <= 0.6\ngini = 0.38\nsamples = 3\nvalue = [0, 3, 1, 0, 0, 0]\nclass = G0", fillcolor="#beee7b"] ;
690 -> 691 ;
692 [label="gini = 0.0\nsamples = 2\nvalue = [0, 3, 0, 0, 0, 0]\nclass = G0", fillcolor="#9de539"] ;
691 -> 692 ;
693 [label="gini = 0.0\nsamples = 1\nvalue = [0, 0, 1, 0, 0, 0]\nclass = G1", fillcolor="#39e581"] ;
691 -> 693 ;
694 [label="gini = 0.0\nsamples = 2\nvalue = [0, 0, 5, 0, 0, 0]\nclass = G1", fillcolor="#39e581"] ;
690 -> 694 ;
695 [label="gini = 0.0\nsamples = 2\nvalue = [0, 2, 0, 0, 0, 0]\nclass = G0", fillcolor="#9de539"] ;
689 -> 695 ;
696 [label="145Nd_FABP1 <= 1.43\ngini = 0.62\nsamples = 54\nvalue = [2, 8, 44, 0, 30, 3]\nclass = G1", fillcolor="#cef9e0"] ;
614 -> 696 ;
697 [label="145Nd_FABP1 <= 0.95\ngini = 0.61\nsamples = 52\nvalue = [2, 8, 44, 0, 25, 3]\nclass = G1", fillcolor="#bdf6d5"] ;
696 -> 697 ;
698 [label="162Dy_LRIG1 <= 1.8\ngini = 0.62\nsamples = 34\nvalue = [2, 4, 23, 0, 21, 1]\nclass = G1", fillcolor="#f2fdf7"] ;
697 -> 698 ;
699 [label="144Nd_Lysozyme <= 1.15\ngini = 0.45\nsamples = 12\nvalue = [0, 3, 3, 0, 15, 0]\nclass = G2", fillcolor="#ab7bee"] ;
698 -> 699 ;
700 [label="175Lu_CD44 <= 0.06\ngini = 0.13\nsamples = 7\nvalue = [0, 0, 1, 0, 13, 0]\nclass = G2", fillcolor="#8b48e7"] ;
699 -> 700 ;
701 [label="gini = 0.0\nsamples = 5\nvalue = [0, 0, 0, 0, 11, 0]\nclass = G2", fillcolor="#8139e5"] ;
700 -> 701 ;
702 [label="162Dy_LRIG1 <= 1.21\ngini = 0.44\nsamples = 2\nvalue = [0, 0, 1, 0, 2, 0]\nclass = G2", fillcolor="#c09cf2"] ;
700 -> 702 ;
703 [label="gini = 0.0\nsamples = 1\nvalue = [0, 0, 1, 0, 0, 0]\nclass = G1", fillcolor="#39e581"] ;
702 -> 703 ;
704 [label="gini = 0.0\nsamples = 1\nvalue = [0, 0, 0, 0, 2, 0]\nclass = G2", fillcolor="#8139e5"] ;
702 -> 704 ;
705 [label="144Nd_Lysozyme <= 1.26\ngini = 0.65\nsamples = 5\nvalue = [0, 3, 2, 0, 2, 0]\nclass = G0", fillcolor="#ebfad7"] ;
699 -> 705 ;
706 [label="gini = 0.0\nsamples = 1\nvalue = [0, 2, 0, 0, 0, 0]\nclass = G0", fillcolor="#9de539"] ;
705 -> 706 ;
707 [label="171Yb_CLCA1 <= 1.27\ngini = 0.64\nsamples = 4\nvalue = [0, 1, 2, 0, 2, 0]\nclass = G1", fillcolor="#ffffff"] ;
705 -> 707 ;
708 [label="145Nd_FABP1 <= 0.86\ngini = 0.44\nsamples = 3\nvalue = [0, 1, 2, 0, 0, 0]\nclass = G1", fillcolor="#9cf2c0"] ;
707 -> 708 ;
709 [label="gini = 0.0\nsamples = 2\nvalue = [0, 0, 2, 0, 0, 0]\nclass = G1", fillcolor="#39e581"] ;
708 -> 709 ;
710 [label="gini = 0.0\nsamples = 1\nvalue = [0, 1, 0, 0, 0, 0]\nclass = G0", fillcolor="#9de539"] ;
708 -> 710 ;
711 [label="gini = 0.0\nsamples = 1\nvalue = [0, 0, 0, 0, 2, 0]\nclass = G2", fillcolor="#8139e5"] ;
707 -> 711 ;
712 [label="145Nd_FABP1 <= 0.78\ngini = 0.51\nsamples = 22\nvalue = [2, 1, 20, 0, 6, 1]\nclass = G1", fillcolor="#8cf0b6"] ;
698 -> 712 ;
713 [label="173Yb_DCAMKL1 <= 0.86\ngini = 0.38\nsamples = 19\nvalue = [0, 1, 20, 0, 4, 1]\nclass = G1", fillcolor="#6feca3"] ;
712 -> 713 ;
714 [label="144Nd_Lysozyme <= 3.04\ngini = 0.25\nsamples = 15\nvalue = [0, 1, 19, 0, 1, 1]\nclass = G1", fillcolor="#55e993"] ;
713 -> 714 ;
715 [label="174Yb_CHGA <= 0.67\ngini = 0.39\nsamples = 10\nvalue = [0, 1, 10, 0, 1, 1]\nclass = G1", fillcolor="#6beca0"] ;
714 -> 715 ;
716 [label="145Nd_FABP1 <= 0.22\ngini = 0.56\nsamples = 4\nvalue = [0, 1, 3, 0, 0, 1]\nclass = G1", fillcolor="#9cf2c0"] ;
715 -> 716 ;
717 [label="gini = 0.0\nsamples = 2\nvalue = [0, 0, 3, 0, 0, 0]\nclass = G1", fillcolor="#39e581"] ;
716 -> 717 ;
718 [label="144Nd_Lysozyme <= 1.19\ngini = 0.5\nsamples = 2\nvalue = [0, 1, 0, 0, 0, 1]\nclass = G0", fillcolor="#ffffff"] ;
716 -> 718 ;
719 [label="gini = 0.0\nsamples = 1\nvalue = [0, 0, 0, 0, 0, 1]\nclass = M", fillcolor="#e5399d"] ;
718 -> 719 ;
720 [label="gini = 0.0\nsamples = 1\nvalue = [0, 1, 0, 0, 0, 0]\nclass = G0", fillcolor="#9de539"] ;
718 -> 720 ;
721 [label="162Dy_LRIG1 <= 2.49\ngini = 0.22\nsamples = 6\nvalue = [0, 0, 7, 0, 1, 0]\nclass = G1", fillcolor="#55e993"] ;
715 -> 721 ;
722 [label="gini = 0.0\nsamples = 5\nvalue = [0, 0, 7, 0, 0, 0]\nclass = G1", fillcolor="#39e581"] ;
721 -> 722 ;
723 [label="gini = 0.0\nsamples = 1\nvalue = [0, 0, 0, 0, 1, 0]\nclass = G2", fillcolor="#8139e5"] ;
721 -> 723 ;
724 [label="gini = 0.0\nsamples = 5\nvalue = [0, 0, 9, 0, 0, 0]\nclass = G1", fillcolor="#39e581"] ;
714 -> 724 ;
725 [label="174Yb_CHGA <= 1.45\ngini = 0.38\nsamples = 4\nvalue = [0, 0, 1, 0, 3, 0]\nclass = G2", fillcolor="#ab7bee"] ;
713 -> 725 ;
726 [label="gini = 0.0\nsamples = 1\nvalue = [0, 0, 1, 0, 0, 0]\nclass = G1", fillcolor="#39e581"] ;
725 -> 726 ;
727 [label="gini = 0.0\nsamples = 3\nvalue = [0, 0, 0, 0, 3, 0]\nclass = G2", fillcolor="#8139e5"] ;
725 -> 727 ;
728 [label="175Lu_CD44 <= 0.71\ngini = 0.5\nsamples = 3\nvalue = [2, 0, 0, 0, 2, 0]\nclass = apoptosis", fillcolor="#ffffff"] ;
712 -> 728 ;
729 [label="145Nd_FABP1 <= 0.85\ngini = 0.44\nsamples = 2\nvalue = [2, 0, 0, 0, 1, 0]\nclass = apoptosis", fillcolor="#f2c09c"] ;
728 -> 729 ;
730 [label="gini = 0.0\nsamples = 1\nvalue = [2, 0, 0, 0, 0, 0]\nclass = apoptosis", fillcolor="#e58139"] ;
729 -> 730 ;
731 [label="gini = 0.0\nsamples = 1\nvalue = [0, 0, 0, 0, 1, 0]\nclass = G2", fillcolor="#8139e5"] ;
729 -> 731 ;
732 [label="gini = 0.0\nsamples = 1\nvalue = [0, 0, 0, 0, 1, 0]\nclass = G2", fillcolor="#8139e5"] ;
728 -> 732 ;
733 [label="174Yb_CHGA <= 1.08\ngini = 0.5\nsamples = 18\nvalue = [0, 4, 21, 0, 4, 2]\nclass = G1", fillcolor="#82efb0"] ;
697 -> 733 ;
734 [label="173Yb_DCAMKL1 <= 0.29\ngini = 0.69\nsamples = 5\nvalue = [0, 4, 2, 0, 1, 2]\nclass = G0", fillcolor="#e3f8c6"] ;
733 -> 734 ;
735 [label="144Nd_Lysozyme <= 0.1\ngini = 0.57\nsamples = 4\nvalue = [0, 4, 0, 0, 1, 2]\nclass = G0", fillcolor="#d8f5b0"] ;
734 -> 735 ;
736 [label="144Nd_Lysozyme <= 0.03\ngini = 0.44\nsamples = 2\nvalue = [0, 0, 0, 0, 1, 2]\nclass = M", fillcolor="#f29cce"] ;
735 -> 736 ;
737 [label="gini = 0.0\nsamples = 1\nvalue = [0, 0, 0, 0, 0, 2]\nclass = M", fillcolor="#e5399d"] ;
736 -> 737 ;
738 [label="gini = 0.0\nsamples = 1\nvalue = [0, 0, 0, 0, 1, 0]\nclass = G2", fillcolor="#8139e5"] ;
736 -> 738 ;
739 [label="gini = 0.0\nsamples = 2\nvalue = [0, 4, 0, 0, 0, 0]\nclass = G0", fillcolor="#9de539"] ;
735 -> 739 ;
740 [label="gini = 0.0\nsamples = 1\nvalue = [0, 0, 2, 0, 0, 0]\nclass = G1", fillcolor="#39e581"] ;
734 -> 740 ;
741 [label="162Dy_LRIG1 <= 1.37\ngini = 0.24\nsamples = 13\nvalue = [0, 0, 19, 0, 3, 0]\nclass = G1", fillcolor="#58e995"] ;
733 -> 741 ;
742 [label="gini = 0.0\nsamples = 4\nvalue = [0, 0, 9, 0, 0, 0]\nclass = G1", fillcolor="#39e581"] ;
741 -> 742 ;
743 [label="174Yb_CHGA <= 1.86\ngini = 0.36\nsamples = 9\nvalue = [0, 0, 10, 0, 3, 0]\nclass = G1", fillcolor="#74eda7"] ;
741 -> 743 ;
744 [label="162Dy_LRIG1 <= 1.81\ngini = 0.48\nsamples = 5\nvalue = [0, 0, 3, 0, 2, 0]\nclass = G1", fillcolor="#bdf6d5"] ;
743 -> 744 ;
745 [label="173Yb_DCAMKL1 <= 0.38\ngini = 0.44\nsamples = 3\nvalue = [0, 0, 1, 0, 2, 0]\nclass = G2", fillcolor="#c09cf2"] ;
744 -> 745 ;
746 [label="gini = 0.0\nsamples = 2\nvalue = [0, 0, 0, 0, 2, 0]\nclass = G2", fillcolor="#8139e5"] ;
745 -> 746 ;
747 [label="gini = 0.0\nsamples = 1\nvalue = [0, 0, 1, 0, 0, 0]\nclass = G1", fillcolor="#39e581"] ;
745 -> 747 ;
748 [label="gini = 0.0\nsamples = 2\nvalue = [0, 0, 2, 0, 0, 0]\nclass = G1", fillcolor="#39e581"] ;
744 -> 748 ;
749 [label="145Nd_FABP1 <= 1.17\ngini = 0.22\nsamples = 4\nvalue = [0, 0, 7, 0, 1, 0]\nclass = G1", fillcolor="#55e993"] ;
743 -> 749 ;
750 [label="gini = 0.0\nsamples = 2\nvalue = [0, 0, 6, 0, 0, 0]\nclass = G1", fillcolor="#39e581"] ;
749 -> 750 ;
751 [label="171Yb_CLCA1 <= 1.33\ngini = 0.5\nsamples = 2\nvalue = [0, 0, 1, 0, 1, 0]\nclass = G1", fillcolor="#ffffff"] ;
749 -> 751 ;
752 [label="gini = 0.0\nsamples = 1\nvalue = [0, 0, 1, 0, 0, 0]\nclass = G1", fillcolor="#39e581"] ;
751 -> 752 ;
753 [label="gini = 0.0\nsamples = 1\nvalue = [0, 0, 0, 0, 1, 0]\nclass = G2", fillcolor="#8139e5"] ;
751 -> 753 ;
754 [label="gini = 0.0\nsamples = 2\nvalue = [0, 0, 0, 0, 5, 0]\nclass = G2", fillcolor="#8139e5"] ;
696 -> 754 ;
755 [label="174Yb_CHGA <= 1.14\ngini = 0.73\nsamples = 31\nvalue = [4, 16, 17, 2, 13, 0]\nclass = G1", fillcolor="#fafefc"] ;
613 -> 755 ;
756 [label="174Yb_CHGA <= 0.84\ngini = 0.66\nsamples = 13\nvalue = [4, 12, 6, 1, 1, 0]\nclass = G0", fillcolor="#def6bd"] ;
755 -> 756 ;
757 [label="175Lu_CD44 <= 0.26\ngini = 0.71\nsamples = 11\nvalue = [4, 7, 6, 1, 1, 0]\nclass = G0", fillcolor="#f7fdf0"] ;
756 -> 757 ;
758 [label="144Nd_Lysozyme <= 0.61\ngini = 0.61\nsamples = 7\nvalue = [1, 7, 2, 1, 1, 0]\nclass = G0", fillcolor="#cef29c"] ;
757 -> 758 ;
759 [label="144Nd_Lysozyme <= 0.25\ngini = 0.5\nsamples = 2\nvalue = [1, 0, 0, 1, 0, 0]\nclass = apoptosis", fillcolor="#ffffff"] ;
758 -> 759 ;
760 [label="gini = 0.0\nsamples = 1\nvalue = [0, 0, 0, 1, 0, 0]\nclass = S", fillcolor="#399de5"] ;
759 -> 760 ;
761 [label="gini = 0.0\nsamples = 1\nvalue = [1, 0, 0, 0, 0, 0]\nclass = apoptosis", fillcolor="#e58139"] ;
759 -> 761 ;
762 [label="144Nd_Lysozyme <= 4.75\ngini = 0.46\nsamples = 5\nvalue = [0, 7, 2, 0, 1, 0]\nclass = G0", fillcolor="#c2ef83"] ;
758 -> 762 ;
763 [label="144Nd_Lysozyme <= 1.85\ngini = 0.61\nsamples = 4\nvalue = [0, 3, 2, 0, 1, 0]\nclass = G0", fillcolor="#e6f8ce"] ;
762 -> 763 ;
764 [label="gini = 0.0\nsamples = 1\nvalue = [0, 3, 0, 0, 0, 0]\nclass = G0", fillcolor="#9de539"] ;
763 -> 764 ;
765 [label="162Dy_LRIG1 <= 1.86\ngini = 0.44\nsamples = 3\nvalue = [0, 0, 2, 0, 1, 0]\nclass = G1", fillcolor="#9cf2c0"] ;
763 -> 765 ;
766 [label="gini = 0.0\nsamples = 2\nvalue = [0, 0, 2, 0, 0, 0]\nclass = G1", fillcolor="#39e581"] ;
765 -> 766 ;
767 [label="gini = 0.0\nsamples = 1\nvalue = [0, 0, 0, 0, 1, 0]\nclass = G2", fillcolor="#8139e5"] ;
765 -> 767 ;
768 [label="gini = 0.0\nsamples = 1\nvalue = [0, 4, 0, 0, 0, 0]\nclass = G0", fillcolor="#9de539"] ;
762 -> 768 ;
769 [label="162Dy_LRIG1 <= 1.66\ngini = 0.49\nsamples = 4\nvalue = [3, 0, 4, 0, 0, 0]\nclass = G1", fillcolor="#cef8e0"] ;
757 -> 769 ;
770 [label="gini = 0.0\nsamples = 1\nvalue = [2, 0, 0, 0, 0, 0]\nclass = apoptosis", fillcolor="#e58139"] ;
769 -> 770 ;
771 [label="145Nd_FABP1 <= 0.12\ngini = 0.32\nsamples = 3\nvalue = [1, 0, 4, 0, 0, 0]\nclass = G1", fillcolor="#6aeca0"] ;
769 -> 771 ;
772 [label="gini = 0.0\nsamples = 2\nvalue = [0, 0, 4, 0, 0, 0]\nclass = G1", fillcolor="#39e581"] ;
771 -> 772 ;
773 [label="gini = 0.0\nsamples = 1\nvalue = [1, 0, 0, 0, 0, 0]\nclass = apoptosis", fillcolor="#e58139"] ;
771 -> 773 ;
774 [label="gini = 0.0\nsamples = 2\nvalue = [0, 5, 0, 0, 0, 0]\nclass = G0", fillcolor="#9de539"] ;
756 -> 774 ;
775 [label="145Nd_FABP1 <= 0.86\ngini = 0.64\nsamples = 18\nvalue = [0, 4, 11, 1, 12, 0]\nclass = G2", fillcolor="#f8f3fd"] ;
755 -> 775 ;
776 [label="144Nd_Lysozyme <= 0.34\ngini = 0.46\nsamples = 13\nvalue = [0, 0, 11, 1, 4, 0]\nclass = G1", fillcolor="#8cf0b6"] ;
775 -> 776 ;
777 [label="175Lu_CD44 <= 0.95\ngini = 0.5\nsamples = 6\nvalue = [0, 0, 1, 1, 4, 0]\nclass = G2", fillcolor="#b388ef"] ;
776 -> 777 ;
778 [label="173Yb_DCAMKL1 <= 0.97\ngini = 0.32\nsamples = 5\nvalue = [0, 0, 1, 0, 4, 0]\nclass = G2", fillcolor="#a06aec"] ;
777 -> 778 ;
779 [label="gini = 0.0\nsamples = 4\nvalue = [0, 0, 0, 0, 4, 0]\nclass = G2", fillcolor="#8139e5"] ;
778 -> 779 ;
780 [label="gini = 0.0\nsamples = 1\nvalue = [0, 0, 1, 0, 0, 0]\nclass = G1", fillcolor="#39e581"] ;
778 -> 780 ;
781 [label="gini = 0.0\nsamples = 1\nvalue = [0, 0, 0, 1, 0, 0]\nclass = S", fillcolor="#399de5"] ;
777 -> 781 ;
782 [label="gini = 0.0\nsamples = 7\nvalue = [0, 0, 10, 0, 0, 0]\nclass = G1", fillcolor="#39e581"] ;
776 -> 782 ;
783 [label="145Nd_FABP1 <= 1.49\ngini = 0.44\nsamples = 5\nvalue = [0, 4, 0, 0, 8, 0]\nclass = G2", fillcolor="#c09cf2"] ;
775 -> 783 ;
784 [label="gini = 0.0\nsamples = 4\nvalue = [0, 0, 0, 0, 8, 0]\nclass = G2", fillcolor="#8139e5"] ;
783 -> 784 ;
785 [label="gini = 0.0\nsamples = 1\nvalue = [0, 4, 0, 0, 0, 0]\nclass = G0", fillcolor="#9de539"] ;
783 -> 785 ;
