digraph Tree {
node [shape=box, style="filled, rounded", color="black", fontname="helvetica"] ;
edge [fontname="helvetica"] ;
0 [label="150Nd_pRB <= 1.08\ngini = 0.83\nsamples = 16798\nvalue = [4435, 4473, 4418, 4425, 4415, 4448]\nclass = G0", fillcolor="#ffffff"] ;
1 [label="150Nd_pRB <= 0.14\ngini = 0.5\nsamples = 5618\nvalue = [4435, 4473, 0, 0, 0, 0]\nclass = G0", fillcolor="#fefffd"] ;
0 -> 1 [labeldistance=2.5, labelangle=45, headlabel="True"] ;
2 [label="142Nd_cCaspase_3 <= 3.92\ngini = 0.49\nsamples = 2851\nvalue = [2041, 2521, 0, 0, 0, 0]\nclass = G0", fillcolor="#ecfad9"] ;
1 -> 2 ;
3 [label="gini = 0.0\nsamples = 1568\nvalue = [0, 2521, 0, 0, 0, 0]\nclass = G0", fillcolor="#9de539"] ;
2 -> 3 ;
4 [label="gini = 0.0\nsamples = 1283\nvalue = [2041, 0, 0, 0, 0, 0]\nclass = apoptosis", fillcolor="#e58139"] ;
2 -> 4 ;
5 [label="176Yb_Cyclin_B1 <= 3.44\ngini = 0.49\nsamples = 2767\nvalue = [2394, 1952, 0, 0, 0, 0]\nclass = apoptosis", fillcolor="#fae8da"] ;
1 -> 5 ;
6 [label="89Y_pHH3 <= 0.01\ngini = 0.5\nsamples = 1976\nvalue = [1654, 1481, 0, 0, 0, 0]\nclass = apoptosis", fillcolor="#fcf2ea"] ;
5 -> 6 ;
7 [label="142Nd_cCaspase_3 <= 3.92\ngini = 0.5\nsamples = 1470\nvalue = [1184, 1156, 0, 0, 0, 0]\nclass = apoptosis", fillcolor="#fefcfa"] ;
6 -> 7 ;
8 [label="gini = 0.0\nsamples = 717\nvalue = [0, 1156, 0, 0, 0, 0]\nclass = G0", fillcolor="#9de539"] ;
7 -> 8 ;
9 [label="gini = 0.0\nsamples = 753\nvalue = [1184, 0, 0, 0, 0, 0]\nclass = apoptosis", fillcolor="#e58139"] ;
7 -> 9 ;
10 [label="89Y_pHH3 <= 0.26\ngini = 0.48\nsamples = 506\nvalue = [470, 325, 0, 0, 0, 0]\nclass = apoptosis", fillcolor="#f7d8c2"] ;
6 -> 10 ;
11 [label="142Nd_cCaspase_3 <= 3.92\ngini = 0.45\nsamples = 256\nvalue = [260, 136, 0, 0, 0, 0]\nclass = apoptosis", fillcolor="#f3c3a1"] ;
10 -> 11 ;
12 [label="gini = 0.0\nsamples = 93\nvalue = [0, 136, 0, 0, 0, 0]\nclass = G0", fillcolor="#9de539"] ;
11 -> 12 ;
13 [label="gini = 0.0\nsamples = 163\nvalue = [260, 0, 0, 0, 0, 0]\nclass = apoptosis", fillcolor="#e58139"] ;
11 -> 13 ;
14 [label="142Nd_cCaspase_3 <= 3.92\ngini = 0.5\nsamples = 250\nvalue = [210, 189, 0, 0, 0, 0]\nclass = apoptosis", fillcolor="#fcf2eb"] ;
10 -> 14 ;
15 [label="gini = 0.0\nsamples = 112\nvalue = [0, 189, 0, 0, 0, 0]\nclass = G0", fillcolor="#9de539"] ;
14 -> 15 ;
16 [label="gini = 0.0\nsamples = 138\nvalue = [210, 0, 0, 0, 0, 0]\nclass = apoptosis", fillcolor="#e58139"] ;
14 -> 16 ;
17 [label="142Nd_cCaspase_3 <= 3.92\ngini = 0.48\nsamples = 791\nvalue = [740, 471, 0, 0, 0, 0]\nclass = apoptosis", fillcolor="#f6d1b7"] ;
5 -> 17 ;
18 [label="gini = 0.0\nsamples = 312\nvalue = [0, 471, 0, 0, 0, 0]\nclass = G0", fillcolor="#9de539"] ;
17 -> 18 ;
19 [label="gini = 0.0\nsamples = 479\nvalue = [740, 0, 0, 0, 0, 0]\nclass = apoptosis", fillcolor="#e58139"] ;
17 -> 19 ;
20 [label="127I_IdU <= 4.04\ngini = 0.75\nsamples = 11180\nvalue = [0, 0, 4418, 4425, 4415, 4448]\nclass = M", fillcolor="#ffffff"] ;
0 -> 20 [labeldistance=2.5, labelangle=-45, headlabel="False"] ;
21 [label="176Yb_Cyclin_B1 <= 4.77\ngini = 0.67\nsamples = 8365\nvalue = [0, 0, 4418, 0, 4415, 4448]\nclass = M", fillcolor="#fffeff"] ;
20 -> 21 ;
22 [label="142Nd_cCaspase_3 <= 2.54\ngini = 0.5\nsamples = 5454\nvalue = [0, 0, 4418, 0, 1, 4261]\nclass = G1", fillcolor="#f8fefb"] ;
21 -> 22 ;
23 [label="89Y_pHH3 <= 2.94\ngini = 0.49\nsamples = 4163\nvalue = [0, 0, 2896, 0, 0, 3766]\nclass = M", fillcolor="#f9d1e8"] ;
22 -> 23 ;
24 [label="gini = 0.0\nsamples = 1821\nvalue = [0, 0, 2896, 0, 0, 0]\nclass = G1", fillcolor="#39e581"] ;
23 -> 24 ;
25 [label="gini = 0.0\nsamples = 2342\nvalue = [0, 0, 0, 0, 0, 3766]\nclass = M", fillcolor="#e5399d"] ;
23 -> 25 ;
26 [label="89Y_pHH3 <= 2.94\ngini = 0.37\nsamples = 1291\nvalue = [0, 0, 1522, 0, 1, 495]\nclass = G1", fillcolor="#79edaa"] ;
22 -> 26 ;
27 [label="142Nd_cCaspase_3 <= 2.95\ngini = 0.0\nsamples = 974\nvalue = [0, 0, 1522, 0, 1, 0]\nclass = G1", fillcolor="#39e581"] ;
26 -> 27 ;
28 [label="gini = 0.0\nsamples = 551\nvalue = [0, 0, 871, 0, 0, 0]\nclass = G1", fillcolor="#39e581"] ;
27 -> 28 ;
29 [label="142Nd_cCaspase_3 <= 2.95\ngini = 0.0\nsamples = 423\nvalue = [0, 0, 651, 0, 1, 0]\nclass = G1", fillcolor="#39e581"] ;
27 -> 29 ;
30 [label="gini = 0.0\nsamples = 1\nvalue = [0, 0, 0, 0, 1, 0]\nclass = G2", fillcolor="#8139e5"] ;
29 -> 30 ;
31 [label="gini = 0.0\nsamples = 422\nvalue = [0, 0, 651, 0, 0, 0]\nclass = G1", fillcolor="#39e581"] ;
29 -> 31 ;
32 [label="gini = 0.0\nsamples = 317\nvalue = [0, 0, 0, 0, 0, 495]\nclass = M", fillcolor="#e5399d"] ;
26 -> 32 ;
33 [label="142Nd_cCaspase_3 <= 2.07\ngini = 0.08\nsamples = 2911\nvalue = [0, 0, 0, 0, 4414, 187]\nclass = G2", fillcolor="#8641e6"] ;
21 -> 33 ;
34 [label="176Yb_Cyclin_B1 <= 6.05\ngini = 0.19\nsamples = 636\nvalue = [0, 0, 0, 0, 906, 105]\nclass = G2", fillcolor="#9050e8"] ;
33 -> 34 ;
35 [label="89Y_pHH3 <= 2.72\ngini = 0.2\nsamples = 564\nvalue = [0, 0, 0, 0, 796, 104]\nclass = G2", fillcolor="#9153e8"] ;
34 -> 35 ;
36 [label="gini = 0.0\nsamples = 500\nvalue = [0, 0, 0, 0, 796, 0]\nclass = G2", fillcolor="#8139e5"] ;
35 -> 36 ;
37 [label="gini = 0.0\nsamples = 64\nvalue = [0, 0, 0, 0, 0, 104]\nclass = M", fillcolor="#e5399d"] ;
35 -> 37 ;
38 [label="142Nd_cCaspase_3 <= 1.93\ngini = 0.02\nsamples = 72\nvalue = [0, 0, 0, 0, 110, 1]\nclass = G2", fillcolor="#823be5"] ;
34 -> 38 ;
39 [label="gini = 0.0\nsamples = 65\nvalue = [0, 0, 0, 0, 101, 0]\nclass = G2", fillcolor="#8139e5"] ;
38 -> 39 ;
40 [label="142Nd_cCaspase_3 <= 1.98\ngini = 0.18\nsamples = 7\nvalue = [0, 0, 0, 0, 9, 1]\nclass = G2", fillcolor="#8f4fe8"] ;
38 -> 40 ;
41 [label="gini = 0.0\nsamples = 1\nvalue = [0, 0, 0, 0, 0, 1]\nclass = M", fillcolor="#e5399d"] ;
40 -> 41 ;
42 [label="gini = 0.0\nsamples = 6\nvalue = [0, 0, 0, 0, 9, 0]\nclass = G2", fillcolor="#8139e5"] ;
40 -> 42 ;
43 [label="142Nd_cCaspase_3 <= 2.84\ngini = 0.04\nsamples = 2275\nvalue = [0, 0, 0, 0, 3508, 82]\nclass = G2", fillcolor="#843ee6"] ;
33 -> 43 ;
44 [label="89Y_pHH3 <= 3.0\ngini = 0.07\nsamples = 1279\nvalue = [0, 0, 0, 0, 1926, 76]\nclass = G2", fillcolor="#8641e6"] ;
43 -> 44 ;
45 [label="gini = 0.0\nsamples = 1232\nvalue = [0, 0, 0, 0, 1926, 0]\nclass = G2", fillcolor="#8139e5"] ;
44 -> 45 ;
46 [label="gini = 0.0\nsamples = 47\nvalue = [0, 0, 0, 0, 0, 76]\nclass = M", fillcolor="#e5399d"] ;
44 -> 46 ;
47 [label="142Nd_cCaspase_3 <= 3.48\ngini = 0.01\nsamples = 996\nvalue = [0, 0, 0, 0, 1582, 6]\nclass = G2", fillcolor="#813ae5"] ;
43 -> 47 ;
48 [label="89Y_pHH3 <= 3.19\ngini = 0.01\nsamples = 982\nvalue = [0, 0, 0, 0, 1563, 5]\nclass = G2", fillcolor="#813ae5"] ;
47 -> 48 ;
49 [label="gini = 0.0\nsamples = 978\nvalue = [0, 0, 0, 0, 1563, 0]\nclass = G2", fillcolor="#8139e5"] ;
48 -> 49 ;
50 [label="gini = 0.0\nsamples = 4\nvalue = [0, 0, 0, 0, 0, 5]\nclass = M", fillcolor="#e5399d"] ;
48 -> 50 ;
51 [label="176Yb_Cyclin_B1 <= 4.79\ngini = 0.09\nsamples = 14\nvalue = [0, 0, 0, 0, 19, 1]\nclass = G2", fillcolor="#8843e6"] ;
47 -> 51 ;
52 [label="gini = 0.0\nsamples = 1\nvalue = [0, 0, 0, 0, 0, 1]\nclass = M", fillcolor="#e5399d"] ;
51 -> 52 ;
53 [label="gini = 0.0\nsamples = 13\nvalue = [0, 0, 0, 0, 19, 0]\nclass = G2", fillcolor="#8139e5"] ;
51 -> 53 ;
54 [label="gini = 0.0\nsamples = 2815\nvalue = [0, 0, 0, 4425, 0, 0]\nclass = S", fillcolor="#399de5"] ;
20 -> 54 ;
}