digraph Tree {
node [shape=box, style="filled, rounded", color="black", fontname=helvetica] ;
edge [fontname=helvetica] ;
0 [label="127I_IdU <= 4.02\ngini = 0.83\nsamples = 20290\nvalue = [5276, 5369, 5369, 5305, 5334, 5352]\nclass = G0", fillcolor="#ffffff"] ;
1 [label="150Nd_pRB <= 1.95\ngini = 0.8\nsamples = 16866\nvalue = [5275, 5361, 5369, 0, 5334, 5352]\nclass = G1", fillcolor="#ffffff"] ;
0 -> 1 [labeldistance=2.5, labelangle=45, headlabel="True"] ;
2 [label="89Y_pHH3 <= 0.01\ngini = 0.5\nsamples = 6727\nvalue = [5275, 5361, 0, 0, 0, 0]\nclass = G0", fillcolor="#fdfffc"] ;
1 -> 2 ;
3 [label="176Yb_Cyclin B1 <= 2.27\ngini = 0.5\nsamples = 4711\nvalue = [3400, 3996, 0, 0, 0, 0]\nclass = G0", fillcolor="#f0fbe1"] ;
2 -> 3 ;
4 [label="150Nd_pRB <= 0.22\ngini = 0.42\nsamples = 1610\nvalue = [750, 1790, 0, 0, 0, 0]\nclass = G0", fillcolor="#c6f08c"] ;
3 -> 4 ;
5 [label="142Nd_cCaspase 3 <= 3.67\ngini = 0.36\nsamples = 991\nvalue = [368, 1213, 0, 0, 0, 0]\nclass = G0", fillcolor="#bbed75"] ;
4 -> 5 ;
6 [label="gini = 0.0\nsamples = 749\nvalue = [0, 1213, 0, 0, 0, 0]\nclass = G0", fillcolor="#9de539"] ;
5 -> 6 ;
7 [label="gini = 0.0\nsamples = 242\nvalue = [368, 0, 0, 0, 0, 0]\nclass = apoptosis", fillcolor="#e58139"] ;
5 -> 7 ;
8 [label="150Nd_pRB <= 0.71\ngini = 0.48\nsamples = 619\nvalue = [382, 577, 0, 0, 0, 0]\nclass = G0", fillcolor="#def6bc"] ;
4 -> 8 ;
9 [label="89Y_pHH3 <= 0.0\ngini = 0.46\nsamples = 364\nvalue = [197, 357, 0, 0, 0, 0]\nclass = G0", fillcolor="#d3f3a6"] ;
8 -> 9 ;
10 [label="142Nd_cCaspase 3 <= 3.67\ngini = 0.46\nsamples = 361\nvalue = [194, 356, 0, 0, 0, 0]\nclass = G0", fillcolor="#d2f3a5"] ;
9 -> 10 ;
11 [label="gini = 0.0\nsamples = 230\nvalue = [0, 356, 0, 0, 0, 0]\nclass = G0", fillcolor="#9de539"] ;
10 -> 11 ;
12 [label="gini = 0.0\nsamples = 131\nvalue = [194, 0, 0, 0, 0, 0]\nclass = apoptosis", fillcolor="#e58139"] ;
10 -> 12 ;
13 [label="89Y_pHH3 <= 0.01\ngini = 0.38\nsamples = 3\nvalue = [3, 1, 0, 0, 0, 0]\nclass = apoptosis", fillcolor="#eeab7b"] ;
9 -> 13 ;
14 [label="gini = 0.0\nsamples = 2\nvalue = [3, 0, 0, 0, 0, 0]\nclass = apoptosis", fillcolor="#e58139"] ;
13 -> 14 ;
15 [label="gini = 0.0\nsamples = 1\nvalue = [0, 1, 0, 0, 0, 0]\nclass = G0", fillcolor="#9de539"] ;
13 -> 15 ;
16 [label="176Yb_Cyclin B1 <= 0.18\ngini = 0.5\nsamples = 255\nvalue = [185, 220, 0, 0, 0, 0]\nclass = G0", fillcolor="#effbe0"] ;
8 -> 16 ;
17 [label="142Nd_cCaspase 3 <= 3.66\ngini = 0.45\nsamples = 87\nvalue = [47, 91, 0, 0, 0, 0]\nclass = G0", fillcolor="#d0f29f"] ;
16 -> 17 ;
18 [label="gini = 0.0\nsamples = 56\nvalue = [0, 91, 0, 0, 0, 0]\nclass = G0", fillcolor="#9de539"] ;
17 -> 18 ;
19 [label="gini = 0.0\nsamples = 31\nvalue = [47, 0, 0, 0, 0, 0]\nclass = apoptosis", fillcolor="#e58139"] ;
17 -> 19 ;
20 [label="142Nd_cCaspase 3 <= 3.67\ngini = 0.5\nsamples = 168\nvalue = [138, 129, 0, 0, 0, 0]\nclass = apoptosis", fillcolor="#fdf7f2"] ;
16 -> 20 ;
21 [label="gini = 0.0\nsamples = 74\nvalue = [0, 129, 0, 0, 0, 0]\nclass = G0", fillcolor="#9de539"] ;
20 -> 21 ;
22 [label="gini = 0.0\nsamples = 94\nvalue = [138, 0, 0, 0, 0, 0]\nclass = apoptosis", fillcolor="#e58139"] ;
20 -> 22 ;
23 [label="150Nd_pRB <= 0.24\ngini = 0.5\nsamples = 3101\nvalue = [2650, 2206, 0, 0, 0, 0]\nclass = apoptosis", fillcolor="#fbeade"] ;
3 -> 23 ;
24 [label="150Nd_pRB <= 0.0\ngini = 0.5\nsamples = 1531\nvalue = [1102, 1298, 0, 0, 0, 0]\nclass = G0", fillcolor="#f0fbe1"] ;
23 -> 24 ;
25 [label="176Yb_Cyclin B1 <= 3.69\ngini = 0.49\nsamples = 1035\nvalue = [693, 926, 0, 0, 0, 0]\nclass = G0", fillcolor="#e6f8cd"] ;
24 -> 25 ;
26 [label="142Nd_cCaspase 3 <= 3.67\ngini = 0.48\nsamples = 824\nvalue = [507, 768, 0, 0, 0, 0]\nclass = G0", fillcolor="#def6bc"] ;
25 -> 26 ;
27 [label="gini = 0.0\nsamples = 493\nvalue = [0, 768, 0, 0, 0, 0]\nclass = G0", fillcolor="#9de539"] ;
26 -> 27 ;
28 [label="gini = 0.0\nsamples = 331\nvalue = [507, 0, 0, 0, 0, 0]\nclass = apoptosis", fillcolor="#e58139"] ;
26 -> 28 ;
29 [label="142Nd_cCaspase 3 <= 3.68\ngini = 0.5\nsamples = 211\nvalue = [186, 158, 0, 0, 0, 0]\nclass = apoptosis", fillcolor="#fbece1"] ;
25 -> 29 ;
30 [label="gini = 0.0\nsamples = 93\nvalue = [0, 158, 0, 0, 0, 0]\nclass = G0", fillcolor="#9de539"] ;
29 -> 30 ;
31 [label="gini = 0.0\nsamples = 118\nvalue = [186, 0, 0, 0, 0, 0]\nclass = apoptosis", fillcolor="#e58139"] ;
29 -> 31 ;
32 [label="176Yb_Cyclin B1 <= 2.9\ngini = 0.5\nsamples = 496\nvalue = [409, 372, 0, 0, 0, 0]\nclass = apoptosis", fillcolor="#fdf4ed"] ;
24 -> 32 ;
33 [label="142Nd_cCaspase 3 <= 3.65\ngini = 0.49\nsamples = 140\nvalue = [90, 121, 0, 0, 0, 0]\nclass = G0", fillcolor="#e6f8cc"] ;
32 -> 33 ;
34 [label="gini = 0.0\nsamples = 79\nvalue = [0, 121, 0, 0, 0, 0]\nclass = G0", fillcolor="#9de539"] ;
33 -> 34 ;
35 [label="gini = 0.0\nsamples = 61\nvalue = [90, 0, 0, 0, 0, 0]\nclass = apoptosis", fillcolor="#e58139"] ;
33 -> 35 ;
36 [label="142Nd_cCaspase 3 <= 3.67\ngini = 0.49\nsamples = 356\nvalue = [319, 251, 0, 0, 0, 0]\nclass = apoptosis", fillcolor="#f9e4d5"] ;
32 -> 36 ;
37 [label="gini = 0.0\nsamples = 156\nvalue = [0, 251, 0, 0, 0, 0]\nclass = G0", fillcolor="#9de539"] ;
36 -> 37 ;
38 [label="gini = 0.0\nsamples = 200\nvalue = [319, 0, 0, 0, 0, 0]\nclass = apoptosis", fillcolor="#e58139"] ;
36 -> 38 ;
39 [label="176Yb_Cyclin B1 <= 3.1\ngini = 0.47\nsamples = 1570\nvalue = [1548, 908, 0, 0, 0, 0]\nclass = apoptosis", fillcolor="#f4cbad"] ;
23 -> 39 ;
40 [label="150Nd_pRB <= 1.61\ngini = 0.49\nsamples = 583\nvalue = [514, 400, 0, 0, 0, 0]\nclass = apoptosis", fillcolor="#f9e3d3"] ;
39 -> 40 ;
41 [label="142Nd_cCaspase 3 <= 3.67\ngini = 0.49\nsamples = 567\nvalue = [512, 380, 0, 0, 0, 0]\nclass = apoptosis", fillcolor="#f8dfcc"] ;
40 -> 41 ;
42 [label="gini = 0.0\nsamples = 239\nvalue = [0, 380, 0, 0, 0, 0]\nclass = G0", fillcolor="#9de539"] ;
41 -> 42 ;
43 [label="gini = 0.0\nsamples = 328\nvalue = [512, 0, 0, 0, 0, 0]\nclass = apoptosis", fillcolor="#e58139"] ;
41 -> 43 ;
44 [label="142Nd_cCaspase 3 <= 3.64\ngini = 0.17\nsamples = 16\nvalue = [2, 20, 0, 0, 0, 0]\nclass = G0", fillcolor="#a7e84d"] ;
40 -> 44 ;
45 [label="gini = 0.0\nsamples = 14\nvalue = [0, 20, 0, 0, 0, 0]\nclass = G0", fillcolor="#9de539"] ;
44 -> 45 ;
46 [label="gini = 0.0\nsamples = 2\nvalue = [2, 0, 0, 0, 0, 0]\nclass = apoptosis", fillcolor="#e58139"] ;
44 -> 46 ;
47 [label="142Nd_cCaspase 3 <= 3.67\ngini = 0.44\nsamples = 987\nvalue = [1034, 508, 0, 0, 0, 0]\nclass = apoptosis", fillcolor="#f2bf9a"] ;
39 -> 47 ;
48 [label="gini = 0.0\nsamples = 329\nvalue = [0, 508, 0, 0, 0, 0]\nclass = G0", fillcolor="#9de539"] ;
47 -> 48 ;
49 [label="gini = 0.0\nsamples = 658\nvalue = [1034, 0, 0, 0, 0, 0]\nclass = apoptosis", fillcolor="#e58139"] ;
47 -> 49 ;
50 [label="150Nd_pRB <= 0.02\ngini = 0.49\nsamples = 2016\nvalue = [1875, 1365, 0, 0, 0, 0]\nclass = apoptosis", fillcolor="#f8ddc9"] ;
2 -> 50 ;
51 [label="89Y_pHH3 <= 0.58\ngini = 0.49\nsamples = 630\nvalue = [440, 554, 0, 0, 0, 0]\nclass = G0", fillcolor="#ebfad6"] ;
50 -> 51 ;
52 [label="176Yb_Cyclin B1 <= 3.44\ngini = 0.49\nsamples = 526\nvalue = [349, 486, 0, 0, 0, 0]\nclass = G0", fillcolor="#e3f8c7"] ;
51 -> 52 ;
53 [label="150Nd_pRB <= 0.02\ngini = 0.46\nsamples = 392\nvalue = [224, 392, 0, 0, 0, 0]\nclass = G0", fillcolor="#d5f4aa"] ;
52 -> 53 ;
54 [label="150Nd_pRB <= 0.01\ngini = 0.47\nsamples = 388\nvalue = [224, 381, 0, 0, 0, 0]\nclass = G0", fillcolor="#d7f4ad"] ;
53 -> 54 ;
55 [label="142Nd_cCaspase 3 <= 3.67\ngini = 0.46\nsamples = 382\nvalue = [215, 380, 0, 0, 0, 0]\nclass = G0", fillcolor="#d4f4a9"] ;
54 -> 55 ;
56 [label="gini = 0.0\nsamples = 247\nvalue = [0, 380, 0, 0, 0, 0]\nclass = G0", fillcolor="#9de539"] ;
55 -> 56 ;
57 [label="gini = 0.0\nsamples = 135\nvalue = [215, 0, 0, 0, 0, 0]\nclass = apoptosis", fillcolor="#e58139"] ;
55 -> 57 ;
58 [label="142Nd_cCaspase 3 <= 2.9\ngini = 0.18\nsamples = 6\nvalue = [9, 1, 0, 0, 0, 0]\nclass = apoptosis", fillcolor="#e88f4f"] ;
54 -> 58 ;
59 [label="gini = 0.0\nsamples = 1\nvalue = [0, 1, 0, 0, 0, 0]\nclass = G0", fillcolor="#9de539"] ;
58 -> 59 ;
60 [label="gini = 0.0\nsamples = 5\nvalue = [9, 0, 0, 0, 0, 0]\nclass = apoptosis", fillcolor="#e58139"] ;
58 -> 60 ;
61 [label="gini = 0.0\nsamples = 4\nvalue = [0, 11, 0, 0, 0, 0]\nclass = G0", fillcolor="#9de539"] ;
53 -> 61 ;
62 [label="89Y_pHH3 <= 0.08\ngini = 0.49\nsamples = 134\nvalue = [125, 94, 0, 0, 0, 0]\nclass = apoptosis", fillcolor="#f9e0ce"] ;
52 -> 62 ;
63 [label="142Nd_cCaspase 3 <= 3.57\ngini = 0.32\nsamples = 25\nvalue = [36, 9, 0, 0, 0, 0]\nclass = apoptosis", fillcolor="#eca06a"] ;
62 -> 63 ;
64 [label="gini = 0.0\nsamples = 4\nvalue = [0, 9, 0, 0, 0, 0]\nclass = G0", fillcolor="#9de539"] ;
63 -> 64 ;
65 [label="gini = 0.0\nsamples = 21\nvalue = [36, 0, 0, 0, 0, 0]\nclass = apoptosis", fillcolor="#e58139"] ;
63 -> 65 ;
66 [label="127I_IdU <= 0.85\ngini = 0.5\nsamples = 109\nvalue = [89, 85, 0, 0, 0, 0]\nclass = apoptosis", fillcolor="#fef9f6"] ;
62 -> 66 ;
67 [label="127I_IdU <= 0.76\ngini = 0.5\nsamples = 97\nvalue = [75, 81, 0, 0, 0, 0]\nclass = G0", fillcolor="#f8fdf0"] ;
66 -> 67 ;
68 [label="150Nd_pRB <= 0.01\ngini = 0.5\nsamples = 95\nvalue = [75, 76, 0, 0, 0, 0]\nclass = G0", fillcolor="#fefffc"] ;
67 -> 68 ;
69 [label="142Nd_cCaspase 3 <= 3.65\ngini = 0.5\nsamples = 93\nvalue = [75, 70, 0, 0, 0, 0]\nclass = apoptosis", fillcolor="#fdf7f2"] ;
68 -> 69 ;
70 [label="gini = 0.0\nsamples = 45\nvalue = [0, 70, 0, 0, 0, 0]\nclass = G0", fillcolor="#9de539"] ;
69 -> 70 ;
71 [label="gini = 0.0\nsamples = 48\nvalue = [75, 0, 0, 0, 0, 0]\nclass = apoptosis", fillcolor="#e58139"] ;
69 -> 71 ;
72 [label="gini = 0.0\nsamples = 2\nvalue = [0, 6, 0, 0, 0, 0]\nclass = G0", fillcolor="#9de539"] ;
68 -> 72 ;
73 [label="gini = 0.0\nsamples = 2\nvalue = [0, 5, 0, 0, 0, 0]\nclass = G0", fillcolor="#9de539"] ;
67 -> 73 ;
74 [label="127I_IdU <= 1.19\ngini = 0.35\nsamples = 12\nvalue = [14, 4, 0, 0, 0, 0]\nclass = apoptosis", fillcolor="#eca572"] ;
66 -> 74 ;
75 [label="gini = 0.0\nsamples = 8\nvalue = [13, 0, 0, 0, 0, 0]\nclass = apoptosis", fillcolor="#e58139"] ;
74 -> 75 ;
76 [label="142Nd_cCaspase 3 <= 3.66\ngini = 0.32\nsamples = 4\nvalue = [1, 4, 0, 0, 0, 0]\nclass = G0", fillcolor="#b6ec6a"] ;
74 -> 76 ;
77 [label="gini = 0.0\nsamples = 3\nvalue = [0, 4, 0, 0, 0, 0]\nclass = G0", fillcolor="#9de539"] ;
76 -> 77 ;
78 [label="gini = 0.0\nsamples = 1\nvalue = [1, 0, 0, 0, 0, 0]\nclass = apoptosis", fillcolor="#e58139"] ;
76 -> 78 ;
79 [label="127I_IdU <= 0.4\ngini = 0.49\nsamples = 104\nvalue = [91, 68, 0, 0, 0, 0]\nclass = apoptosis", fillcolor="#f8dfcd"] ;
51 -> 79 ;
80 [label="142Nd_cCaspase 3 <= 3.65\ngini = 0.5\nsamples = 77\nvalue = [69, 57, 0, 0, 0, 0]\nclass = apoptosis", fillcolor="#fae9dd"] ;
79 -> 80 ;
81 [label="gini = 0.0\nsamples = 36\nvalue = [0, 57, 0, 0, 0, 0]\nclass = G0", fillcolor="#9de539"] ;
80 -> 81 ;
82 [label="gini = 0.0\nsamples = 41\nvalue = [69, 0, 0, 0, 0, 0]\nclass = apoptosis", fillcolor="#e58139"] ;
80 -> 82 ;
83 [label="142Nd_cCaspase 3 <= 3.61\ngini = 0.44\nsamples = 27\nvalue = [22, 11, 0, 0, 0, 0]\nclass = apoptosis", fillcolor="#f2c09c"] ;
79 -> 83 ;
84 [label="gini = 0.0\nsamples = 10\nvalue = [0, 11, 0, 0, 0, 0]\nclass = G0", fillcolor="#9de539"] ;
83 -> 84 ;
85 [label="gini = 0.0\nsamples = 17\nvalue = [22, 0, 0, 0, 0, 0]\nclass = apoptosis", fillcolor="#e58139"] ;
83 -> 85 ;
86 [label="142Nd_cCaspase 3 <= 3.67\ngini = 0.46\nsamples = 1386\nvalue = [1435, 811, 0, 0, 0, 0]\nclass = apoptosis", fillcolor="#f4c8a9"] ;
50 -> 86 ;
87 [label="gini = 0.0\nsamples = 505\nvalue = [0, 811, 0, 0, 0, 0]\nclass = G0", fillcolor="#9de539"] ;
86 -> 87 ;
88 [label="gini = 0.0\nsamples = 881\nvalue = [1435, 0, 0, 0, 0, 0]\nclass = apoptosis", fillcolor="#e58139"] ;
86 -> 88 ;
89 [label="176Yb_Cyclin B1 <= 4.76\ngini = 0.67\nsamples = 10139\nvalue = [0, 0, 5369, 0, 5334, 5352]\nclass = G1", fillcolor="#ffffff"] ;
1 -> 89 ;
90 [label="176Yb_Cyclin B1 <= 2.66\ngini = 0.5\nsamples = 6643\nvalue = [0, 0, 5367, 0, 0, 5131]\nclass = G1", fillcolor="#f6fef9"] ;
89 -> 90 ;
91 [label="142Nd_cCaspase 3 <= 0.76\ngini = 0.46\nsamples = 1812\nvalue = [0, 0, 1812, 0, 0, 1015]\nclass = G1", fillcolor="#a8f4c8"] ;
90 -> 91 ;
92 [label="176Yb_Cyclin B1 <= 1.16\ngini = 0.5\nsamples = 385\nvalue = [0, 0, 279, 0, 0, 322]\nclass = M", fillcolor="#fce5f2"] ;
91 -> 92 ;
93 [label="176Yb_Cyclin B1 <= 0.97\ngini = 0.48\nsamples = 134\nvalue = [0, 0, 123, 0, 0, 81]\nclass = G1", fillcolor="#bbf6d4"] ;
92 -> 93 ;
94 [label="142Nd_cCaspase 3 <= 0.64\ngini = 0.49\nsamples = 123\nvalue = [0, 0, 105, 0, 0, 80]\nclass = G1", fillcolor="#d0f9e1"] ;
93 -> 94 ;
95 [label="142Nd_cCaspase 3 <= 0.57\ngini = 0.5\nsamples = 107\nvalue = [0, 0, 84, 0, 0, 75]\nclass = G1", fillcolor="#eafcf2"] ;
94 -> 95 ;
96 [label="127I_IdU <= 0.65\ngini = 0.49\nsamples = 93\nvalue = [0, 0, 77, 0, 0, 59]\nclass = G1", fillcolor="#d1f9e2"] ;
95 -> 96 ;
97 [label="89Y_pHH3 <= 2.17\ngini = 0.47\nsamples = 77\nvalue = [0, 0, 68, 0, 0, 40]\nclass = G1", fillcolor="#adf4cb"] ;
96 -> 97 ;
98 [label="gini = 0.0\nsamples = 47\nvalue = [0, 0, 68, 0, 0, 0]\nclass = G1", fillcolor="#39e581"] ;
97 -> 98 ;
99 [label="gini = 0.0\nsamples = 30\nvalue = [0, 0, 0, 0, 0, 40]\nclass = M", fillcolor="#e5399d"] ;
97 -> 99 ;
100 [label="176Yb_Cyclin B1 <= 0.87\ngini = 0.44\nsamples = 16\nvalue = [0, 0, 9, 0, 0, 19]\nclass = M", fillcolor="#f197cb"] ;
96 -> 100 ;
101 [label="142Nd_cCaspase 3 <= 0.25\ngini = 0.33\nsamples = 15\nvalue = [0, 0, 5, 0, 0, 19]\nclass = M", fillcolor="#ec6db7"] ;
100 -> 101 ;
102 [label="89Y_pHH3 <= 2.03\ngini = 0.46\nsamples = 9\nvalue = [0, 0, 5, 0, 0, 9]\nclass = M", fillcolor="#f3a7d3"] ;
101 -> 102 ;
103 [label="gini = 0.0\nsamples = 4\nvalue = [0, 0, 5, 0, 0, 0]\nclass = G1", fillcolor="#39e581"] ;
102 -> 103 ;
104 [label="gini = 0.0\nsamples = 5\nvalue = [0, 0, 0, 0, 0, 9]\nclass = M", fillcolor="#e5399d"] ;
102 -> 104 ;
105 [label="gini = 0.0\nsamples = 6\nvalue = [0, 0, 0, 0, 0, 10]\nclass = M", fillcolor="#e5399d"] ;
101 -> 105 ;
106 [label="gini = 0.0\nsamples = 1\nvalue = [0, 0, 4, 0, 0, 0]\nclass = G1", fillcolor="#39e581"] ;
100 -> 106 ;
107 [label="127I_IdU <= 1.44\ngini = 0.42\nsamples = 14\nvalue = [0, 0, 7, 0, 0, 16]\nclass = M", fillcolor="#f090c8"] ;
95 -> 107 ;
108 [label="150Nd_pRB <= 2.95\ngini = 0.36\nsamples = 13\nvalue = [0, 0, 5, 0, 0, 16]\nclass = M", fillcolor="#ed77bc"] ;
107 -> 108 ;
109 [label="gini = 0.0\nsamples = 7\nvalue = [0, 0, 0, 0, 0, 12]\nclass = M", fillcolor="#e5399d"] ;
108 -> 109 ;
110 [label="176Yb_Cyclin B1 <= 0.2\ngini = 0.49\nsamples = 6\nvalue = [0, 0, 5, 0, 0, 4]\nclass = G1", fillcolor="#d7fae6"] ;
108 -> 110 ;
111 [label="142Nd_cCaspase 3 <= 0.58\ngini = 0.44\nsamples = 4\nvalue = [0, 0, 2, 0, 0, 4]\nclass = M", fillcolor="#f29cce"] ;
110 -> 111 ;
112 [label="gini = 0.0\nsamples = 1\nvalue = [0, 0, 0, 0, 0, 3]\nclass = M", fillcolor="#e5399d"] ;
111 -> 112 ;
113 [label="150Nd_pRB <= 3.43\ngini = 0.44\nsamples = 3\nvalue = [0, 0, 2, 0, 0, 1]\nclass = G1", fillcolor="#9cf2c0"] ;
111 -> 113 ;
114 [label="gini = 0.0\nsamples = 1\nvalue = [0, 0, 1, 0, 0, 0]\nclass = G1", fillcolor="#39e581"] ;
113 -> 114 ;
115 [label="150Nd_pRB <= 3.76\ngini = 0.5\nsamples = 2\nvalue = [0, 0, 1, 0, 0, 1]\nclass = G1", fillcolor="#ffffff"] ;
113 -> 115 ;
116 [label="gini = 0.0\nsamples = 1\nvalue = [0, 0, 0, 0, 0, 1]\nclass = M", fillcolor="#e5399d"] ;
115 -> 116 ;
117 [label="gini = 0.0\nsamples = 1\nvalue = [0, 0, 1, 0, 0, 0]\nclass = G1", fillcolor="#39e581"] ;
115 -> 117 ;
118 [label="gini = 0.0\nsamples = 2\nvalue = [0, 0, 3, 0, 0, 0]\nclass = G1", fillcolor="#39e581"] ;
110 -> 118 ;
119 [label="gini = 0.0\nsamples = 1\nvalue = [0, 0, 2, 0, 0, 0]\nclass = G1", fillcolor="#39e581"] ;
107 -> 119 ;
120 [label="142Nd_cCaspase 3 <= 0.72\ngini = 0.31\nsamples = 16\nvalue = [0, 0, 21, 0, 0, 5]\nclass = G1", fillcolor="#68eb9f"] ;
94 -> 120 ;
121 [label="89Y_pHH3 <= 1.97\ngini = 0.09\nsamples = 12\nvalue = [0, 0, 20, 0, 0, 1]\nclass = G1", fillcolor="#43e687"] ;
120 -> 121 ;
122 [label="gini = 0.0\nsamples = 11\nvalue = [0, 0, 20, 0, 0, 0]\nclass = G1", fillcolor="#39e581"] ;
121 -> 122 ;
123 [label="gini = 0.0\nsamples = 1\nvalue = [0, 0, 0, 0, 0, 1]\nclass = M", fillcolor="#e5399d"] ;
121 -> 123 ;
124 [label="89Y_pHH3 <= 1.7\ngini = 0.32\nsamples = 4\nvalue = [0, 0, 1, 0, 0, 4]\nclass = M", fillcolor="#ec6ab6"] ;
120 -> 124 ;
125 [label="gini = 0.0\nsamples = 1\nvalue = [0, 0, 1, 0, 0, 0]\nclass = G1", fillcolor="#39e581"] ;
124 -> 125 ;
126 [label="gini = 0.0\nsamples = 3\nvalue = [0, 0, 0, 0, 0, 4]\nclass = M", fillcolor="#e5399d"] ;
124 -> 126 ;
127 [label="142Nd_cCaspase 3 <= 0.01\ngini = 0.1\nsamples = 11\nvalue = [0, 0, 18, 0, 0, 1]\nclass = G1", fillcolor="#44e688"] ;
93 -> 127 ;
128 [label="gini = 0.0\nsamples = 1\nvalue = [0, 0, 0, 0, 0, 1]\nclass = M", fillcolor="#e5399d"] ;
127 -> 128 ;
129 [label="gini = 0.0\nsamples = 10\nvalue = [0, 0, 18, 0, 0, 0]\nclass = G1", fillcolor="#39e581"] ;
127 -> 129 ;
130 [label="89Y_pHH3 <= 2.16\ngini = 0.48\nsamples = 251\nvalue = [0, 0, 156, 0, 0, 241]\nclass = M", fillcolor="#f6b9dc"] ;
92 -> 130 ;
131 [label="gini = 0.0\nsamples = 99\nvalue = [0, 0, 156, 0, 0, 0]\nclass = G1", fillcolor="#39e581"] ;
130 -> 131 ;
132 [label="gini = 0.0\nsamples = 152\nvalue = [0, 0, 0, 0, 0, 241]\nclass = M", fillcolor="#e5399d"] ;
130 -> 132 ;
133 [label="89Y_pHH3 <= 2.29\ngini = 0.43\nsamples = 1427\nvalue = [0, 0, 1533, 0, 0, 693]\nclass = G1", fillcolor="#93f1ba"] ;
91 -> 133 ;
134 [label="gini = 0.0\nsamples = 974\nvalue = [0, 0, 1533, 0, 0, 0]\nclass = G1", fillcolor="#39e581"] ;
133 -> 134 ;
135 [label="gini = 0.0\nsamples = 453\nvalue = [0, 0, 0, 0, 0, 693]\nclass = M", fillcolor="#e5399d"] ;
133 -> 135 ;
136 [label="89Y_pHH3 <= 3.04\ngini = 0.5\nsamples = 4831\nvalue = [0, 0, 3555, 0, 0, 4116]\nclass = M", fillcolor="#fbe4f2"] ;
90 -> 136 ;
137 [label="gini = 0.0\nsamples = 2244\nvalue = [0, 0, 3555, 0, 0, 0]\nclass = G1", fillcolor="#39e581"] ;
136 -> 137 ;
138 [label="gini = 0.0\nsamples = 2587\nvalue = [0, 0, 0, 0, 0, 4116]\nclass = M", fillcolor="#e5399d"] ;
136 -> 138 ;
139 [label="150Nd_pRB <= 4.41\ngini = 0.08\nsamples = 3496\nvalue = [0, 0, 2, 0, 5334, 221]\nclass = G2", fillcolor="#8641e6"] ;
89 -> 139 ;
140 [label="89Y_pHH3 <= 3.24\ngini = 0.04\nsamples = 3236\nvalue = [0, 0, 2, 0, 5013, 111]\nclass = G2", fillcolor="#843de6"] ;
139 -> 140 ;
141 [label="176Yb_Cyclin B1 <= 8.64\ngini = 0.0\nsamples = 3162\nvalue = [0, 0, 2, 0, 5013, 0]\nclass = G2", fillcolor="#8139e5"] ;
140 -> 141 ;
142 [label="gini = 0.0\nsamples = 3161\nvalue = [0, 0, 0, 0, 5013, 0]\nclass = G2", fillcolor="#8139e5"] ;
141 -> 142 ;
143 [label="gini = 0.0\nsamples = 1\nvalue = [0, 0, 2, 0, 0, 0]\nclass = G1", fillcolor="#39e581"] ;
141 -> 143 ;
144 [label="gini = 0.0\nsamples = 74\nvalue = [0, 0, 0, 0, 0, 111]\nclass = M", fillcolor="#e5399d"] ;
140 -> 144 ;
145 [label="89Y_pHH3 <= 3.05\ngini = 0.38\nsamples = 260\nvalue = [0, 0, 0, 0, 321, 110]\nclass = G2", fillcolor="#ac7dee"] ;
139 -> 145 ;
146 [label="gini = 0.0\nsamples = 199\nvalue = [0, 0, 0, 0, 321, 0]\nclass = G2", fillcolor="#8139e5"] ;
145 -> 146 ;
147 [label="gini = 0.0\nsamples = 61\nvalue = [0, 0, 0, 0, 0, 110]\nclass = M", fillcolor="#e5399d"] ;
145 -> 147 ;
148 [label="89Y_pHH3 <= 0.0\ngini = 0.0\nsamples = 3424\nvalue = [1, 8, 0, 5305, 0, 0]\nclass = S", fillcolor="#399de5"] ;
0 -> 148 [labeldistance=2.5, labelangle=-45, headlabel="False"] ;
149 [label="127I_IdU <= 7.93\ngini = 0.01\nsamples = 1768\nvalue = [1, 7, 0, 2728, 0, 0]\nclass = S", fillcolor="#3a9de5"] ;
148 -> 149 ;
150 [label="176Yb_Cyclin B1 <= 2.28\ngini = 0.01\nsamples = 1751\nvalue = [1, 6, 0, 2703, 0, 0]\nclass = S", fillcolor="#3a9de5"] ;
149 -> 150 ;
151 [label="gini = 0.0\nsamples = 771\nvalue = [0, 0, 0, 1209, 0, 0]\nclass = S", fillcolor="#399de5"] ;
150 -> 151 ;
152 [label="176Yb_Cyclin B1 <= 2.28\ngini = 0.01\nsamples = 980\nvalue = [1, 6, 0, 1494, 0, 0]\nclass = S", fillcolor="#3a9de5"] ;
150 -> 152 ;
153 [label="gini = 0.0\nsamples = 1\nvalue = [0, 3, 0, 0, 0, 0]\nclass = G0", fillcolor="#9de539"] ;
152 -> 153 ;
154 [label="150Nd_pRB <= 1.94\ngini = 0.01\nsamples = 979\nvalue = [1, 3, 0, 1494, 0, 0]\nclass = S", fillcolor="#3a9de5"] ;
152 -> 154 ;
155 [label="176Yb_Cyclin B1 <= 2.88\ngini = 0.38\nsamples = 2\nvalue = [1, 3, 0, 0, 0, 0]\nclass = G0", fillcolor="#beee7b"] ;
154 -> 155 ;
156 [label="gini = 0.0\nsamples = 1\nvalue = [1, 0, 0, 0, 0, 0]\nclass = apoptosis", fillcolor="#e58139"] ;
155 -> 156 ;
157 [label="gini = 0.0\nsamples = 1\nvalue = [0, 3, 0, 0, 0, 0]\nclass = G0", fillcolor="#9de539"] ;
155 -> 157 ;
158 [label="gini = 0.0\nsamples = 977\nvalue = [0, 0, 0, 1494, 0, 0]\nclass = S", fillcolor="#399de5"] ;
154 -> 158 ;
159 [label="127I_IdU <= 7.94\ngini = 0.07\nsamples = 17\nvalue = [0, 1, 0, 25, 0, 0]\nclass = S", fillcolor="#41a1e6"] ;
149 -> 159 ;
160 [label="gini = 0.0\nsamples = 1\nvalue = [0, 1, 0, 0, 0, 0]\nclass = G0", fillcolor="#9de539"] ;
159 -> 160 ;
161 [label="gini = 0.0\nsamples = 16\nvalue = [0, 0, 0, 25, 0, 0]\nclass = S", fillcolor="#399de5"] ;
159 -> 161 ;
162 [label="150Nd_pRB <= 1.92\ngini = 0.0\nsamples = 1656\nvalue = [0, 1, 0, 2577, 0, 0]\nclass = S", fillcolor="#399de5"] ;
148 -> 162 ;
163 [label="gini = 0.0\nsamples = 1\nvalue = [0, 1, 0, 0, 0, 0]\nclass = G0", fillcolor="#9de539"] ;
162 -> 163 ;
164 [label="gini = 0.0\nsamples = 1655\nvalue = [0, 0, 0, 2577, 0, 0]\nclass = S", fillcolor="#399de5"] ;
162 -> 164 ;
}